-0.133531
-0.0442904
-0.361354
0.174352
0.225792
-0.269533
-0.542195
0.922379
-0.108411
0.730757
-0.98876
-0.915859
-0.166692
0.426234
0.102011
-0.405814
0.404994
0.257173
-0.850859
0.196392
0.627416
-0.546815
0.611776
0.304973
0.655337
-0.592436
0.512995
-0.841018
0.0590506
0.294733
-0.0814708
0.925519
-0.422534
0.557196
0.426894
-0.869719
-0.385314
0.884699
-0.620316
0.833318
0.615436
-0.609076
0.917459
-0.224232
0.817158
0.346493
0.696997
0.549175
-0.396354
-0.826838
-0.254453
-0.768938
-0.373654
-0.642676
0.863079
-0.718317
0.0919309
0.703097
-0.232292
-0.849038
0.324853
0.686257
-0.923539
0.902319
0.570476
0.830398
-0.640356
-0.814858
0.715077
-0.260673
-0.654497
0.657557
0.130271
-0.410014
-0.239652
0.274453
0.936499
-0.542655
-0.176372
-0.132831
-0.369494
0.569176
0.425274
0.256873
-0.746477
0.288353
0.538555
0.345453
0.318473
-0.693757
0.496415
-0.356674
0.9925
0.899919
-0.127331
0.562956
0.730297
0.232312
-0.924859
0.445374
-0.701317
-0.579356
0.429954
0.428954
0.0106301
-0.809718
0.0304303
0.274153
-0.352374
0.854059
-0.858679
0.278153
0.750278
0.566596
-0.137951
-0.99622
0.181972
-0.599416
0.349253
-0.499555
-0.293173
0.172692
0.470815
0.0263703
0.0726107
-0.656537
-0.0836508
-0.197112
0.575796
-0.00851009
-0.424714
-0.798498
0.739177
-0.99478
0.630456
0.0768508
-0.477435
-0.339133
-0.649016
0.497235
-0.158032
-0.180652
-0.224632
-0.407774
-0.287013
0.637416
-0.403994
0.894959
-0.634976
-0.727717
-0.277573
0.398914
0.444994
-0.806778
-0.574736
-0.482415
-0.463295
0.341613
0.647516
-0.560476
-0.339853
-0.777198
-0.358974
-0.600696
-0.444934
-0.401494
0.803198
0.0776308
0.586416
-0.845818
-0.425134
-0.571636
0.300573
0.677277
0.347633
-0.98646
0.641736
0.943659
-0.764458
-0.666217
-0.457035
-0.0420304
0.732697
0.98796
0.478255
-0.842058
-0.167432
-0.658017
0.826618
-0.519915
0.108551
-0.513255
0.0299303
-0.923399
0.213092
0.584996
-0.324893
0.0162902
-0.0103301
-0.411454
0.497515
0.891579
0.0169302
-0.201932
0.895879
-0.635456
0.138671
0.864639
-0.364774
0.374214
-0.801578
0.505255
-0.340793
0.931119
0.820238
-0.535515
-0.583896
-0.347193
-0.193532
-0.430254
0.459935
-0.757958
0.383534
-0.510155
-0.681357
-0.403394
-0.598136
0.320793
0.939939
0.718577
0.909359
0.437434
0.937179
0.253313
-0.437454
-0.839918
0.944899
0.701217
-0.9753
-0.419874
0.402454
-0.449834
-0.587596
-0.938359
-0.191672
-0.767378
-0.473855
0.224432
-0.114571
0.659657
-0.878799
-0.327613
0.901719
0.504735
0.162232
-0.452615
-0.898679
0.891159
0.868199
-0.95874
0.936759
0.777538
0.805738
0.873939
0.357874
-0.631736
-0.966
0.302753
-0.603496
-0.614256
-0.790098
0.798958
-0.0640706
-0.377694
0.860619
0.744257
-0.145051
-0.286213
0.295713
-0.932599
-0.299533
0.416914
-0.260193
-0.397834
-0.0783708
-0.770938
0.149571
0.349993
-0.552756
0.344793
0.718297
-0.615996
0.449354
0.524035
-0.742077
-0.192792
-0.780678
-0.381034
-0.890059
-0.384154
0.331753
-0.680137
-0.585216
-0.732337
-0.0578306
-0.724617
-0.661057
-0.875859
0.316213
0.9617
-0.808438
-0.98332
0.378594
0.258413
-0.0541105
-0.372754
0.487475
-0.577516
-0.695717
0.934739
0.767278
-0.97744
-0.354234
0.216612
0.546595
0.230732
-0.649156
0.765938
-0.823278
-0.539195
-0.291193
0.508475
-0.219332
0.123591
0.776158
-0.95014
0.726037
-0.557876
-0.825978
0.0422304
-0.596176
-0.634416
0.385954
-0.890559
0.95104
-0.668157
0.0637506
0.438494
-0.245672
0.368034
0.700257
-0.151352
0.390594
-0.326953
-0.607716
0.264233
0.903779
-0.256853
0.357194
-0.919519
0.530995
-0.934019
0.588976
-0.688357
0.189572
0.692157
-0.311453
0.242632
-0.538695
-0.137431
-0.715137
-0.134871
0.555196
0.99786
0.301633
0.506215
-0.670317
-0.634636
0.271753
0.411074
-0.939579
0.299033
-0.413254
0.451015
0.9721
-0.0209702
0.0422704
0.875859
-0.9508
-0.600556
-0.716617
0.580196
-0.534575
0.872359
-0.781138
0.98206
0.891539
-0.0925709
0.224672
-0.647176
-0.902979
0.836578
0.545015
0.652237
0.834438
-0.153372
0.485475
-0.508855
0.539035
-0.242792
-0.770758
0.926499
-0.943759
-0.184012
0.377494
-0.97168
-0.877939
-0.253193
-0.768798
-0.828738
0.146251
-0.485415
0.751478
0.938739
-0.286033
-0.702637
-0.752198
-0.394514
0.204792
0.472475
0.285373
0.301833
0.636096
-0.169632
0.281093
0.470515
-0.99598
-0.233452
-0.711317
0.543055
0.850819
-0.482055
0.469535
-0.765918
0.333933
0.174052
-0.737597
0.455995
-0.752118
-0.179352
0.95432
0.394154
0.662297
-0.9672
0.659917
-0.623756
-0.669837
0.907719
0.308793
0.862019
0.707217
-0.405854
0.490875
0.670337
0.424514
-0.228052
0.467875
0.428534
0.865539
0.756578
0.298613
0.716337
-0.725497
0.095171
0.95042
0.935479
-0.403754
-0.460155
0.718517
-0.155852
0.687557
0.672817
-0.434674
0.349833
0.705617
-0.774778
0.726077
-0.96424
-0.540035
0.0348503
-0.775198
-0.505795
0.628996
0.715677
-0.835458
0.380534
-0.512395
0.632416
0.136091
-0.319813
0.388974
-0.565316
-0.603496
0.99052
0.529855
-0.326033
-0.746977
-0.546855
0.540855
0.97154
0.297293
0.228392
0.97138
-0.810358
-0.421794
0.676977
-0.258093
-0.368674
-0.96024
0.201872
0.666177
-0.735417
-0.9769
0.622216
0.98026
-0.812358
0.329773
-0.205092
-0.852899
-0.534135
0.475095
0.863119
-0.099451
-0.801378
0.853639
-0.242552
0.199632
-0.566316
0.537635
-0.259513
-0.594796
-0.165092
-0.704097
-0.623436
0.351594
-0.125871
-0.619436
-0.906519
0.832498
-0.579676
0.622396
0.825698
0.0119501
0.645496
0.774938
0.319253
-0.839818
0.104711
-0.885859
-0.692717
0.570576
0.589236
-0.829618
-0.201852
-0.885119
-0.648956
0.555596
0.314533
-0.215272
0.0932109
-0.944999
0.189932
-0.744857
-0.649096
0.893539
0.606736
0.552076
-0.398874
0.700217
0.384554
0.348513
0.322593
0.537295
-0.639556
0.295133
0.312213
0.679697
0.455315
-0.583096
0.793838
0.762598
0.98748
0.710097
-0.739997
-0.214372
0.824998
-0.388934
-0.331753
0.139511
0.395794
-0.911499
0.521555
-0.0872309
-0.656357
-0.800518
0.133331
-0.722577
0.751578
0.734477
0.97764
0.463155
0.0829708
0.627276
0.000430004
0.770458
-0.0776108
-0.687357
0.450155
-0.295273
0.0565906
0.571016
-0.205652
0.0440704
0.608156
0.0543505
-0.843278
0.433134
0.665417
-0.175032
-0.100331
0.388254
-0.0865309
-0.251753
-0.371954
0.584176
-0.0522705
-0.911599
0.861599
0.0263303
0.822878
-0.833758
-0.183472
0.232872
-0.879459
-0.856019
0.00333003
0.369974
-0.216332
-0.219492
-0.925319
0.840278
-0.648496
-0.130971
-0.115671
-0.713317
0.923399
0.0410504
0.719817
0.915839
-0.806958
-0.0534905
0.631116
0.106531
-0.97822
-0.413814
0.0177302
-0.0304703
-0.325393
-0.120691
-0.677117
-0.175492
0.0455505
0.466455
-0.942619
0.166112
0.610456
0.387754
-0.463935
-0.605896
-0.504715
-0.0621906
-0.765638
0.173832
0.806838
0.118691
0.460535
-0.942759
-0.513235
0.507375
-0.699877
0.00687007
-0.546115
-0.741737
-0.559576
-0.197292
-0.155532
0.458155
0.772238
0.846118
-0.662557
-0.577836
-0.329393
0.710037
0.888619
0.0550306
0.203172
0.499055
-0.230192
-0.933719
-0.779798
0.265093
0.331133
-0.545435
-0.561076
0.464995
0.900319
0.899459
0.522255
-0.285893
0.406814
-0.850599
0.720977
-0.812278
-0.265293
-0.838618
-0.0095501
0.579176
0.619536
0.0897109
0.752318
-0.715997
0.511875
-0.577076
-0.678917
0.727537
0.804998
0.851299
0.553616
-0.425194
0.917579
0.773818
-0.833078
0.575736
-0.444574
-0.394154
0.0407304
-0.544275
-0.494715
-0.437034
0.169832
-0.760858
0.0394104
0.217852
-0.573136
0.774118
0.379234
0.744357
0.680337
-0.00123001
-0.165932
0.432634
0.609816
-0.327033
-0.817418
0.930899
-0.599516
0.9876
0.782198
-0.718857
-0.110571
-0.97322
-0.618016
0.0563506
0.602536
-0.0625906
0.662217
-0.356754
0.393134
-0.505475
0.533255
-0.109991
0.0607106
-0.100311
-0.892159
0.487595
0.000830008
0.487075
0.558976
-0.318853
-0.187132
-0.606976
-0.559176
-0.250273
0.393054
-0.376594
0.00765008
-0.879439
-0.389014
0.116871
-0.598296
0.827458
0.143671
-0.216292
-0.116191
0.0732307
0.721117
-0.453995
-0.9565
0.441294
0.367574
0.903799
-0.668717
-0.571716
-0.196532
-0.233832
-0.757098
0.804298
-0.419734
0.801878
-0.187512
0.720197
-0.478055
0.253313
-0.530095
0.914999
-0.796258
0.477555
-0.96446
-0.185252
-0.405574
-0.235692
-0.0307703
-0.934879
0.548015
0.853039
0.138351
0.596156
-0.273933
0.508895
0.0374304
-0.906359
0.412674
0.695757
-0.151032
-0.456835
-0.538095
0.0918709
-0.325513
0.369234
0.220772
0.486975
0.0894109
-0.930259
0.0673107
0.559316
0.98474
0.271073
0.0368504
-0.652677
-0.587156
0.95832
0.111631
0.382074
-0.97658
-0.0133301
0.235112
0.488815
-0.417194
0.96118
-0.00231002
0.947299
-0.618156
-0.262613
0.97008
0.230812
0.280553
-0.240972
-0.350294
0.95506
-0.871759
-0.802478
0.769058
0.217652
-0.732737
-0.163632
0.103991
-0.747997
-0.892579
-0.859179
-0.0736307
-0.479735
-0.573816
-0.96202
0.902339
-0.550396
0.351694
0.137431
-0.734537
-0.738477
0.425654
0.590196
-0.791198
0.807498
-0.672417
-0.494075
0.365354
0.935179
0.264953
-0.657917
0.890219
0.393194
-0.460395
0.659277
-0.0621306
-0.193112
-0.177332
-0.95816
0.385934
-0.0699107
-0.490295
-0.360674
0.450355
-0.0641106
-0.322693
0.679717
0.712557
-0.643976
0.144191
-0.694957
-0.382454
-0.103131
0.895239
0.153412
-0.295653
-0.777198
0.659337
-0.603276
-0.842018
0.251313
-0.261173
-0.624776
-0.0284703
0.605476
-0.638476
0.909399
-0.260613
0.184192
-0.721737
-0.547655
-0.885739
-0.212032
0.0916709
0.891659
-0.949099
-0.903999
0.898419
-0.909519
-0.547975
0.0425904
-0.604476
0.0695907
0.939459
-0.709257
-0.449974
-0.0291703
-0.159392
-0.463615
0.694617
0.325633
0.787698
-0.239532
0.700857
-0.240792
-0.634076
-0.937619
-0.00437004
0.432374
0.573616
0.273893
0.884719
-0.98508
-0.611116
-0.0236102
-0.766398
-0.560216
0.0723907
-0.867999
-0.142691
0.851479
0.501635
0.252833
0.248092
0.768118
0.870639
0.798118
-0.261053
-0.288773
-0.665517
-0.239412
-0.96316
-0.877839
0.521055
0.737697
0.208412
-0.785998
-0.872899
-0.795978
0.646376
-0.97224
0.477915
0.858139
-0.95732
0.866799
-0.165492
-0.723717
-0.366374
-0.766078
-0.591696
0.490935
-0.914619
-0.763038
-0.256233
0.333473
-0.99492
-0.385614
0.458615
-0.255973
0.652657
0.793098
0.831658
0.689497
-0.757718
0.352694
0.754218
0.450695
0.893739
-0.791638
0.654717
0.540115
-0.763878
0.459655
0.398234
-0.721197
0.653497
-0.440234
-0.444914
-0.712897
-0.206312
0.290433
-0.894939
0.206132
0.527415
0.175872
-0.460415
0.532495
-0.882719
0.99822
-0.396454
0.769938
-0.881679
-0.564816
0.786458
-0.639376
-0.885099
0.867719
-0.861659
-0.99138
-0.923939
0.793078
0.875779
-0.687817
0.579756
0.601036
-0.0819708
0.233232
-0.512175
0.800158
0.847378
0.281533
0.417634
-0.720517
-0.512355
-0.0549705
0.455355
0.354274
-0.195452
0.899699
0.679517
0.735137
0.99666
0.797858
-0.502655
0.783118
-0.841538
-0.387754
0.97786
-0.376154
-0.0520905
-0.946099
-0.256053
-0.176312
-0.306873
-0.676297
-0.248252
0.938199
0.883979
0.239592
0.738337
-0.941619
-0.478895
0.482995
-0.662137
0.335793
-0.244952
-0.879759
0.0170902
0.559596
-0.653037
-0.303393
0.621756
-0.656377
-0.178512
-0.880919
-0.546235
-0.0200502
-0.268673
-0.568396
0.603796
0.679257
-0.187452
-0.652257
-0.170032
0.832718
-0.00151002
0.581716
0.770898
0.209492
-0.178712
0.836258
0.267873
0.669437
0.319253
0.932779
0.332253
-0.925719
-0.619936
-0.650657
0.96094
-0.272973
0.372994
0.582676
0.397694
-0.805538
-0.9712
0.851459
0.501455
0.0871709
-0.389914
0.432274
-0.233592
0.422634
-0.892959
0.923419
0.582376
0.105531
0.505135
0.353254
-0.684977
-0.346553
0.516555
0.909939
-0.677117
-0.164212
0.842718
0.655137
0.237112
-0.777238
-0.668497
0.525075
-0.0502105
0.704497
0.434794
-0.325473
0.898959
0.463595
-0.474035
0.400394
-0.449254
0.463115
-0.167332
0.644216
-0.114271
-0.0602906
0.567616
-0.531895
-0.627716
0.399774
-0.851619
-0.312693
-0.946779
0.664937
-0.402774
-0.623896
-0.172252
-0.560076
-0.96878
-0.935139
-0.0102701
-0.637256
0.916979
-0.733437
-0.605736
0.351754
-0.0589106
-0.706777
-0.184672
0.794098
0.693617
0.693137
0.257193
-0.146691
0.337333
-0.530035
0.793038
0.231972
0.265113
-0.834698
-0.368254
0.413494
0.179652
-0.315033
0.405474
-0.896099
0.388114
-0.766798
-0.129111
0.746377
-0.374894
0.860619
-0.563856
-0.130871
-0.872839
-0.169572
-0.779138
0.395294
0.123651
0.363254
0.189392
0.144291
0.383414
-0.553436
0.99762
-0.279273
0.243572
-0.882339
-0.720277
-0.491335
-0.389994
0.238512
0.922179
0.789658
0.923479
0.654677
0.893559
0.638616
-0.785098
-0.235572
0.384994
-0.159972
-0.0479105
0.821138
-0.96382
0.406294
-0.348453
-0.742957
-0.198412
-0.897779
0.947339
-0.681997
0.246532
0.330733
0.0916109
0.571176
-0.621516
-0.664817
0.688837
-0.341773
-0.156152
-0.701177
0.896739
0.0930509
-0.584496
-0.852759
-0.252293
-0.363914
0.785858
-0.0373704
0.400534
0.497875
-0.870319
-0.320353
0.319013
-0.834138
-0.914079
-0.702417
-0.250053
0.214552
-0.600176
-0.302713
0.532555
0.9734
-0.972
-0.375834
0.544555
-0.593496
-0.0406504
0.233372
0.391774
0.803198
0.859239
0.288493
0.223292
-0.398234
0.762778
0.971
0.237852
0.875679
0.260653
-0.0345903
0.373534
0.390334
0.645056
-0.307473
0.883239
-0.941979
0.317173
-0.366814
0.272573
0.716997
0.657517
-0.194872
0.690377
0.685517
0.756338
0.234912
-0.580956
-0.284333
-0.204692
0.810818
-0.154112
-0.0184302
0.426354
-0.930839
0.583336
0.189112
-0.632796
0.148211
0.391814
0.627856
-0.886379
-0.234652
0.345233
0.758678
0.784918
0.228452
0.816698
0.102071
-0.811338
0.416314
-0.180952
-0.826798
-0.778578
-0.163552
-0.814238
-0.695217
-0.601616
-0.395194
0.0204502
0.520735
-0.584376
-0.806638
-0.170672
-0.830998
-0.737457
-0.587356
0.358114
-0.0432104
0.560876
-0.250073
-0.415374
-0.99848
0.842318
0.929859
0.760198
0.627216
0.485355
0.903939
0.0563306
-0.99896
0.320233
-0.797598
-0.825738
0.868699
0.0388704
-0.639976
-0.826538
0.764298
0.291873
0.520955
0.285033
-0.96548
-0.95866
-0.885659
-0.796478
-0.369074
-0.145951
0.888699
0.587716
-0.258053
-0.0343503
-0.827658
-0.256533
-0.192052
-0.570776
-0.169312
-0.237812
-0.758398
0.0616506
0.818518
-0.757338
-0.618136
-0.97908
-0.256033
-0.422414
0.386834
0.431034
0.0780908
0.151112
-0.277113
-0.0739307
-0.563876
0.0844708
-0.0325703
-0.122471
0.287993
0.598356
-0.941399
0.176672
0.513115
-0.199452
-0.857699
0.685457
0.544015
-0.0497505
-0.558296
-0.298273
-0.96052
-0.316673
0.763398
0.857999
0.253033
-0.527715
-0.794058
0.997
0.0498905
0.592776
0.755058
-0.544995
0.0709307
-0.195032
0.708137
0.834098
0.889439
-0.324453
-0.288393
0.177432
-0.399074
-0.229792
-0.645916
-0.558936
0.897799
-0.176552
-0.546455
0.768838
-0.899279
-0.104731
-0.529435
-0.859799
0.578596
-0.766058
-0.674757
-0.168392
0.0332703
-0.141771
0.155632
-0.589816
-0.548995
0.237712
-0.134791
0.848978
-0.95734
-0.426674
0.683057
-0.740857
0.575916
-0.278293
0.436574
-0.496135
0.491915
-0.882319
-0.0550506
0.716757
0.268173
0.725537
0.485575
0.368914
-0.379214
0.95614
0.836158
-0.473595
-0.482895
-0.838618
0.685057
0.550396
0.0196302
-0.159332
0.96058
0.797678
-0.594596
0.152812
0.646636
-0.551916
-0.946839
0.656717
-0.292773
0.95612
-0.621596
-0.529175
-0.540015
-0.802638
-0.0844508
0.731977
0.914119
-0.816278
0.784538
0.726717
0.552636
-0.594676
0.682857
0.388774
-0.0682707
-0.473015
0.877219
-0.383214
-0.595596
0.223872
0.784498
-0.307973
0.0215302
-0.810098
0.844838
-0.00481005
-0.0349703
-0.774958
-0.348113
0.9993
-0.818858
0.357354
-0.529895
-0.0318303
0.554716
0.385654
0.0271703
0.795858
0.569376
-0.188292
0.522555
0.449034
0.217032
0.532435
0.164852
-0.524215
-0.940579
0.0420504
0.0925709
-0.209132
-0.407054
0.204112
0.482895
0.941519
0.394014
0.654777
-0.0633106
-0.313933
0.879819
0.915619
-0.314653
-0.612016
0.599996
0.155452
0.356174
0.154692
-0.131871
-0.616676
-0.0494705
-0.235452
0.195032
-0.526915
-0.786438
-0.260913
-0.9945
0.378414
0.214892
-0.608036
-0.252513
-0.365514
0.509895
0.340433
0.838598
-0.00723007
0.281933
0.559636
-0.0254303
-0.454355
-0.754318
0.181412
-0.211692
-0.0689707
0.569416
-0.611716
-0.586496
-0.0744307
0.870039
0.281653
0.635936
-0.179452
-0.95382
0.158012
0.620676
-0.413214
0.897099
0.95324
-0.707757
0.439014
-0.654817
0.366774
-0.599456
-0.817898
-0.292793
-0.760878
0.174892
-0.683837
-0.874199
-0.523515
0.188872
-0.301473
0.657917
0.97718
0.95662
0.554356
-0.307513
-0.629896
-0.193052
-0.437494
0.9788
-0.557136
0.383074
-0.647996
0.600876
0.330773
0.265853
0.825018
0.283993
0.558096
0.591056
0.95624
-0.0751508
0.9916
-0.861679
0.9591
-0.442234
0.640256
-0.397694
-0.316433
-0.883259
0.791178
0.709137
-0.898319
0.768338
0.665737
0.656037
-0.539195
-0.637116
-0.537035
0.0233302
-0.658337
0.232872
-0.266573
0.0207302
0.160792
-0.608776
-0.713437
-0.0142101
0.675237
-0.828318
-0.423174
0.9585
0.423574
-0.104531
-0.576156
0.709717
0.453235
-0.935899
-0.687997
-0.863219
-0.492115
-0.896839
-0.827058
-0.0633906
0.871499
0.838698
-0.0803308
-0.340673
-0.798438
0.709677
-0.99032
-0.129731
-0.0574706
0.0701507
-0.781978
-0.896699
0.461395
-0.168372
0.416134
0.463655
0.330353
-0.679997
0.422134
-0.246072
0.215472
-0.826998
-0.536375
-0.331313
-0.762898
-0.224372
0.132511
0.0720307
0.205832
0.305453
-0.99138
0.404354
0.144131
-0.0717107
-0.936339
0.672737
-0.362054
-0.599596
-0.129951
0.907539
0.470555
0.0880709
-0.98918
0.258973
-0.753258
0.754018
-0.277393
0.577096
-0.925999
-0.528235
-0.668997
0.289473
-0.355214
0.121671
-0.714817
0.208932
-0.775678
0.417694
-0.391994
0.430154
0.0501705
-0.0563306
-0.165512
-0.478655
-0.800998
0.225212
-0.478895
-0.163052
0.625616
0.391154
0.0715107
0.423194
-0.193732
0.409394
-0.317833
0.0530105
0.163392
0.731817
-0.369914
0.237392
-0.469375
0.288153
-0.146111
0.502455
-0.263153
0.466115
0.0384104
-0.0388104
0.210832
0.646416
-0.281633
-0.739017
-0.409914
0.552876
0.109371
-0.210912
0.105111
0.630496
0.95308
-0.269293
0.0216302
0.0245902
-0.519075
0.827898
-0.238992
0.490135
0.207932
0.924399
0.221952
0.838038
0.488815
-0.920399
0.453215
-0.330273
0.582056
-0.809958
-0.864179
-0.379554
0.478275
0.346653
-0.406094
-0.803358
0.934679
0.511035
-0.923459
0.0440504
-0.699897
0.508695
-0.325473
-0.419794
-0.433574
0.696157
0.931839
0.0473505
0.851099
-0.307173
-0.462515
0.0590106
-0.382794
-0.913539
0.224072
-0.566956
-0.833938
-0.322733
0.102771
-0.924859
0.194372
0.238592
0.0226302
-0.000330003
-0.0877309
0.616536
0.196312
-0.153052
0.127551
0.599896
-0.781978
0.754698
0.108571
-0.107451
-0.338053
0.674997
-0.0842708
-0.406234
0.0493905
0.0938509
0.613656
0.586876
-0.520095
-0.769158
-0.99964
0.703977
-0.336093
-0.833578
-0.291713
-0.906299
-0.758438
-0.770318
0.332313
0.591236
0.229352
-0.428394
0.207772
-0.247292
0.745597
-0.337653
-0.647416
0.96362
-0.255913
0.788218
0.183192
0.406034
0.790238
-0.901079
-0.673177
-0.160392
0.519815
0.940479
-0.246492
0.99972
-0.501635
-0.246132
0.703697
0.489315
0.247332
-0.260993
0.583016
0.815938
-0.0313103
0.242352
0.407174
-0.801978
0.813978
-0.385074
-0.0492705
0.886599
0.604316
0.630376
0.850219
-0.324573
0.418574
0.0333903
-0.591516
0.535835
0.459355
-0.264673
-0.297513
-0.0208302
0.00283003
0.783038
-0.0211302
0.501195
-0.463095
0.0095901
0.317533
-0.888739
0.748597
-0.099451
0.927219
-0.282733
-0.530075
0.334373
0.242352
-0.389074
-0.723677
-0.806938
-0.502475
-0.792338
0.823438
-0.652277
-0.116891
0.569036
0.708157
0.291593
0.104871
0.494555
-0.646056
-0.865619
-0.199252
0.683837
0.917419
-0.893359
0.512055
-0.545695
0.116251
-0.170412
-0.107371
0.191872
-0.942839
-0.180172
-0.763818
-0.472915
-0.845818
0.478535
0.138031
-0.242452
0.671597
0.635556
-0.0347903
0.822078
-0.689697
-0.824658
0.391094
-0.654517
0.793998
-0.177012
0.840038
-0.525035
-0.0426304
-0.0321903
-0.841218
-0.125211
0.0744707
0.670857
0.656137
-0.482255
-0.172532
-0.451255
0.709617
-0.115371
0.695617
0.945799
0.411714
-0.823178
0.424314
-0.123231
-0.0656307
0.422954
-0.160652
0.899599
0.245012
0.476695
-0.598036
-0.0368704
0.822198
-0.804058
0.786138
0.98926
-0.329073
-0.256513
-0.0429304
-0.170292
0.945319
-0.96848
-0.172412
0.928499
-0.450735
0.655057
-0.522775
-0.414094
-0.460335
-0.500115
-0.468295
-0.721577
-0.323293
-0.716957
0.155192
0.611096
-0.96698
0.99456
0.837718
0.605076
0.471235
-0.760338
-0.431794
0.620456
-0.564376
-0.645676
0.609716
0.433594
0.424854
-0.106191
-0.409674
0.370174
-0.0746707
0.417934
0.625696
0.801638
0.400014
-0.570056
-0.612476
0.939699
-0.0701707
0.246272
-0.454855
0.606556
0.856379
0.700337
0.217632
0.889399
-0.9781
0.382374
0.494475
0.820198
0.622036
-0.937339
0.767678
-0.615316
-0.255973
0.377374
-0.854699
-0.831138
-0.401794
-0.264353
0.866079
0.850579
-0.846438
0.818798
0.652197
0.553576
-0.751258
-0.633236
0.820298
0.178572
0.940079
-0.634576
-0.214892
0.796438
-0.607196
-0.670237
-0.98714
-0.258253
0.712137
0.834378
-0.111031
0.334173
-0.775938
-0.343353
-0.95412
-0.0319103
-0.638956
-0.808798
0.463995
-0.0407304
-0.0731507
0.657117
-0.190172
0.407454
0.475895
-0.210932
0.288053
-0.948339
0.155832
0.435394
0.230252
0.095891
0.800818
-0.657617
0.219372
-0.479355
-0.327833
0.559276
0.262413
-0.615716
0.393634
-0.848638
-0.95452
0.944739
0.135051
-0.908619
0.239852
0.496115
-0.390374
0.0308703
-0.544635
0.536475
0.0150102
0.265193
0.270953
-0.182052
-0.945759
-0.441014
-0.130391
0.537115
0.99438
-0.900159
-0.0399504
-0.877779
-0.557756
-0.493555
-0.0300903
0.441454
-0.934299
-0.440654
0.825738
0.786378
0.0377704
-0.801738
0.731097
-0.827198
-0.710357
-0.0290703
0.668917
-0.100731
-0.99822
-0.875739
-0.237232
0.0168102
0.716517
-0.9663
0.834758
-0.902219
-0.0802708
0.0313903
0.96196
-0.0858909
0.131251
-0.0780108
0.363374
0.900539
0.755478
-0.666737
0.341973
0.821178
-0.107371
0.494735
0.934579
0.930399
0.692997
0.665657
-0.569776
-0.690337
-0.0363904
-0.900859
0.535975
0.292433
-0.449554
-0.701277
-0.363734
-0.406014
-0.340533
-0.528995
-0.308213
0.579216
0.502415
-0.346273
-0.179652
-0.0393104
0.902759
-0.816298
0.188252
0.658217
-0.155992
-0.142751
0.806418
-0.936339
-0.320993
0.740977
-0.678917
-0.300953
0.733657
-0.248672
0.00871009
-0.302753
0.177512
-0.455315
0.98968
0.727957
0.170452
-0.374054
-0.678057
0.829938
0.423994
0.340773
0.736177
0.253433
-0.678477
-0.443494
-0.458855
-0.775738
0.0672507
0.729397
-0.790498
0.911259
-0.0863309
-0.657057
0.97494
0.592696
-0.916099
-0.376954
-0.708277
0.817558
0.374374
0.300433
-0.158172
-0.448134
-0.827858
-0.168512
-0.393134
0.669657
0.784478
0.255853
0.826618
0.208472
-0.403394
0.562776
-0.538115
-0.0818708
-0.880739
0.00305003
0.469435
0.513555
0.0594706
-0.99404
0.424794
0.97316
-0.651097
0.726757
0.565836
-0.240152
-0.650197
-0.815418
-0.095571
-0.948799
0.812058
0.746257
-0.0698707
0.98422
-0.095231
0.536995
0.9809
-0.310753
0.119871
0.807498
0.897719
0.716477
0.697297
-0.313373
-0.0383704
0.816558
-0.9833
-0.241912
0.330093
0.403234
-0.235952
0.0819108
0.376374
0.439994
-0.191332
0.269233
-0.473135
0.485515
0.780858
0.431294
0.863759
0.592896
0.504575
-0.206132
0.577096
-0.590676
-0.342113
0.885019
0.098571
0.777758
0.692497
0.323313
0.821258
0.389774
-0.663017
0.109911
0.533355
-0.319273
0.867999
0.190472
-0.916059
-0.0409304
-0.400574
0.787358
-0.273913
0.408094
0.383614
0.252953
0.220632
0.164452
0.0112701
0.0843708
-0.242652
-0.484175
-0.794718
-0.338533
-0.0748307
-0.136831
-0.453515
-0.649236
-0.0320303
-0.433994
-0.99888
0.116251
0.9558
-0.334853
-0.773838
0.816178
0.345873
-0.905859
0.00665007
0.756878
0.0532305
0.606076
0.544215
0.779318
0.341193
0.254873
0.359314
-0.111151
-0.580696
-0.629436
-0.699757
0.176652
-0.113591
-0.494475
0.838138
-0.861399
0.695757
-0.288353
-0.183592
-0.336293
0.277653
0.144571
0.779958
0.233432
0.809718
-0.9939
0.376654
0.482635
-0.572696
-0.289673
0.239492
0.807578
-0.683617
0.110731
0.586876
0.98462
-0.634416
0.273213
-0.126551
-0.215092
0.643796
0.500735
-0.711417
-0.469815
-0.99374
-0.546255
-0.00417004
0.702017
0.165392
0.812238
-0.307253
-0.556956
-0.0431904
-0.200272
-0.9965
0.0935509
0.132891
0.380154
-0.423834
0.560196
-0.909539
0.815658
0.367754
-0.266113
-0.0736107
0.281653
0.0455305
0.619016
-0.445134
-0.753998
-0.596096
-0.474315
0.746757
-0.307493
0.0558706
-0.919959
0.146251
-0.621276
0.782058
-0.361314
-0.482015
-0.198172
0.0817308
0.801838
0.928599
0.412274
-0.104611
0.0614706
0.119471
0.798598
-0.0513105
0.536975
0.614256
-0.683577
-0.402094
-0.132331
0.925139
0.643436
-0.186292
-0.192972
-0.783518
0.217632
0.332713
0.96324
-0.762838
-0.284393
-0.95674
0.710457
0.0943309
-0.847658
-0.650877
0.612316
0.281213
0.757898
0.741197
0.209792
0.170172
-0.363434
-0.728737
-0.383334
-0.564856
0.219952
-0.846378
-0.623576
0.863439
-0.248472
0.571136
0.788558
-0.277993
-0.615156
-0.404434
-0.0615106
0.929519
-0.744697
-0.098291
-0.833338
-0.0290903
0.272013
-0.795858
-0.934779
0.751398
-0.446714
-0.99544
0.0325903
-0.361794
0.745757
-0.757638
-0.864599
-0.290653
-0.159332
-0.247932
0.471555
-0.939379
0.232752
0.847978
-0.748917
0.98428
0.746157
-0.633336
0.0333103
-0.541975
0.289273
0.9718
-0.612476
0.544575
0.200532
-0.118771
-0.484535
-0.200432
0.0853709
-0.419314
-0.449054
0.9657
-0.0877109
0.583536
-0.396094
-0.0149101
-0.847058
-0.260693
0.694437
-0.00639006
0.491395
0.165972
0.381274
-0.275873
0.340993
0.632356
0.0354304
0.414174
0.99902
-0.931259
0.872199
0.288273
-0.632436
-0.740297
-0.167172
0.568116
0.467975
0.348293
-0.305293
-0.446674
-0.743997
0.245672
-0.480975
0.495355
0.156232
0.122931
-0.519575
0.309173
0.862239
-0.498115
-0.697217
0.680657
0.99492
0.684057
-0.595236
0.662937
0.643456
0.767258
0.0770908
0.642456
0.835998
0.276313
0.257773
-0.796458
0.536015
-0.909419
-0.901319
0.331013
0.765938
-0.206592
0.884339
-0.651037
-0.633896
-0.269613
-0.828658
0.522335
0.853319
-0.348233
-0.168492
-0.95742
0.480715
0.461335
0.723237
0.475615
0.472415
-0.544955
0.138531
0.115851
-0.777718
-0.457355
0.0853509
-0.614696
0.818958
-0.656897
-0.411154
0.681997
-0.239272
0.0145901
0.0129901
-0.146311
-0.864979
-0.102691
0.529715
-0.498875
0.627716
0.701057
-0.649516
0.808058
-0.320133
0.509035
-0.822338
-0.839438
-0.0296503
0.900919
0.96322
-0.230192
-0.317013
0.101731
0.885659
-0.0947309
0.644376
0.298033
0.290573
0.463315
0.641136
-0.793558
0.472335
-0.271093
0.548075
-0.514695
0.582596
0.683097
0.709657
0.112291
-0.488755
0.664397
0.140391
-0.138251
0.472455
-0.852719
-0.629236
0.650117
-0.692157
0.668177
0.878059
-0.728957
-0.234992
-0.111931
0.699817
-0.349353
-0.879639
0.671217
-0.724277
0.737977
0.461555
0.916859
0.944439
-0.0661307
-0.354254
0.819538
0.419174
-0.444614
0.502635
0.128811
0.99472
-0.659097
-0.206792
0.135091
0.202652
-0.407314
0.282373
0.900479
-0.430174
0.917259
0.895679
-0.552116
-0.484675
-0.339333
0.662997
-0.457835
0.638356
0.783378
-0.786638
0.914079
0.521335
0.674917
-0.842038
0.792798
-0.0641906
-0.196292
0.612336
-0.645036
0.686137
0.441994
0.810838
0.680857
0.782898
-0.0689307
0.142971
0.312593
0.523755
-0.247612
0.540095
-0.579396
-0.330373
0.435754
0.195532
0.512015
-0.576556
-0.141471
-0.945839
-0.938219
-0.358114
-0.405414
0.97588
-0.836798
-0.403474
-0.539135
0.95602
0.532355
0.591616
0.895379
-0.785658
0.277753
0.337353
-0.647796
-0.0414104
0.447274
0.283273
-0.571416
-0.240152
0.134051
0.180972
-0.373034
0.554676
-0.822358
-0.937299
-0.249812
0.689657
-0.513855
0.608716
-0.929159
-0.125011
-0.749417
-0.334573
0.177892
-0.259153
0.589016
0.638756
0.0238902
0.121351
0.230352
-0.0807508
0.662737
-0.491915
-0.416374
-0.98506
0.793718
-0.96912
0.625256
-0.777698
0.117791
-0.240692
0.730317
0.744757
-0.686037
0.907959
-0.865499
0.391194
0.924639
-0.0523105
-9.00009e-05
0.9955
0.822678
0.577536
-0.0120501
0.000550006
-0.354594
-0.423054
-0.360714
0.669297
-0.97468
-0.803318
-0.0844308
0.688077
-0.295233
0.499195
-0.96996
-0.174472
0.857139
0.655297
0.374874
-0.0250903
-0.585416
0.105171
-0.280353
0.0555906
0.340173
0.181192
-0.553216
0.264793
-0.871119
0.773738
0.587316
0.95156
0.351254
-0.097691
0.279153
0.99668
0.806298
-0.754538
0.993
0.831638
-0.557856
-0.0914309
0.846738
0.473975
-0.265213
-0.796198
-0.700517
-0.408094
0.859099
0.674357
0.893859
-0.399274
0.106551
-0.386494
0.656317
-0.553296
0.794698
-0.896919
-0.96146
-0.749397
-0.796158
0.9529
-0.797838
0.555116
-0.144811
0.481315
0.878819
-0.0114701
0.726777
0.871799
-0.179852
-0.504035
0.107391
-0.00609006
0.96994
0.842198
0.197712
-0.403554
-0.238872
0.383834
-0.402174
-0.345013
0.98456
0.704377
0.595536
0.96792
-0.521875
0.717257
-0.601976
-0.156292
0.96788
-0.398114
-0.203412
-0.502935
-0.843018
0.97884
0.97838
-0.96422
-0.0326503
-0.96784
-0.765398
-0.885479
-0.144831
0.342013
0.108431
-0.174912
0.511235
-0.366834
0.421534
-0.400614
-0.655977
-0.98066
0.254373
-0.671417
-0.949239
0.176932
-0.376474
-0.471115
-0.105811
0.0215502
0.372594
0.189092
0.623436
-0.503795
0.686157
0.780418
-0.524975
0.99156
-0.856779
0.442374
-0.649256
-0.295113
0.556896
0.205932
-0.626076
-0.00765008
-0.969
-0.787818
0.625516
0.779598
-0.188432
-0.703417
-0.874039
-0.607016
-0.0477905
-0.823278
0.569916
0.575736
0.0326503
-0.208872
-0.402734
-0.267733
0.98022
-0.779298
0.228492
0.666357
-0.671857
0.703517
0.657897
-0.201572
0.145891
-0.99136
0.503315
0.0298103
0.541615
-0.795738
-0.97784
0.572616
-0.583556
0.97472
0.679237
0.228012
-0.728717
-0.867759
0.948039
0.223492
-0.691037
0.517955
-0.200792
0.668677
-0.690937
0.396494
-0.599076
-0.710717
0.944239
0.95646
-0.717337
-0.727637
0.659977
0.940579
0.0707907
0.132891
-0.723757
-0.098871
-0.837318
0.817858
0.105391
-0.815158
0.717497
0.848878
-0.840438
0.723777
0.403934
-0.242112
0.856019
0.351954
0.9814
-0.507995
0.196932
0.107631
-0.839338
0.506015
-0.495895
-0.111351
-0.877679
-0.551676
-0.154912
-0.595016
0.0477505
-0.167912
-0.327413
-0.554436
-0.707997
0.275873
0.346713
-0.218252
0.0937109
-0.220872
-0.0334103
0.138251
-0.0449504
0.453195
-0.137991
-0.641036
-0.461875
-0.281993
-0.96206
-0.480495
0.537055
0.234892
0.627136
0.697737
-0.259113
-0.541715
-0.0865909
0.190252
0.233652
-0.914479
0.922279
-0.718617
0.244672
-0.405134
-0.273033
0.863719
0.870739
-0.599296
-0.354554
0.291493
0.506875
0.939099
-0.570276
-0.538095
0.392274
0.291733
0.147911
-0.742577
-0.663237
0.185872
-0.223072
0.873819
-0.579256
-0.268893
0.898579
0.488675
0.189392
0.139011
-0.321093
-0.576976
0.224552
-0.398834
0.0314703
-0.203752
0.523075
0.758438
-0.340053
0.393814
-0.513835
0.305413
-0.314713
0.99304
0.244492
0.442054
-0.545055
-0.0362104
-0.266233
0.602856
0.221232
0.397574
-0.211292
-0.674817
0.271373
0.536495
0.0562906
0.496995
0.0251503
-0.427294
-0.364014
-0.96892
0.322793
-0.812438
-0.367734
-0.645756
-0.0161902
-0.844678
-0.887339
0.643776
0.876179
-0.401174
0.276213
-0.111511
-0.0811108
-0.479315
-0.669477
0.373834
0.811518
0.391334
0.303733
0.0327303
0.115931
-0.580536
0.357934
-0.612696
0.95598
-0.258753
-0.788678
0.308153
0.313973
-0.152692
0.339253
-0.0362104
0.0348903
-0.701457
0.318033
-0.98132
-0.546135
0.757738
0.9895
-0.342913
-0.316413
0.265693
0.872619
0.602476
-0.886599
-0.796858
0.303353
0.924939
0.921519
-0.0658907
-0.0423504
0.0374504
0.353574
-0.357394
0.751798
0.636576
0.710917
-0.709857
0.271773
0.351914
0.137451
-0.388994
-0.684317
-0.500635
-0.0904509
0.633716
-0.154892
0.690457
0.718477
-0.165412
-0.325433
-0.597956
-0.572676
-0.452815
-0.668457
-0.459275
0.0773708
0.634896
-0.207312
0.325913
-0.431014
-0.922619
-0.309613
-0.750398
0.0470305
-0.230792
-0.786798
-0.242072
0.0593506
0.484975
-0.890179
-0.803198
-0.904039
-0.247452
0.0232102
0.332553
-0.286713
0.868319
0.350054
-0.568256
0.0299503
-0.9754
0.160832
0.784318
-0.101171
0.492395
-0.674977
0.9762
0.454315
0.444774
0.302113
-0.649656
0.522155
-0.680477
-0.0730107
-0.430834
0.0887509
0.140191
0.327113
-0.851919
-0.374834
0.763978
-0.328073
0.0481705
-0.483475
0.695157
-0.292233
0.556856
0.890499
-0.942199
0.98862
-0.0795708
-0.590556
0.476475
-0.295273
0.308293
-0.0311503
0.356814
0.611516
-0.249792
-0.198432
0.240652
0.100551
-0.676297
0.560196
-0.97248
0.219912
-0.351074
0.494755
-0.452995
-0.202992
-0.553056
-0.361974
0.795998
0.822178
0.481595
0.491135
-0.470075
0.0384304
0.708657
-0.0852309
0.354074
-0.370914
0.651257
-0.169452
0.660857
0.286573
-0.873579
0.344693
-0.101911
-0.123371
-0.853759
-0.861279
-0.695797
-0.203012
-0.97406
-0.341233
-0.9831
-0.325133
-0.519435
-0.109051
0.798938
-0.0724907
0.856019
0.921959
-0.250333
0.337593
0.413074
0.279593
-0.296933
0.448754
-0.478615
-0.942879
-0.922179
-0.827358
0.214712
-0.934279
0.459215
0.341153
0.410414
-0.315673
-0.455195
0.556676
0.150112
0.176072
-0.319313
0.176052
0.834838
0.0246302
-0.822038
-0.357574
-0.757378
-0.696077
0.569956
-0.901379
-0.774138
-0.680397
0.763278
0.96598
0.926259
-0.533675
0.414714
-0.552376
-0.476555
0.819598
-0.0526905
0.738177
0.885319
-0.266433
0.406354
0.295713
0.744937
0.95116
0.179412
-0.104971
0.454255
0.860119
-0.601876
0.289093
-0.115271
-0.096871
0.931519
0.454395
0.207052
0.828498
0.553036
0.759958
-0.851899
0.316293
0.725917
-0.598616
0.782618
0.467655
0.176052
-0.366914
0.287233
-0.549595
-0.301713
0.172532
0.183972
-0.895379
-0.204712
-0.0711107
-0.617176
0.9747
-0.849038
0.837078
0.834798
-0.450915
0.453195
0.0465705
0.452215
0.711757
-0.172012
-0.0137101
0.867279
-0.618996
-0.253773
-0.657597
-0.97568
-0.200832
-0.256213
-0.866039
-0.733197
-0.753118
-0.232932
0.881099
-0.302713
0.792398
0.0536105
-0.791718
-0.775938
-0.824078
0.137171
-0.393114
-0.849378
0.615176
-0.229012
-0.687557
-0.835758
-0.448774
0.686057
0.943499
-0.409994
-0.485955
0.256813
-0.542735
-0.104951
-0.99698
-0.200312
-0.0806108
0.129231
0.870519
0.380394
0.396054
-0.882619
-0.852559
0.604176
-0.185332
-0.733117
-0.0151902
0.0229502
-0.509055
0.160752
-0.512835
0.424874
0.311373
-0.570636
-0.477115
0.623816
-0.0793308
0.0741107
0.636916
-0.135851
0.99116
-0.849058
-0.551996
-0.551576
0.373034
-0.221932
0.575156
-0.380554
0.907319
0.445654
0.99986
0.630396
0.563056
-0.852719
0.234552
-0.295253
-0.585836
-0.780658
-0.945259
0.232152
0.380094
-0.131051
-0.342993
0.0184902
0.298313
0.179912
-0.0306503
-0.781038
-0.418954
-0.393754
0.410174
-0.427794
-0.242812
0.858179
0.0206302
-0.869799
-0.363774
-0.0771908
-0.250333
-0.129431
-0.631556
-0.250493
-0.499055
-0.741477
0.223832
-0.937479
-0.0367104
0.96506
-0.718117
0.345073
0.524235
0.98902
-0.785998
-0.818758
0.00751008
0.839358
0.361154
0.97686
-0.941679
-0.730777
-0.416914
0.795538
-0.158572
0.667317
0.98074
-0.810918
0.797518
-0.0560106
0.111891
-0.125791
0.814578
0.480355
0.95076
-0.357454
-0.934099
0.501635
-0.294913
0.356234
0.793718
0.314013
-0.298713
0.317933
0.303013
0.242332
0.499175
-0.362454
0.0816908
0.187352
-0.385614
0.467055
0.456595
0.524515
0.589616
-0.374954
0.191812
0.570336
-0.185852
0.316373
-0.485695
-0.746937
-0.482395
-0.344093
-0.939559
-0.531635
0.298473
-0.873639
-0.702977
-0.99646
0.482595
-0.909279
0.317553
-0.489075
0.408654
-0.0524105
0.753258
0.234872
0.585156
0.161972
-0.577796
-0.473435
-0.0439504
-0.794178
-0.948919
-0.127311
-0.169112
0.569936
-0.556996
0.97208
0.213332
0.284373
-0.774878
0.730957
0.940279
-0.714417
-0.473655
0.238732
-0.261013
-0.176632
0.242272
-0.778438
-0.0859109
-0.113151
0.0595306
-0.350234
0.834458
0.139831
0.884639
0.419594
-0.698217
-0.366114
0.946159
0.584896
-0.160292
-0.675737
-0.542435
0.99764
-0.778758
0.227632
-0.703277
0.434574
-0.160972
-0.151092
0.165512
-0.220712
0.134491
-0.98112
-0.654937
0.873479
-0.157752
0.914379
-0.577936
-0.916639
-0.198772
0.808658
-0.266853
-0.0372904
-0.0515305
-0.0551906
-0.617716
0.250253
0.578696
-0.344533
0.162172
-0.254553
0.306793
0.946799
0.0701107
0.528035
0.174412
0.366854
0.289633
-0.98658
-0.784258
-0.544855
0.119751
0.677277
-0.198932
0.464815
0.877779
0.643336
0.379194
-0.373134
0.726697
-0.492555
-0.564496
-0.213132
0.470155
0.383974
0.731697
-0.820538
-0.0387304
0.310373
0.161972
-0.876579
-0.617156
-0.531255
-0.929799
0.452975
-0.676197
0.571656
-0.180192
0.613456
0.912119
0.362594
-0.604376
0.0318703
0.0398504
0.196692
-0.176292
0.244652
0.167052
-0.797118
0.871519
0.220792
-0.289673
-0.692977
-0.99236
-0.492495
0.690997
-0.933639
-0.313033
-0.0207102
0.703797
-0.824018
0.102731
-0.913379
-0.0282303
0.499975
0.866639
0.295593
0.398674
0.0134701
0.236072
0.310773
-0.623956
0.631696
-0.330333
0.742937
0.155412
0.493395
-0.0124301
-0.677537
0.696277
0.186132
0.870299
-0.266353
0.493155
-0.795038
0.568196
0.511175
-0.728657
-0.417794
-0.509535
-0.697837
-0.241812
0.920239
-0.284173
0.729957
0.747237
-0.417534
0.0255303
0.145891
0.595936
-0.411374
-0.543335
-0.700977
-0.779698
0.453375
-0.631016
0.702777
-0.0532505
0.356574
-0.647736
-0.0299303
-0.130271
-0.777458
0.703717
-0.637136
-0.572496
0.598936
-0.798938
0.0258903
-0.818878
0.0185702
0.655097
-0.0606906
-0.0612106
-0.629076
-0.00369004
0.0130701
-0.0466105
-0.651137
-0.841058
-0.123651
-0.0624906
-0.0573506
0.502415
0.484855
-0.603976
0.871419
0.187612
0.342773
0.227972
0.539875
-0.687177
-0.902319
-0.910559
-0.656437
-0.212412
-0.155992
0.942519
0.315693
0.869899
-0.549335
-0.665737
0.852039
0.389994
0.600096
-0.777058
-0.286673
-0.386854
0.503375
0.0621906
0.099151
-0.620296
0.9997
-0.95822
0.882139
0.484555
-0.235152
-0.919439
-0.327853
-0.565336
0.308533
-0.460935
0.0745307
0.733257
-0.371494
0.418114
-0.152132
0.472515
0.687657
-0.836458
0.669457
-0.861699
-0.175152
0.521475
0.855339
-0.248012
-0.928559
-0.431354
0.365134
0.574816
0.9579
-0.208692
-0.718457
0.95758
-0.166892
-0.509295
0.442114
0.924999
-0.428734
-0.558696
-0.640356
-0.793178
0.307413
0.761238
0.940079
0.935919
0.179332
0.114971
0.735477
0.194012
0.605576
0.731957
0.659357
-0.569596
0.253413
0.841738
0.182392
0.324853
-0.262593
-0.125431
0.226692
-0.304713
0.665877
0.508235
-0.347133
-0.173992
0.99896
-0.577996
-0.248992
-0.102751
0.190352
0.437694
0.104091
-0.502255
0.198912
0.371194
-0.239292
-0.294733
-0.513835
-0.503835
-0.773698
-0.581236
-0.771898
0.885679
0.176212
0.808558
-0.945579
-0.641396
0.460435
-0.208172
0.560216
-0.312893
0.487135
0.226072
-0.477635
-0.532975
-0.620876
-0.151652
0.216072
0.457175
0.745617
-0.593576
-0.105151
-0.150312
-0.095831
-0.579196
-0.452095
0.664877
0.453115
0.361114
-0.511935
0.679437
0.779878
-0.283833
0.892139
-0.0439104
-0.148251
0.946559
0.641736
-0.687837
0.0654107
0.201932
-0.000730007
-0.447474
-0.244972
0.848698
0.346593
0.134151
-0.302973
-0.437334
-0.408694
-0.557376
-0.0309103
0.813218
0.619356
-0.799718
-0.438954
-0.832738
0.865179
-0.98586
0.528375
-0.319733
0.693577
0.635296
0.396454
0.912739
-0.408634
-0.751818
-0.813698
-0.766918
-0.112591
0.251733
0.762058
-0.786298
-0.868719
-0.482935
-0.937619
0.477895
0.97828
-0.240572
-0.95946
-0.430434
0.202052
0.336673
-0.290193
0.148451
0.536955
0.270853
0.315713
0.729157
0.285013
0.171112
-0.590576
0.305613
-0.193612
-0.867099
0.545395
0.724797
-0.291873
0.731697
-0.715097
0.595536
-0.0165902
-0.95306
0.809258
0.114711
-0.108931
-0.801338
-0.0803708
-0.130671
-0.0419104
0.287213
0.765938
-0.839858
-0.376134
-0.524255
0.308593
-0.512155
-0.926379
-0.0486705
-0.455955
0.358634
-0.877579
0.280513
-0.00871009
0.255873
0.740457
-0.136291
-0.0193502
-0.551436
-0.404614
0.592616
-0.628856
0.905859
0.639556
-0.492575
0.0205502
-0.142351
-0.293913
0.940179
0.726977
0.664197
0.227372
0.819958
-0.848638
-0.821738
-0.704317
0.786998
-0.00685007
-0.630696
0.0653507
0.537195
-0.945019
0.514815
0.144731
0.373314
-0.229332
-0.114831
-0.762998
-0.921639
0.660797
0.159432
0.99802
-0.641036
0.0652707
0.9646
0.193432
-0.914199
-0.177752
0.899519
-0.646996
-0.123751
0.890739
0.907419
-0.303813
-0.630876
-0.914339
-0.00813008
-0.516855
0.405874
0.688237
0.548495
-0.0569506
-0.929759
0.390354
-0.585176
0.770598
-0.511955
0.299993
-0.99242
-0.433594
0.287813
0.494055
-0.108551
0.646776
-0.440674
-0.143951
-0.159812
-0.0278303
0.678297
0.0667507
0.652237
-0.445474
0.284513
0.559636
0.577776
0.9807
0.97236
-0.103331
-0.536175
0.378214
-0.0880709
-0.660637
-0.351714
-0.0178302
0.729717
0.0631106
-0.247252
-0.782258
-0.309853
0.0873709
0.111211
0.97796
-0.418574
-0.99736
0.95178
0.467795
-0.141311
0.118991
-0.560056
-0.135991
-0.487235
-0.907839
0.745597
0.797298
0.97886
0.323353
0.777978
0.9512
-0.452955
-0.431174
0.656437
0.458995
-0.0918109
-0.695297
-0.558856
-0.0350704
0.367834
0.520955
0.182692
-0.942039
-0.391694
-0.379074
-0.637056
0.516775
-0.376434
-0.685297
-0.0154502
0.809318
0.760758
0.424514
-0.326693
-0.726497
0.843718
-0.254073
-0.929219
0.822558
-0.603696
-0.824218
-0.899239
-0.0566306
-0.255373
0.757198
-0.597656
0.97986
-0.938099
0.170532
-0.0552106
0.756778
-0.308533
-0.872539
0.814738
0.299793
-0.251613
-0.822338
-0.183452
0.698997
-0.180572
-0.871859
0.508295
-0.419834
0.552656
-0.491355
-0.146331
0.723397
0.581616
0.251513
0.872999
0.97794
0.754338
0.97376
0.248332
-0.501055
0.730957
0.650677
-0.194152
-0.880119
0.148231
0.750638
0.876659
0.839718
-0.794878
-0.9816
0.466535
0.280553
-0.476895
-0.389894
0.306573
0.342533
-0.261753
0.141911
-0.750278
-0.382074
0.650557
0.430454
-0.658677
0.559196
0.00899009
-0.458655
0.537115
-0.236692
-0.484915
0.112471
0.589316
-0.426934
0.0901709
-0.604856
-0.307053
-0.761598
-0.527195
-0.103371
-0.921899
-0.322073
-0.0849708
0.871679
-0.714497
0.765198
-0.518235
0.592076
0.107711
0.547075
-0.266033
0.684497
-0.835018
-0.288453
0.441974
-0.166652
-0.729257
-0.549055
0.374694
-0.865119
0.214252
-0.783178
0.247372
-0.196452
-0.210112
-0.662477
0.525735
0.809898
-0.424074
0.99854
0.0335503
-0.0189302
-0.323553
0.948599
-0.147271
-0.0380504
0.713777
0.661557
-0.445974
0.148511
0.208612
0.615036
0.160032
0.373594
-0.673417
-0.398014
-0.466015
-0.402674
0.0529305
-0.764298
-0.267793
-0.405774
-0.547475
-0.693397
0.397774
0.242432
-0.355854
0.250553
0.379354
0.547115
0.249072
-0.587116
-0.471815
0.925539
-0.311493
0.380914
0.214512
-0.270693
0.0424504
-0.904439
-0.795138
-0.421914
0.710617
0.364894
-0.721277
-0.96282
0.9669
-0.187292
-0.0384504
0.346853
0.0484105
-0.97922
0.941079
0.500955
-0.672597
0.665897
0.0704107
-0.0284503
-0.0835708
-0.550256
-0.481355
-0.834518
0.189672
0.373874
-0.581956
0.878199
-0.245212
0.95962
-0.392514
-0.875739
-0.617796
0.139391
-0.297633
-0.907199
-0.495715
0.308133
-0.542975
-0.201792
-0.879179
0.745617
-0.854959
0.496275
0.766418
-0.586836
-0.00279003
-0.906199
-0.593916
-0.605356
0.392394
0.322513
0.171432
0.911039
0.815038
-0.638896
0.284913
-0.439874
-0.760718
-0.633276
-0.480275
0.173812
-0.181972
0.228972
-0.686797
0.847438
0.321793
0.144531
0.155552
-0.894159
0.942739
0.276373
0.851479
-0.585196
-0.227352
0.944919
0.155012
-0.903119
-0.9613
0.561096
-0.508455
0.431094
0.210632
0.99002
0.669157
0.352714
-0.648896
0.281093
0.912839
-0.0825708
0.647816
-0.240412
-0.908759
-0.207112
0.98856
-0.268513
-0.359694
0.637376
0.876019
0.795878
-0.929739
-0.854239
0.399274
-0.751238
-0.112391
-0.501055
-0.806338
-0.95738
-0.0771108
-0.767638
0.930759
0.741477
0.9905
0.141391
0.731477
0.659637
-0.505915
-0.917419
0.267773
-0.593096
1.00001e-05
-0.0844308
0.493535
0.418294
0.708457
0.482075
-0.523195
-0.324193
0.446494
-0.320153
-0.201292
0.516755
0.152652
-0.802038
0.765518
-0.95974
0.0239702
0.95918
-0.590076
0.946859
-0.481435
-0.659337
-0.98466
-0.163912
0.482055
0.746817
-0.177252
-0.696837
-0.843578
-0.909499
0.0371104
0.483495
0.333133
-0.469375
-0.098231
0.368614
-0.660257
0.705637
-0.9556
0.786238
-0.614536
-0.156892
0.302973
0.538135
0.368134
0.395514
0.905439
-0.280873
0.681717
-0.684657
-0.00699007
-0.799738
-0.343993
0.00835008
0.363394
-0.534895
0.0821908
-0.813878
-0.231732
0.238632
-0.723357
0.805398
-0.277893
0.609776
-0.663997
0.95092
-0.0216302
-0.324253
0.656537
0.349833
-0.210992
-0.630956
-0.480035
-0.908039
0.907179
0.888099
0.814518
0.812598
-0.0657507
0.496215
-0.872079
0.927259
-0.9765
0.110971
-0.0644106
0.386894
0.576076
-0.98222
0.900079
-0.655657
0.583456
-0.823298
-0.850279
-0.694457
-0.886499
-0.187232
-0.416514
0.418914
0.815578
-0.759978
0.095771
-0.395434
-0.390934
0.615756
0.0235902
-0.156732
0.830878
-0.161912
-0.344153
-0.234872
-0.665697
0.110811
0.0194102
-0.315153
-0.451195
0.95502
-0.928259
-0.875119
-0.700177
0.97182
-0.203732
-0.789698
-0.524455
-0.0540105
-0.157112
-0.0839108
-0.914219
0.426374
-0.337973
0.901359
0.666397
0.757818
-0.167032
-0.397514
0.700597
0.856559
0.445754
0.531455
-0.305373
-0.571376
-0.376394
0.355974
0.866479
0.643036
-0.95918
-0.584716
0.925079
-0.560396
-0.132791
-0.448074
-0.261553
0.663477
-0.237772
0.541035
-0.0635106
0.605116
-0.542895
0.0222702
0.358514
0.446174
0.250673
0.351954
0.531015
-0.916379
0.95444
0.231592
0.940179
0.727237
0.0900909
-0.0381704
-0.517115
-0.95928
-0.682197
-0.650637
0.683757
-0.314333
0.0916909
0.935859
0.125271
-0.714077
-0.512235
0.863719
0.949399
0.577036
0.404734
0.212912
0.182132
-0.811138
-0.437794
-0.132311
0.96208
0.812878
-0.780378
0.493095
-0.776478
-0.825958
0.0517105
-0.509275
-0.771698
-0.858219
0.452575
-0.288793
-0.817478
-0.902599
0.387614
-0.806698
0.110111
-0.193672
-0.870839
-0.764638
0.0922509
-0.0560306
-0.573896
0.0416304
-0.478995
-0.842138
-0.745477
-0.96984
-0.653277
-0.183272
-0.102151
-0.364174
-0.0433504
0.117471
-0.871099
0.507215
0.618576
0.180632
0.99796
0.846878
0.649456
0.777558
-0.114891
-0.840998
0.874959
-0.727297
-0.320633
-0.0149501
0.406074
0.135571
0.547455
-0.501695
-0.920479
0.97356
0.866979
-0.0724307
-0.541555
-0.551476
-0.0422504
0.132211
0.592316
-0.817378
0.768038
-0.451055
0.627156
0.896959
-0.943859
0.572756
0.404614
-0.618876
0.746657
0.381094
-0.841338
-0.368234
0.540115
-0.639356
0.231512
-0.780538
0.345693
-0.362414
0.355034
0.220172
0.462935
0.761598
0.520755
0.329913
-0.310833
0.9792
0.778438
0.97396
0.111391
0.370734
-0.516395
-0.120571
-0.753298
-0.889259
0.103411
-0.370094
-0.98948
-0.164952
0.0110301
0.757198
-0.783878
0.169712
-0.284013
-0.916739
0.530355
0.947499
-0.370234
0.203092
-0.0878909
0.9848
-0.576756
-0.624956
-0.926579
0.944019
0.704957
0.0896309
-0.749777
0.810418
0.0635706
0.361634
0.181152
0.547175
-0.431914
0.754898
0.98498
0.99854
-0.615216
0.9955
-0.166432
0.395834
0.752678
0.376734
-0.107431
-0.531355
0.460015
-0.577096
-0.256813
-0.910239
0.95304
0.98234
-0.598396
-0.296673
-0.642636
-0.524975
-0.352674
-0.610656
0.564656
0.224592
-0.800238
-0.0447504
-0.413794
0.707957
-0.170552
0.481335
0.462835
-0.185592
0.479855
0.847638
-0.190092
-0.359554
0.570496
-0.110391
-0.98282
-0.536955
0.685317
0.477195
0.212992
-0.571516
0.893999
0.166032
-0.589196
-0.704417
0.869359
0.095231
0.097651
-0.156292
0.484575
-0.0106701
-0.931719
-0.98864
0.944579
-0.0184502
-0.95366
-0.225972
-0.210092
0.509195
0.915479
-0.403194
0.683857
0.0524105
0.237252
0.254333
0.942039
0.581476
-0.9556
0.627336
0.385694
0.257393
-0.617156
0.279693
-0.249552
0.120691
0.575276
-0.380214
-0.784098
-3.00003e-05
0.790538
-0.97248
0.9893
-0.814138
-0.634076
-0.739097
0.167412
-0.587716
0.361974
-0.715657
-0.751498
0.277433
-0.118851
0.932359
-0.670157
-0.881599
0.513715
-0.401094
0.699877
0.558116
-0.773778
0.0855709
0.142531
-0.0638906
-0.307713
0.892999
-0.616176
-0.405414
-0.160192
-0.400254
0.594556
-0.0426104
-0.0456905
0.910899
0.143251
0.320233
-0.828218
-0.362314
-0.940459
0.533755
-0.0779708
-0.691957
-0.188832
0.803198
-0.759618
0.468055
-0.751378
-0.918879
-0.933059
-0.724477
0.639236
-0.379794
0.688137
0.108811
0.556316
-0.619596
0.00179002
-0.732817
-0.0249902
-0.831378
-0.133071
-0.103411
0.126011
-0.851739
-0.192532
-0.730757
0.795538
0.306293
0.233972
0.855099
-0.159972
-0.843998
-0.509835
0.97826
-0.713777
0.0576106
0.773338
-0.138111
0.138731
0.840298
0.137411
0.105011
-0.539515
0.152592
-0.786198
-0.656157
0.532995
0.215592
-0.388974
-0.164972
0.711257
0.804998
0.731637
-0.162732
-0.719717
-0.133871
0.433554
-0.924199
-0.827578
-0.332473
-0.742077
0.339493
0.150572
-0.251893
0.317733
0.763838
0.805718
0.0910709
-0.374294
0.271473
0.258393
-0.909859
-0.623536
-0.9541
0.242732
-0.409734
-0.610256
-0.224272
-0.867119
0.327813
0.937799
0.844158
0.459835
0.99646
-0.318593
0.740117
-0.137411
-0.558016
-0.857039
0.362054
0.436554
-0.272073
-0.298473
-0.412894
0.803078
-0.653697
-0.322033
0.935819
0.764418
0.303673
0.207292
0.0227902
0.393834
0.583756
0.0686907
-0.363454
-0.825978
0.785498
0.739317
-0.366054
0.440334
-0.99586
-0.521915
-0.099831
-0.99942
0.486535
-0.0326903
0.190212
0.928539
0.437314
-0.447754
0.692117
-0.834758
0.580836
-0.720777
0.96832
0.927139
-0.0428104
0.904139
0.691537
-0.412094
0.438454
0.0413504
-0.691237
0.0221902
-0.889979
-0.0546905
0.523255
-0.777458
0.0116701
-0.842798
0.662897
0.342853
-0.0376704
-0.109911
0.343433
-0.551136
0.857399
-0.139311
-0.295573
0.621756
0.412934
-0.603476
0.786998
-0.00625006
0.00279003
-0.917679
0.247912
-0.712977
-0.686517
-0.0605706
-0.125071
0.751938
-0.692197
0.183692
0.101171
-0.582156
-0.543975
-0.0485505
-0.0325703
0.794738
0.435694
-0.0426504
0.137571
-0.601976
0.847438
-0.518995
0.173932
-0.96814
0.668737
0.878359
0.653617
0.0816508
-0.725137
0.767638
-0.597556
0.604716
0.849958
0.650357
0.891739
-0.836558
-0.0831708
-0.233352
0.915379
0.224632
-0.722637
0.343573
0.96952
-0.266613
-0.704977
0.263993
-0.144831
0.730717
-0.778678
0.99274
-0.871279
-0.931239
-0.199232
0.302653
-0.572336
-0.530515
0.508035
-0.918739
0.878199
-0.890059
0.848898
-0.719377
0.714657
-0.97414
-0.741997
0.606376
-0.810698
0.501875
-0.299953
-0.568276
0.0535505
0.304453
0.775298
0.0230502
-0.635136
-0.929699
-0.712977
0.220032
0.801038
-0.164592
0.212772
-0.743217
-0.095831
-0.659437
0.886499
0.658877
-0.189932
0.394514
-0.932839
-0.311753
0.504455
0.916059
0.295913
0.219092
-0.731057
0.880959
0.152492
-0.541735
0.382834
-0.820438
-0.110011
-0.563636
0.484015
-0.334733
0.786458
0.848898
0.0626306
-0.599476
0.0689107
-0.136351
0.235932
-0.391294
0.447474
-0.532875
-0.0507105
0.333953
-0.874019
-0.913619
-0.271533
-0.806858
-0.225372
-0.440054
-0.563776
-0.602436
-0.893919
-0.294833
-0.721497
0.258573
0.490475
0.98838
0.765198
-0.619556
-0.575276
0.249192
0.372774
-0.461775
0.098071
-0.564616
-0.0612506
-0.505975
0.626076
-0.825338
0.429774
0.0735307
-0.0311703
-0.620956
-0.592516
0.0948109
-0.534575
0.462995
0.614996
0.567096
-0.650037
-0.621756
-0.708317
-0.543955
0.0834108
-0.429794
-0.95834
-0.426114
-0.114391
0.806858
0.281373
0.637396
0.383074
-0.345873
-0.824398
-0.191812
0.416554
0.114351
0.302213
0.0426104
0.616056
-0.268033
-0.883859
-0.415134
0.438074
-0.149331
-0.9933
-0.769478
-0.359314
0.621696
-0.875339
0.317693
0.99994
-0.583656
0.773758
0.410374
0.313593
-0.857559
-0.688717
-0.800798
-0.723677
0.592676
0.836598
0.659397
-0.426174
-0.660777
-0.532435
0.9904
0.780618
-0.903199
0.360034
0.396654
-0.171212
0.803218
-0.691457
-0.406114
-0.0190902
-0.684757
-0.175592
0.621596
-0.736037
-0.0509305
0.266333
-0.409074
0.365434
0.367114
-0.99872
0.00605006
0.509555
-0.687417
0.205252
0.785878
-0.767718
0.368874
0.772298
-0.193892
0.708097
-0.760138
0.123531
0.815738
-0.663337
-0.516435
0.212372
0.492495
-0.713237
0.847958
-0.913639
0.267693
-0.836818
0.237832
0.216312
-0.245812
-0.813118
-0.517375
0.345113
0.879359
0.849738
0.346413
0.212452
0.359274
0.98604
-0.255273
0.472175
-0.781698
-0.886399
0.571516
0.351454
-0.851279
0.811378
-0.525015
0.96448
-0.524935
0.285593
0.503875
0.96758
0.572356
0.351834
-0.619036
-0.159972
0.842058
0.618796
-0.616616
-0.0767108
-0.867279
-0.133991
-0.731617
-0.660897
0.0427904
0.941839
0.551556
-0.270913
0.927859
-0.376674
-0.798738
-0.526815
-0.263073
0.772778
0.824658
0.212692
0.911179
-0.373334
0.504195
-0.613776
0.912259
0.00807008
-0.319173
0.484595
-0.313073
0.388854
-0.348333
-0.143991
0.00763008
0.362094
0.779298
0.467395
-0.771918
-0.625276
-0.866459
0.270873
-0.683457
-0.98788
0.99998
-0.755598
-0.364554
-0.471735
-0.282413
0.699417
-0.371934
-0.457775
-0.0878909
-0.133731
0.168892
-0.256673
0.252493
0.408174
-0.921579
-0.739637
-0.107231
-0.234652
0.649216
0.871479
0.948419
-0.0161302
0.233552
-0.945279
-0.221692
0.788678
-0.570556
-0.0881509
0.386594
-0.253993
0.251013
0.713597
-0.0095901
0.886479
-0.431114
-0.96498
0.585876
0.196952
-0.095691
-0.174992
-0.936799
-0.599776
0.568356
0.642736
0.808418
0.646776
-0.769878
0.0282103
-0.260833
-0.793638
-0.100331
-0.312433
0.190252
-0.539755
-0.257713
-0.704417
-0.424054
0.498795
0.534475
0.96254
-0.755218
-0.214532
-0.99686
0.562236
-0.328073
-0.427974
0.597256
-0.415154
-0.903999
-0.498455
0.409854
-0.513755
-0.098211
-0.0218102
-0.543975
0.0372304
-0.0479905
-0.313853
-0.934579
0.691177
0.219572
0.292133
-0.294233
-0.263153
-0.920599
0.775098
0.0324303
-0.344653
0.273873
-0.433114
-0.0550706
0.518655
0.352354
-0.0519305
0.407914
-0.648676
0.520115
0.00517005
-0.0638306
0.943159
0.833758
-0.653997
-0.570596
0.0625706
0.651257
-0.114571
-0.900219
-0.396754
0.898619
-0.834798
-0.378554
0.118171
0.457335
0.327213
0.855019
0.536735
0.102291
-0.112571
-0.480875
-0.623836
0.781358
0.464055
-0.778158
0.133711
-0.260853
0.95682
0.812078
-0.413714
0.289013
-0.251773
-0.470555
0.122751
0.421274
-0.0411504
-0.487635
0.399554
-0.828698
-0.387854
-0.670177
-0.930099
0.104411
-0.0487305
0.515135
-0.111231
-0.721537
0.370134
-0.247452
0.707817
-0.415394
0.271673
-0.588996
-0.307013
0.0627506
-0.0401104
0.826698
0.801898
-0.0833108
0.638756
-0.284773
-0.794318
-0.285993
0.244672
0.328453
-0.864719
-0.469455
-0.832158
0.861879
0.0288903
-0.220012
-0.808298
0.425834
0.884399
0.142971
-0.0590506
0.100211
0.748497
-0.361874
0.852759
0.783338
0.549775
0.124411
-0.805678
-0.757258
-0.485815
0.154212
-0.603516
-0.683937
-0.929099
-0.637736
0.0312903
-0.723417
0.0762908
-0.397014
0.932079
0.538615
0.460575
-0.900099
0.400474
-0.510555
0.206952
0.919219
0.915299
0.418374
0.0621906
0.183272
-0.481435
0.137711
-0.851579
-0.628696
-0.0789708
0.698197
0.822758
0.442394
-0.732017
-0.663077
-0.403414
-0.335533
-0.0199502
-0.00547005
0.0267303
-0.661637
0.598176
-0.569956
-0.0586306
0.530235
-0.704317
-0.271033
0.9572
0.696177
0.218432
0.491175
0.942419
0.460755
-0.0904709
0.331633
-0.355994
0.428114
-0.530675
-0.207552
-0.873559
0.717397
-0.182332
0.949219
0.159772
0.0856509
-0.713877
-0.916599
0.750118
0.593216
0.0779308
0.103891
0.931599
0.00313003
0.860979
-0.127051
-0.466635
-0.843338
0.928959
-0.182412
-0.820138
0.147371
-0.691257
-0.877739
-0.0648506
0.545315
0.453915
0.579176
0.300453
-0.749737
-0.301353
0.426914
0.96768
0.843358
0.703157
0.454475
-0.0709907
-0.683697
0.864919
0.00615006
0.909539
0.269893
-0.562936
0.841118
-0.726997
-0.701957
0.0410904
0.133411
-0.218252
-0.0299703
0.951
-0.0383904
-0.882599
-0.413234
0.0838708
0.379594
-0.540875
-0.135191
0.285793
0.759578
0.115091
0.98444
0.513515
0.409794
-0.845178
0.543695
-0.135751
0.410874
0.860019
-0.270833
-0.255953
0.769538
-0.673917
0.181132
0.937679
-0.400914
0.806218
-0.0212502
0.732517
-0.0850109
0.948779
-0.98948
0.876599
-0.606796
-0.0756508
0.287493
0.772818
0.383474
-0.847698
0.0585906
0.470075
0.267393
0.370074
0.310633
-0.322833
0.851939
-0.145691
0.868459
0.262793
-0.285693
-0.0753508
-0.99318
-0.189132
0.250733
0.514995
-0.251473
0.849838
0.648236
-0.945699
0.909379
-0.436794
-0.99692
0.919899
-0.233172
-0.276673
-0.155772
-0.945679
-0.176832
-0.445274
-0.793378
-0.791198
-0.648156
0.801058
0.905919
0.662477
-0.521795
0.757838
-0.156192
-0.326313
0.347653
0.885179
0.598356
0.354474
-0.303973
-0.150932
0.196512
0.771618
0.0259303
0.171772
0.825918
-0.0647106
-0.937979
-0.843978
0.182232
-0.171152
0.206412
-0.97356
-0.116831
-0.97044
-0.0917709
0.416834
-0.434594
0.260073
0.217872
-0.528695
0.249572
-0.9769
-0.443834
-0.906639
-0.303193
0.903819
0.97854
-0.377814
0.585336
0.00161002
0.471255
0.108871
-0.226792
-0.175772
-0.719377
-0.0738507
0.759518
-0.657357
0.0821908
0.268773
0.498555
-0.711417
0.622276
-0.618296
-0.354814
-0.469515
-0.874419
0.210612
-0.882419
0.343453
-0.99106
0.367154
0.693617
-0.434874
0.787558
-0.609596
-0.531075
-0.906879
0.0125901
-0.618716
0.0947309
-0.189132
0.490155
0.867939
0.96214
0.770798
0.121111
-0.95132
-0.559536
-0.796718
0.317453
0.939019
-0.181092
-0.0602906
-0.679277
0.464115
0.470195
-0.226652
0.00175002
0.914819
-0.883219
0.337733
0.608996
-0.862579
0.902859
0.396554
-0.145131
-0.301173
0.816718
0.867459
0.0801108
-0.0885709
0.00537005
-0.429734
0.106391
-0.0325103
-0.331913
-0.772518
0.0161702
0.108551
-0.569216
-0.339333
0.0475705
0.576736
0.600376
0.695337
0.0408304
0.0705707
-0.531335
-0.630396
0.312413
-0.0875109
0.707357
-0.0785908
0.0499305
0.937239
-0.355014
0.904799
-0.363954
-0.538315
-0.900719
-0.9568
0.373114
0.431694
-0.386534
-0.193472
-0.273793
0.281553
0.0340103
-0.930579
-0.609916
0.791838
-0.269913
0.764698
0.368574
-0.669557
0.460015
-0.263573
0.728057
-0.744297
0.433094
0.0404704
0.168212
0.140431
-0.711097
-0.454835
0.404694
-0.0661107
-0.550056
-0.95926
0.722617
-0.123731
-0.916059
0.095711
-0.692057
0.0244502
-0.770738
0.0341703
-0.366974
0.263273
0.430634
0.350154
0.382154
-0.839298
0.114851
0.0777508
-0.508855
-0.098111
0.814178
-0.780798
0.157612
0.574296
0.586716
-0.347153
0.0417504
0.875619
0.198012
-0.553556
0.136531
0.975
-0.185772
-0.140871
0.178312
-0.101831
-0.718137
0.486255
-0.750358
-0.488875
-0.152552
-0.117331
-0.898579
-0.721937
-0.767198
0.483575
-0.561236
0.674697
-0.111651
0.256973
-0.423414
0.0295703
0.803218
-0.938779
-0.396154
0.389914
0.0411104
0.645616
0.592556
-0.760898
-0.907959
-0.270933
-0.458875
-0.0937309
0.915239
0.719437
-0.868539
-0.802918
0.532735
-0.291853
0.0352504
-0.619836
0.917859
0.136671
-0.0147101
-0.522315
-0.0527105
0.751098
-0.847618
0.835638
0.00805008
0.0560106
-0.134811
-0.188752
0.444274
0.796098
-0.471815
-0.514635
0.441694
-0.879279
0.0515105
0.860779
0.176832
0.592636
0.0940709
0.0920509
0.639116
0.552576
0.289133
0.171832
-0.739297
-0.675637
0.879039
-0.821458
0.788098
-0.135691
-0.343773
-0.264633
-0.384594
0.135651
-0.101971
0.9505
-0.808358
-0.909739
-0.238252
0.635916
0.886359
0.616976
-0.878739
0.655077
0.737717
0.172772
0.515835
-0.0854709
0.0924509
-0.390114
-0.666377
-0.268453
-0.837558
0.622756
-0.769598
-0.249812
-0.725837
-0.890579
-0.0712707
-0.610716
0.300793
0.911999
0.451695
-0.756778
0.0476505
-0.650297
-0.479255
0.239292
-0.232992
0.609536
0.202252
-0.346653
0.226512
0.650557
-0.364554
-0.0357904
-0.176672
-0.848738
-0.794238
-0.757198
0.0881909
-0.460615
0.301393
0.577676
-0.510815
0.531795
-0.672157
0.0903909
0.96826
0.583616
0.479675
0.596076
0.495615
-0.0686507
-0.833678
-0.456755
0.608096
-0.312913
-0.890439
-0.624896
-0.703397
0.311813
0.355494
0.523115
-0.0376304
0.99096
-0.185652
-0.887279
-0.530755
0.347173
-0.317433
0.557456
-0.786418
0.98396
0.135111
0.0298103
0.842778
0.790018
-0.879819
-0.861959
0.373614
0.926899
0.734137
-0.130791
0.185272
-0.772518
0.739497
-0.206632
-0.0854309
0.849078
0.495515
0.211192
0.160872
0.178032
0.0613306
-0.549735
0.168972
-0.797278
-0.109971
0.96528
0.549895
0.572596
0.522715
0.763478
0.883579
-0.0151502
-0.206712
0.726337
0.101891
0.240512
-0.808578
-0.524495
0.167412
-0.747417
0.671757
-0.647336
-0.519935
0.411254
0.473075
0.394654
0.260313
0.295613
-0.0671307
-0.251793
-0.526355
-0.678777
0.525535
0.96966
-0.476055
-0.584456
0.934919
-0.926179
-0.684817
0.784658
-0.835658
-0.801258
0.096551
0.284673
-0.747877
-0.801578
-0.474835
-0.556456
0.00097001
-0.9804
-0.303873
-0.000230002
-0.627716
0.176192
-0.588996
-0.827618
-0.102131
0.99836
0.468015
-0.842238
0.0735907
0.941659
-0.520995
-0.0738507
-0.761678
0.329993
0.341713
-0.826758
0.730877
0.656897
-0.715077
-0.777758
-0.817338
0.708517
0.506915
-0.565216
-0.766018
-0.640896
-0.121671
0.234952
-0.621276
0.901499
-0.765298
0.0780508
0.404734
-0.0272503
0.250433
-0.697417
0.298133
0.0454705
-0.212592
-0.301233
0.314153
0.593456
0.624916
0.552496
0.250473
-0.0333903
-0.947239
-0.0186702
-0.0494705
-0.662317
0.203572
0.460255
-0.626756
0.0375104
0.895039
-0.392774
0.396634
0.100411
0.842178
0.775358
0.00189002
-0.596076
-0.146611
-0.593396
0.703717
-0.569156
0.0362504
0.00185002
0.476335
-0.849318
0.700617
-0.209532
-0.928839
0.652557
-0.657057
0.321633
-0.380834
-0.604296
-0.697037
0.896739
0.0604506
0.833578
0.356974
0.433694
-0.128911
0.579056
-0.632056
-0.732297
-0.320553
-0.462855
-0.95696
-0.99164
-0.0589306
0.223472
-0.257973
-0.0281703
0.654317
-0.894699
-0.699297
0.457675
-0.744017
-0.671657
-0.751858
-0.672857
0.9809
-0.0818708
0.648776
-0.0729107
0.640896
-0.721237
0.150872
-0.298673
-0.887659
-0.492175
-0.537955
-0.0165702
-0.586096
-0.170012
0.578176
0.0933509
0.367134
0.948259
0.101731
-0.364754
0.171712
-0.829218
0.934119
0.153052
-0.723917
-0.765198
-0.389274
-0.467935
-0.109811
-0.141131
0.186252
-0.128931
0.776998
-0.164992
-0.874799
0.417874
0.113791
0.276073
-0.553776
0.553176
-0.889079
0.235312
-0.463415
-0.475155
-0.607676
-0.558216
0.618196
-0.913499
-0.609976
0.0469505
0.0487905
0.561736
0.544775
-0.0171102
0.0418104
0.820858
0.217692
0.652537
-0.647096
-0.565096
-0.161572
0.866199
0.305973
-0.0575306
-0.298793
0.431174
-0.639676
-0.857979
-0.292773
0.133611
0.695197
-0.181832
-0.304053
-0.441194
0.670057
0.0882909
0.327633
0.615276
0.174792
0.717657
-0.337773
-0.776438
0.606416
-0.465975
0.533495
-0.351794
-0.645116
0.0782108
-0.372214
0.0348303
0.513115
0.466215
-0.098971
-0.180932
-0.591336
0.602236
-0.422714
0.096051
-0.928719
0.611556
-0.443314
-0.906499
-0.243252
0.252633
-0.0206502
-0.573216
-0.332053
-0.693037
-0.95794
0.842738
-0.9754
0.0313303
-0.606676
0.631016
0.565356
0.926819
-0.393754
0.920239
0.00501005
0.561076
0.282113
-0.481895
0.0272903
-0.816878
0.664237
0.762998
-0.887619
-0.431454
0.186072
-0.816338
-0.819918
-0.930219
-0.722837
-0.0631506
0.322433
0.583556
0.690677
0.99038
0.890519
0.732737
-0.839858
0.915119
0.0910909
-0.119491
0.873159
-0.343553
-0.192672
-0.193572
-0.096291
-0.860639
-0.632496
-0.814198
-0.0154702
0.721837
-0.631076
-0.351254
0.811858
-0.518695
0.217292
0.324973
-0.00799008
0.724417
0.394754
0.596216
-0.338753
0.0442104
0.179752
-0.321033
0.361634
0.0702507
-0.588316
0.848818
0.312393
0.502795
-0.270693
0.512575
-0.513735
0.863679
-0.680997
0.717017
-0.99696
0.0135501
0.902839
-0.0124301
0.0624106
-0.401214
0.96336
-0.125751
0.407154
0.180632
-0.473755
-0.600856
0.232072
-0.751958
0.99538
0.893339
0.292253
0.502155
-0.427714
-0.0190902
-0.427594
0.311013
-0.170292
-0.788178
0.140831
0.886079
0.724417
0.627096
0.749737
-0.9566
0.671157
-0.920199
0.383994
0.573976
0.394414
-0.553616
-0.500215
0.357754
0.320633
0.906939
-0.134591
-0.826078
-0.366874
-0.902519
-0.578036
-0.0444704
-0.682157
0.714217
-0.542335
0.217172
0.0221702
0.357114
-0.471835
-0.821098
0.568956
0.99606
-0.935039
0.293353
0.95018
-0.858259
0.663797
0.621316
-0.451415
0.0477705
0.522315
0.943019
0.494155
-0.9779
0.627796
0.141811
-0.743937
-0.506795
0.315733
0.216232
-0.0822708
-0.935279
-0.828258
0.235572
-0.894019
-0.370574
-0.547275
0.128151
-0.686437
0.307933
0.634096
0.882519
0.303973
0.699077
0.175852
0.254153
-0.832158
0.166672
0.202492
-0.283573
-0.785578
-0.275193
-0.0135301
-0.9644
0.0739507
-0.385734
0.504475
0.330013
0.434514
0.147231
-0.453755
-0.647776
0.211972
0.0450305
0.914839
0.317953
-0.99852
-0.632456
-0.226872
-0.684937
-0.9975
-0.592796
-0.802438
0.633536
-0.566696
0.700477
0.214712
-0.0718107
0.194172
-0.582816
0.644636
0.408614
0.469035
-0.0418704
0.771258
-0.457035
0.572396
0.275713
-0.799978
0.00689007
-0.250013
0.0733107
0.359114
0.96196
-0.881679
0.273933
0.606936
-0.880179
0.96852
-0.292913
-0.238072
-0.701937
0.114291
0.286533
-0.741377
0.547615
0.314033
0.473335
-0.524215
-0.491795
-0.782458
-0.552556
0.916819
0.686597
0.405594
-0.98492
-0.443414
0.305013
0.617856
0.0836508
-0.688097
-0.632176
-0.843058
0.99806
-0.343193
-0.397674
0.599036
-0.409234
0.0491905
0.894579
0.297853
0.811118
-0.480335
-0.587876
0.097631
-0.221712
-0.713237
-0.261293
-0.748397
0.0896109
0.246912
-0.203792
0.537055
0.490755
-0.190172
0.269673
0.505835
0.366414
-0.425314
0.123671
-0.222892
0.213632
0.818538
-0.0659507
0.538715
-0.524675
0.536375
0.137731
0.0660907
-0.0874109
0.359354
-0.636076
-0.276313
0.879019
0.103111
-0.851639
-0.342693
0.389874
-0.112931
0.235952
-0.193492
-0.866039
-0.96786
-0.656437
0.624716
-0.158032
0.940279
0.457575
-0.464575
-0.158012
-0.418754
0.639576
-0.944399
-0.273193
-0.426394
0.594336
0.529195
-0.562976
0.0590906
-0.0776908
0.349613
-0.581576
0.613296
-0.599656
-0.702557
-0.283613
-0.451295
-0.0452505
-0.566716
0.435774
-0.482275
0.239812
0.896779
-0.450115
0.910419
0.848518
0.718897
0.850679
0.306073
-0.418654
-0.307333
-0.785658
-0.779098
0.0753108
-0.0588306
0.121571
-0.00333003
-0.529655
0.558596
-0.944239
0.392654
0.235232
-0.198772
0.00593006
0.635576
0.098671
-0.95066
-0.815738
-0.619556
-0.517355
0.947079
-0.101811
-0.95052
-0.829138
0.775118
0.9599
-0.98064
0.821038
-0.862419
0.325453
-0.597616
0.157292
0.539795
-0.376714
-0.767398
-0.192012
-0.928119
0.556316
0.605376
0.630476
0.939119
-0.00197002
0.192752
-0.259653
-0.669017
-0.171692
-0.833958
-0.292613
0.339633
-0.126451
0.190032
0.613736
-0.901239
0.239512
0.784618
0.873879
0.526435
0.803978
0.694897
0.664017
0.129411
-0.575696
-0.178692
-0.00375004
0.374654
0.380954
0.804238
0.446534
-0.0627506
0.736657
0.404054
-0.123631
0.0617106
-0.403214
0.943759
0.392694
0.752138
-0.563176
-0.899939
0.0917509
0.310373
0.617136
-0.294513
0.736177
0.183672
-0.509915
0.937079
0.0371304
-0.378914
0.631976
-0.298853
0.750518
-0.616696
0.849498
0.0737907
0.757958
0.230432
0.205052
0.531535
-0.505295
-0.0583106
-0.0644306
0.698117
-0.99662
0.859399
0.9689
0.723137
0.611516
-0.594276
-0.849778
-0.296733
-0.95688
0.767378
0.735797
0.779318
0.278073
-0.447094
0.716377
-0.684797
0.173992
0.675377
0.343393
0.251533
-0.941319
0.192872
-0.347653
-0.856339
-0.249672
0.857419
0.675197
0.245032
-0.200912
-0.389254
0.270193
0.129531
-0.202832
0.239072
-0.147351
-0.591316
0.644796
0.00287003
0.438994
0.687937
0.097271
0.174772
0.794278
-0.297613
-0.945299
0.837678
0.0175902
0.555736
0.513055
-0.311993
-0.192732
0.898779
0.880879
0.459615
-0.630536
-0.0417704
0.644056
-0.95534
-0.796758
-0.229812
-0.0175502
0.473435
0.899719
0.779638
0.0395504
-0.247652
-0.811698
-0.315673
0.755218
0.95434
-0.300713
0.179532
0.129091
-0.179412
0.881919
0.510835
-0.341733
0.226532
0.0665507
-0.501655
0.914539
-0.799158
-0.275853
0.795398
0.98752
0.0936109
-0.246392
0.631556
0.138271
0.283893
-0.598276
-0.552236
0.0843708
-0.698577
-0.772618
-0.876099
0.380814
-0.257273
0.135271
0.463075
-0.302953
-0.838398
-0.357414
-0.846838
0.309233
-0.475515
0.663997
0.9675
0.751018
0.0575706
-0.207132
0.99258
0.258433
0.517015
0.787958
0.245932
-0.389374
-0.131411
0.204512
-0.924079
-0.520495
0.606256
-0.149271
0.890919
-0.765298
0.0781108
-0.658157
0.615536
-0.852139
0.804178
0.0785908
-0.155092
0.96578
-0.9518
0.325113
0.602036
-0.100271
-0.0109101
0.896579
-0.349273
-0.626296
-0.310573
-0.0296703
0.632136
-0.466515
-0.241732
0.205092
0.471155
0.9539
-0.590416
0.874119
-0.239572
-0.657137
-0.275153
-0.348653
-0.095371
0.802958
0.320233
-0.479855
-0.722137
0.124391
0.925779
0.122771
0.417194
0.97398
-0.552116
0.0192302
-0.126311
0.764018
-0.0842108
0.851459
-0.862299
0.932259
-0.178232
-0.903139
-0.534275
0.907079
0.628996
-0.736097
-0.812018
-0.96142
-0.861979
-0.0515905
-0.291513
-0.137131
0.926799
0.613116
-0.00715007
0.574076
-0.539715
0.270713
-0.301553
-0.613956
-0.279473
-0.557316
-0.312953
0.495455
0.461915
0.887779
0.259453
-0.295273
0.739217
0.724217
-0.0359904
-0.111991
-0.851899
0.756798
0.122111
0.777118
-0.97932
0.310093
0.815698
-0.841298
-0.414454
-0.148791
0.0215702
-0.160632
-0.208632
-0.98558
-0.586576
0.251653
0.612176
0.438934
0.96476
-0.667317
0.881619
-0.348213
0.828138
0.670557
-0.133391
0.414634
-0.297693
-0.0671507
0.138831
0.666317
0.820878
0.286933
0.423094
-0.0570306
0.0640306
0.443794
-0.419894
0.206752
0.602496
0.165652
-0.614996
-0.0488905
-0.667957
0.176372
0.292573
0.0725307
-0.571996
-0.095271
-0.488555
-0.280213
0.237432
-0.279913
0.698637
0.0655507
-0.609376
-0.434774
-0.519835
0.0929309
0.498075
0.946039
0.0862709
0.645976
0.560016
-0.490635
-0.411054
-0.375974
-0.719817
0.496095
-0.842178
0.882679
-0.0112301
-0.130131
0.160812
0.320813
-0.95378
-0.546635
-0.606676
-0.198732
0.358114
-0.095231
0.521075
-0.404474
0.624856
0.219692
0.98812
-0.657497
-0.888059
-0.204672
0.762478
0.610016
-0.258653
-0.151252
0.583036
-0.698657
0.358114
-0.500995
0.252433
0.96534
0.9951
0.737297
-0.824978
-0.0161502
-0.392854
0.335853
-0.695357
-0.346633
0.789218
0.0250303
0.781678
0.474355
-0.743177
0.302733
-0.603096
-0.791278
-0.150552
-0.614976
-0.448774
-0.0386104
0.180352
-0.686297
-0.101551
0.921699
0.489495
-0.191492
-0.449914
0.174632
0.307513
0.802518
0.139951
0.302593
0.539795
0.314973
-0.713577
-0.526035
-0.0221502
-0.0818908
0.127331
-0.232932
0.943139
-0.0910109
-0.431554
-0.472995
-0.461235
-0.0346303
-0.264273
0.715257
0.350394
0.613996
0.00369004
-0.469275
-0.745277
0.902139
-0.220552
0.744217
0.0376704
0.329533
-0.0811708
-0.654837
0.459075
-0.614196
0.647756
0.325893
0.700797
-0.738797
0.799858
-0.321373
0.179312
-0.0728307
0.772738
0.449494
-0.836798
-0.658817
0.9765
0.0290103
0.306553
0.0392504
-0.255753
-0.0160302
-0.346773
0.747937
0.841738
-0.0920309
0.9771
-0.378834
-0.347833
0.0147501
-0.722257
0.898059
0.359914
-0.936159
-0.716157
0.334693
0.389754
-0.688337
0.922939
0.189592
-0.0096901
0.102251
-0.556196
0.0900709
-0.121231
-0.0659507
0.758298
0.182292
0.96306
0.0648306
-0.451435
0.0343303
-0.624176
0.201792
-0.217732
-0.782458
-0.563216
-0.240652
0.165772
0.0889709
-0.898859
0.443514
0.314053
0.788098
0.834398
0.597896
0.122791
0.224132
-0.763398
0.0457105
-0.259233
0.553956
-0.525015
0.184572
-0.355994
0.680797
-0.554356
-0.597696
0.190112
-0.264273
0.794178
0.738677
0.770058
-0.829998
-0.0595306
-0.447694
-0.612456
0.377254
0.638716
0.553316
-0.206752
0.739857
0.323853
-0.565676
0.527935
0.485295
-0.640736
-0.0222502
-0.290593
-0.404134
-0.97654
0.450175
-0.850199
-0.174512
-0.0382304
0.120851
-0.166672
0.734457
0.523155
-0.97658
-0.529835
0.644376
0.762118
-0.759778
0.814378
0.0296103
-0.207472
-0.471055
-0.266113
-0.241732
-0.590696
0.527155
-0.501895
-0.939819
-0.711497
-0.646916
0.545475
-0.352234
0.330833
-0.745117
0.243632
0.681337
-0.96792
0.393434
-0.166132
0.320913
-0.485715
0.667197
0.0553506
-0.635536
0.690617
0.852579
-0.99118
0.779758
-0.907219
-0.849778
-0.190652
0.212352
-0.320813
0.543255
0.97064
0.415534
0.397434
-0.204232
0.475715
0.685937
0.475895
0.0211902
-0.339253
0.133771
0.603116
0.904379
0.142131
0.96224
0.297813
0.976
0.283133
-0.860879
0.97022
-0.334473
-0.496415
0.660837
-0.481915
-0.160532
0.767618
-0.0620906
-0.0103101
-0.423034
-0.849758
0.99592
-0.552756
-0.552096
0.411434
-0.828298
0.570736
0.214192
-0.815338
0.0466105
-0.764638
-0.154592
-0.819638
-0.834498
-0.250213
0.322513
-0.872279
-0.625376
0.625536
0.410874
-0.159212
0.595756
-0.596576
0.671417
0.583616
0.248552
-0.162092
0.351214
-0.813558
0.827618
-0.744797
-0.336273
-0.849458
-0.297553
0.111651
0.889039
0.201192
0.00941009
0.103211
0.385874
-0.943999
0.665617
-0.441694
-0.436574
0.831118
0.635136
-0.787038
0.95884
-0.663217
0.838498
0.696737
0.177572
0.761278
-0.899859
-0.151012
0.344873
0.675737
0.686897
0.0231302
0.862179
0.841538
0.278333
-0.474095
-0.680877
-0.692177
0.9646
-0.464815
0.509015
-0.0260103
0.638396
0.221912
0.357034
0.631036
-0.892739
0.920459
0.462135
0.742397
-0.866599
0.747997
-0.920819
-0.701057
0.444734
0.583796
-0.939799
0.871919
-0.240192
0.732137
0.547655
-0.226252
-0.244752
0.736857
-0.0576906
-0.639396
-0.410214
0.261433
-0.331573
-0.445634
0.796618
-0.495515
0.855399
0.762038
-0.946579
0.212432
0.393054
-0.839318
0.459915
0.182212
-0.769878
0.593336
-0.0697907
-0.363654
-0.780698
-0.298033
-0.779878
-0.393454
-0.426134
-0.0200502
-0.334293
-0.551456
-0.919279
0.747997
-0.487555
0.0230302
-0.891399
0.102231
-0.388494
-0.222972
0.656617
-0.264853
0.608556
0.839038
-0.175772
0.661997
0.0514505
-0.782738
0.822678
-0.488635
0.726537
-0.947219
-0.568276
-0.343273
-0.310873
-0.0219302
0.358694
0.236312
0.911659
-0.740417
-0.456715
-0.422634
-0.291853
-0.375994
-0.674657
0.220592
0.97408
-0.566056
-0.350154
-0.0873909
0.538035
-0.366514
0.647776
0.146571
-0.527475
-0.528015
-0.191452
0.851019
0.0162902
-0.368774
-0.637636
-0.257193
0.0110501
0.121131
0.726577
-0.97278
-0.573776
0.0852509
0.590576
-0.662117
0.344853
-0.866159
-0.0847508
-0.619976
0.0848908
0.240592
0.927659
0.0589506
-0.99842
-0.422514
0.97158
0.539615
0.538035
0.946379
-0.313833
-0.98946
-0.581656
0.494735
0.861559
0.761678
-0.547015
-0.449034
-0.495515
0.791078
0.99914
-0.441914
-0.854679
-0.574636
0.643356
0.735897
-0.236752
0.315233
0.869739
-0.99448
-0.97772
0.281653
0.246112
-0.723037
-0.659397
0.574736
0.181492
-0.360794
0.114331
-0.280493
-0.414434
0.800518
-0.269953
0.00391004
0.622276
-0.0813508
0.0926109
-0.597716
0.469615
0.924139
-0.806658
0.468735
-0.517775
-0.334273
-0.778878
-0.874439
-0.598396
-0.0156302
0.767838
-0.401614
0.316933
0.790118
0.880039
-0.436954
-0.932939
-0.452335
-0.535195
0.248552
0.186872
0.579156
0.96808
0.772438
0.706697
0.0251503
0.103371
0.328953
0.943799
-0.804018
-0.941739
0.413394
-0.879899
-0.421354
0.209172
-0.397674
0.244372
0.430294
0.0549305
0.97304
-0.258293
-0.177252
-0.428594
-0.941379
-0.0601106
-0.221532
-0.0512905
0.00695007
0.326153
0.413534
-0.417454
-0.486995
0.319713
-0.122351
-0.714557
0.0263903
0.902799
0.715857
-0.317633
0.846598
0.911839
-0.259373
0.587016
-0.96806
0.319273
0.123211
-0.0386904
-0.436354
-0.119451
-0.98376
-0.463335
0.622256
0.166032
0.435114
-0.9921
-0.894079
-0.786438
0.283673
0.112871
0.866759
0.0242302
-0.97756
-0.293193
-0.656077
-0.099911
0.319293
0.697357
-0.197112
0.0351304
-0.620296
-0.0234902
-0.0530305
0.120331
-0.436494
0.305953
-0.233372
0.686737
-0.732757
0.657317
-0.105691
-0.389474
-0.806038
-0.483455
0.776578
0.95612
-0.148511
-0.790478
-0.503275
-0.537815
0.649436
-0.309493
0.813458
0.671897
0.397314
-0.842638
-0.428034
-0.283413
-0.818258
0.374854
0.751738
-0.438554
-0.648656
0.0257303
-0.9912
0.241912
-0.668337
-0.224552
0.255673
-0.0740507
-0.240212
-0.850039
0.863539
-0.0462305
-0.00645006
0.96714
0.236912
-0.827938
-0.823358
-0.939339
-0.365734
0.826078
-0.248812
-0.552296
0.497955
-0.851519
-0.0678707
-0.603036
-0.134911
0.113871
0.771818
-0.0561506
-0.99764
-0.549795
0.96958
-0.661797
-0.98086
-0.698777
0.440694
0.601856
0.554216
-0.799518
0.751818
0.417734
0.481295
0.0723907
0.384854
-0.281813
0.244452
0.888539
-0.221132
-0.794258
0.714617
0.857099
-0.0194902
0.539595
-0.99444
-0.760338
0.936559
-0.129351
0.680577
-0.9646
0.814498
0.682937
-0.187352
-0.888919
-0.651817
-0.168212
-0.587696
0.788878
-0.239332
-0.706437
0.98936
-0.487535
0.711297
0.470635
0.911899
0.423194
-0.484135
0.483375
0.638756
0.621776
0.689137
0.680397
0.478855
-0.00333003
0.219992
0.484415
0.236332
0.483575
-0.317893
0.243932
0.518975
-0.176372
-0.0731307
-0.341353
-0.0652707
0.275053
0.817478
0.674077
0.390954
-0.421874
0.96764
0.380314
0.417634
-0.99404
-0.149071
0.329513
0.756198
0.693837
0.139931
0.394934
0.315593
0.156092
0.0753308
-0.205572
-0.847258
-0.377654
-0.394114
0.716117
-0.894099
0.287993
-0.0399704
0.95194
-0.888399
-0.786078
-0.389434
0.373374
0.816018
-0.244912
0.0474505
0.206972
0.333213
0.0150702
-0.412734
0.0778908
0.0210302
0.765238
-0.265573
-0.222792
0.786118
0.874359
-0.500815
0.101691
0.0304303
0.574516
0.896139
0.183172
-0.803158
-0.170952
0.226312
-0.370214
-0.882979
-0.813658
-0.418294
-0.444334
-0.272693
0.519335
0.929059
-0.456675
-0.725597
-0.0235102
-0.922679
0.934659
-0.681417
-0.335413
0.0125301
0.666677
-0.243152
-0.925999
-0.556136
-0.457055
0.948359
-0.0569506
0.9717
-0.0212102
-0.155412
-0.805158
-0.511015
0.368474
0.0238902
-0.95766
0.99828
0.140911
-0.444274
-0.0929909
-0.9764
0.283033
-0.246632
-0.720317
-0.846618
0.354814
0.256173
-0.769298
0.289473
0.901819
0.222332
-0.370974
0.568476
0.9792
-0.296973
-0.660637
-0.150832
-0.0215702
0.609476
0.147891
0.95722
-0.545955
0.342733
-0.226772
0.822538
-0.633396
-0.184432
-0.852179
0.834558
0.371294
0.0548305
-0.814798
-0.0186302
-0.864759
-0.535115
0.134751
0.490055
-0.9519
0.365474
0.106551
0.949919
-0.412214
0.735597
0.518375
-0.105991
-0.234352
0.857739
-0.929779
0.744077
0.794238
0.218112
-0.9717
-0.751718
-0.112111
0.128591
-0.602156
0.254493
0.944159
-0.127291
0.416094
0.642496
-0.745437
0.928339
-0.376154
-0.610196
-0.606796
0.758598
0.879879
-0.558696
0.451095
-0.0135901
-0.281753
-0.96112
0.0490305
-0.763398
0.259933
0.814698
-0.578616
0.330153
0.885799
-0.784398
-0.124691
-0.758858
-0.209072
0.763198
0.369734
0.515815
0.344713
0.640916
-0.611496
0.0878309
0.283393
-0.356914
0.0161502
-0.765738
0.0328903
0.409374
0.99288
-0.0872509
-0.822298
0.443954
-0.773798
-0.104031
0.809878
0.275233
0.459615
0.396854
0.416954
0.880999
-0.273013
0.629796
-0.576356
0.929339
0.870939
0.541615
0.692517
0.567696
0.384474
0.364274
0.208592
0.772978
-0.547915
-0.508015
-0.256913
0.468255
-0.273753
0.775998
0.204652
0.0461505
0.0157702
0.382354
-0.182852
0.241972
-0.394654
-0.0459505
-0.155752
-0.935039
-0.649116
-0.738817
-0.727017
0.404934
0.890979
0.0236702
0.334253
-0.911079
-0.107671
0.353814
0.656617
-0.723217
-0.281933
-0.134791
-0.95026
0.170152
0.684237
-0.207152
-0.0345703
-0.262493
-0.104131
-0.829938
-0.889299
0.911639
0.879479
-0.0721507
0.480655
-0.188152
0.881899
-0.675117
-0.123191
-0.440174
-0.0868909
0.476855
0.96476
0.131131
-0.499495
0.298993
0.220052
0.392834
-0.347213
0.203712
0.669617
0.370854
-0.604056
-0.9536
-0.131951
-0.919839
-0.160752
0.833478
0.144711
-0.937859
-0.669417
0.255413
-0.699197
-0.462915
-0.489715
0.781458
0.348933
-0.280773
-0.566636
-0.774258
0.279053
0.673537
0.702597
0.243792
-0.195352
-0.469875
-0.130191
-0.648276
0.922979
0.849658
0.555436
0.919619
0.547535
0.95138
0.96602
-0.584436
-0.641436
0.132291
-0.423914
0.503295
0.194432
-0.0933309
0.0857309
0.495255
0.770798
0.596036
0.276693
0.119711
-0.684757
-0.9629
0.672497
0.594296
0.710637
0.375074
0.165112
-0.157692
-0.767758
-0.638056
0.194032
-0.844798
-0.788418
0.0765108
-0.598156
0.759138
0.354914
-0.632136
-0.498275
0.713497
0.500155
0.0778108
0.543815
-0.305413
-0.688497
-0.370474
-0.483135
-0.917719
-0.774458
-0.879419
0.529055
-0.132171
-0.842318
0.201532
-0.537895
-0.804658
-0.096351
0.95426
0.0376504
0.135891
-0.683797
-0.441274
0.618136
-0.472215
0.635236
-0.98004
-0.386054
-0.0098701
-0.285133
0.442734
0.0306503
-0.784978
-0.479475
-0.425554
0.236652
0.159092
0.531035
-0.919459
0.568416
0.756578
-0.798878
0.097451
-0.375594
-0.314133
-0.701017
0.413554
-0.118791
0.529675
0.367814
-0.754098
-0.334453
-0.98896
-0.195372
-0.716337
-0.461175
-0.233112
-0.369334
0.479835
-0.915959
0.345553
-0.0774508
0.441754
0.887619
0.770118
-0.98382
0.124251
0.256233
0.874259
0.531835
-0.175352
0.95788
0.732957
-0.750878
-0.0906909
-0.581196
-0.124851
-0.677157
0.300033
-0.595196
-0.98232
0.872979
0.0703507
-0.97128
0.00463005
0.681057
-0.105391
0.771518
-0.688277
-0.625576
-0.817418
0.657277
0.624016
0.624336
0.544875
0.394114
0.96758
-0.00385004
-0.349653
0.841818
-0.472035
0.802038
0.799678
-0.739097
-0.621816
-0.291033
0.00677007
0.253353
0.358874
-0.366174
0.9852
0.376554
-0.493215
0.382594
0.732337
0.511415
0.0636306
-0.0460305
0.609956
0.375354
0.328393
0.792538
0.359654
0.279433
0.416874
0.231552
-0.326473
0.711477
-0.445274
0.650917
0.553276
0.0826908
0.779978
0.352954
0.670657
-0.841838
-0.611056
0.00445004
0.738557
0.747817
0.638276
0.723737
0.451415
-0.854959
0.106311
0.510775
0.656457
-0.830058
-0.535275
0.266393
0.872339
-0.879859
0.385954
0.559036
0.399574
-0.197192
-0.209432
-0.599876
-0.485735
0.345313
-0.948959
-0.605416
-0.244972
0.831018
-0.925439
-0.247292
-0.683797
-0.536495
0.757158
-0.945259
-0.461635
0.395414
0.778498
0.98978
0.867499
-0.115211
0.500535
0.850979
0.381774
-0.707717
0.444394
0.581156
-0.587576
-0.169652
0.140171
0.811998
0.9602
-0.742237
-0.787898
-0.198492
0.930119
-0.409814
0.196092
-0.314853
-0.578796
0.270653
0.764898
-0.262593
-0.938819
0.522055
0.119211
-0.400454
0.244492
-0.102311
-0.0836508
0.111991
-0.890499
-0.256093
-0.0370504
0.491295
0.0361904
-0.592656
0.0724307
0.448614
0.564736
-0.460375
0.587636
0.524915
-0.202612
0.799758
-0.673597
-0.272493
-0.610076
0.849538
0.739697
0.138171
0.120171
0.504575
-0.797378
0.508415
0.353654
0.321833
-0.565016
-0.401854
-0.453455
0.351354
-0.96284
-0.343953
-0.577716
0.327153
-0.525635
0.458495
-0.938479
0.873839
0.234132
0.626256
-0.586556
-0.178232
0.478215
0.210852
-0.0514505
0.804618
-0.734617
0.338473
0.9812
-0.99494
-0.196312
0.428394
0.509635
0.00631006
-0.0632106
0.190332
-0.344833
0.371794
0.788478
0.201712
0.0501705
-0.847338
0.857759
0.799498
0.806858
-0.667877
0.257973
0.868399
-0.794058
-0.180852
0.821678
-0.0535505
0.96796
0.299873
-0.515675
-0.0835108
0.431534
-0.250293
-0.418014
0.412714
-0.245232
0.385674
-0.158912
-0.408574
-0.280993
-0.895079
0.781758
0.374174
0.803758
0.897259
-0.424134
0.180952
-0.623056
-0.239332
-0.0195702
-0.816198
0.419834
-0.761598
-0.947819
0.95282
0.384594
-0.799118
-0.100751
0.352534
0.827818
0.383574
-0.403954
0.259333
-0.866739
0.178032
-0.000930009
0.215072
-0.436294
-0.832818
-0.866459
0.282713
-0.400854
-0.757678
-0.343113
-0.597116
-0.860419
0.559796
0.583836
-0.483475
-0.679557
-0.435734
0.0273703
-0.932699
0.129711
0.406594
-0.97988
-0.158672
0.607496
0.246412
-0.806158
0.435294
-0.370014
-0.210112
0.0216502
0.0902909
0.96792
-0.652257
-0.367594
-0.141351
-0.158032
-0.234052
-0.531595
0.441134
0.335313
0.125291
-0.828958
0.474895
0.0121101
0.754898
-0.681537
0.659617
-0.353814
0.672877
0.726917
-0.897079
0.0794708
-0.925939
-0.0557506
-0.313053
0.320493
0.465135
-0.550736
-0.722497
-0.744997
0.797958
0.367794
-0.450055
-0.854319
-0.672777
0.735657
0.314693
0.420214
-0.795958
-0.244192
-0.244472
0.656377
-0.0731307
-0.442554
-0.331533
0.00879009
0.202952
-0.344893
0.98202
-0.124171
-0.617976
-0.915079
0.9553
-0.543915
0.356214
-0.0307303
-0.896399
-0.178672
0.418534
-0.618896
0.403374
0.216472
-0.924059
-0.719657
0.689197
-0.596836
-0.98402
0.00387004
-0.849578
-0.452935
-0.913279
-0.0940509
-0.796578
0.340633
0.463395
0.198952
-0.323553
-0.333653
0.854059
-0.341553
0.869219
-0.436894
0.0704107
0.824498
0.346253
-0.246352
-0.206252
0.449854
0.574976
-0.460695
-0.841998
0.305373
-0.917199
-0.766058
0.585716
-0.900979
-0.0358504
0.928759
0.102891
0.114571
-0.524195
0.516655
-0.9795
0.00629006
-0.142731
0.810958
-0.467735
0.860759
-0.195672
-0.286653
-0.153772
-0.326473
0.603516
0.916639
-0.501995
-0.0502505
-0.00269003
0.618796
-0.273373
-0.427734
-0.841918
-0.115371
-0.795338
-0.432074
0.445614
0.790398
-0.333053
-0.590236
-0.95384
-0.903139
0.851379
-0.150992
0.613536
0.871899
0.855299
-0.202172
-0.99014
-0.285413
-0.341413
-0.185812
0.754998
0.504815
0.814758
0.358494
0.748497
-0.360214
-0.364734
-0.254213
-0.741437
0.688937
0.645116
-0.256313
-0.099391
0.849778
0.311613
-0.653797
0.9672
-0.694417
0.0830108
-0.98666
-0.597556
-0.0656107
-0.137631
-0.656997
0.133311
0.0446904
0.140851
0.143171
-0.913679
0.799438
-0.715617
0.841318
0.631276
-0.900879
0.199792
0.706797
-0.261093
0.835058
-0.547415
0.324513
0.851019
-0.575276
-0.604776
-0.248392
-0.398474
-0.96614
0.097831
-0.431274
-0.660557
-0.492135
-0.0908909
0.0689307
0.442254
0.771478
0.411954
-0.424454
0.143211
-0.447214
-0.95426
0.229532
-0.320753
-0.342833
0.0708307
-0.689497
-0.243712
-0.402354
-0.655657
0.822238
-0.240272
0.123971
0.473775
-0.389274
0.548695
0.868999
0.362354
-0.849798
-0.770118
-0.212792
0.0459705
-0.430674
0.295073
0.9551
0.638276
0.0643706
-0.946419
0.0502105
0.96696
0.196792
0.930039
-0.9873
-0.246652
-0.390734
-0.330133
-0.848798
0.246812
0.753218
-0.251153
0.591156
0.902479
0.508575
-0.284893
0.376254
-0.880699
-0.409174
0.572276
0.808698
0.0680907
0.802178
-0.404114
-0.885959
-0.628516
-0.782018
-0.603836
-0.663217
0.282353
-0.223192
0.714037
0.249312
0.9736
0.644056
0.589056
0.0539905
-0.419654
-0.414054
0.205192
0.827178
-0.660857
0.95406
0.745357
-0.758378
0.789658
-0.212492
0.944919
-0.764018
0.378334
0.517175
-0.95534
-0.226552
0.319333
-0.0324103
0.214552
-0.98214
0.512635
0.937759
-0.318313
0.122011
-0.285453
-0.604276
-0.301653
0.0151902
-0.96024
-0.712617
-0.930839
-0.379874
-0.126651
0.274353
-0.225672
0.539535
0.555436
-0.153292
-0.891819
0.345093
0.634216
-0.946919
0.908119
0.339593
0.570276
0.9528
-0.886979
0.216632
0.247412
0.654617
0.561536
-0.239972
0.592376
-0.756778
0.882059
-0.693097
-0.0340103
-0.0925709
0.322093
0.332793
0.194832
0.718297
-0.720057
-0.604796
0.319693
0.0542705
0.934739
0.202152
-0.771978
-0.95708
-0.125731
0.862239
-0.576956
-0.217612
0.528855
-0.679657
-0.264833
0.96894
0.536995
-0.690397
0.623536
0.425554
0.396694
0.542935
0.99582
0.278733
0.849858
0.288833
-0.813858
0.498975
-0.378374
0.708017
0.544315
-0.098431
-0.569756
-0.136011
-0.717117
-0.307973
-0.933879
-0.489095
-0.265053
0.267453
-0.299833
0.485035
-0.95018
-0.770978
0.805398
0.112031
-0.802058
0.669417
0.421634
-0.851499
0.0949509
-0.181692
0.691457
0.417814
-0.575936
0.868339
-0.293373
-0.0627306
0.694337
0.328253
-0.0276903
0.238632
-0.443134
0.402574
-0.570356
0.166792
-0.905419
-0.177172
-0.99528
0.156572
-0.909739
-0.295113
-0.358414
-0.859919
0.260953
-0.553036
0.252113
0.785938
-0.556596
0.000770008
0.934459
0.538375
-0.853879
0.95294
0.283213
-0.429814
0.821258
0.98984
0.834498
0.515575
0.645136
-0.193192
0.0812508
-0.798018
-0.463595
0.510895
0.695817
-0.369014
-0.339253
0.700537
0.787558
-0.248992
-0.594596
-0.243832
-0.108911
0.99342
0.530195
-0.529775
0.779338
0.9736
0.798058
0.713777
0.838998
0.944179
0.99374
0.122191
-0.485655
0.814978
0.439074
-0.651157
0.657597
0.0841908
0.482695
0.0658707
0.613216
-0.98092
-0.096211
0.309013
-0.0228902
0.564556
0.0095301
0.0916909
-0.684457
0.741977
0.847858
0.533695
-0.937599
0.705077
-0.669057
0.841758
0.678677
-0.871019
0.882559
0.844698
-0.926859
0.876299
-0.0331103
-0.0854509
-0.98172
-0.594056
0.590436
-0.9971
0.817178
0.0731107
0.0687707
0.757418
0.419234
0.97258
0.0664107
-0.603676
0.864159
-0.597036
0.488015
-0.820318
-0.528035
0.662897
-0.9596
-0.465615
0.367974
-0.628636
-0.296833
0.0466305
-0.499655
-0.414294
-0.108691
-0.099451
-0.210972
-0.814778
0.815098
-0.192672
-0.0817908
0.732557
0.137271
0.0624106
0.132691
-0.466915
-0.180192
-0.448094
-0.494355
-0.786758
-0.0517705
-0.630216
-0.0567506
-0.236732
-0.123491
0.742277
-0.573856
-0.0830708
-0.396314
0.794118
0.615336
0.306853
0.167772
-0.557296
-0.780418
-0.613876
0.343253
0.00863009
-0.101611
0.485375
-0.857019
0.816618
0.544955
0.280253
-0.120991
-0.322373
-0.859639
-0.97414
0.229532
-0.353994
-0.760898
-0.495215
0.342833
0.509415
0.595096
-0.453615
0.251673
-0.97876
0.790358
0.855359
-0.857619
0.405674
0.162192
0.310173
0.848378
0.708817
-0.97668
0.518675
-0.282573
-0.0782908
0.331073
0.187452
-0.261693
-0.123971
-0.205252
0.944379
0.553656
-0.0648906
-0.702737
0.110231
0.908179
-0.136591
0.942059
0.578036
-0.627196
0.537155
-0.875599
0.624476
0.885439
0.914759
0.806858
-0.9722
0.320413
0.296073
0.665017
0.495835
0.00489005
0.688337
0.0144901
-0.95066
-0.389954
-0.327413
0.236812
0.675397
0.548615
-0.641416
0.946799
0.429314
0.293693
-0.755958
-0.133431
0.528895
0.434514
-0.191392
0.106931
0.807318
-0.654257
0.231332
0.431794
-0.768838
0.473135
0.565676
-0.413974
0.120571
-0.138251
-0.748977
-0.383614
0.866639
-0.733597
0.95792
0.915979
-0.123551
-0.369494
0.479815
-0.121131
-0.493855
0.838398
0.152712
-0.737517
0.459135
0.723797
0.129051
-0.0119901
0.158292
0.937679
-0.905079
-0.0343903
-0.389554
0.653317
-0.275573
0.168672
0.126431
-0.709917
-0.918279
-0.753018
0.478875
-0.667257
0.190432
0.345493
-0.400854
0.148331
0.588516
0.802638
-0.894139
0.395354
0.00855009
-0.0609306
0.560796
-0.511715
0.528595
0.0199102
-0.787938
-0.342353
-0.665057
0.370374
-0.0776508
-0.570116
-0.336993
0.859839
-0.589776
0.714477
0.0284903
0.536655
-0.99546
0.437254
-0.889339
0.483435
0.770018
0.301093
0.155952
-0.303813
-0.223532
0.0714907
-0.174132
0.209372
-0.533155
-0.838558
-0.524535
-0.645336
-0.350274
-0.99594
0.374574
-0.138211
-0.338293
-0.96346
-0.440814
0.911099
-0.533575
0.222192
0.770918
0.203692
0.263693
0.126451
-0.259673
0.268253
-0.436314
0.178052
0.0787108
-0.339273
-0.193832
-0.438314
0.356934
0.582636
0.96024
-0.490175
0.119051
-0.245892
-0.328733
0.594516
0.108771
0.648036
0.925619
-0.189632
-0.490195
-0.0856509
-0.153092
0.396054
-0.174572
0.640396
-0.0547305
-0.0766108
-0.155932
-0.791038
-0.95018
0.911459
0.804258
-0.386494
0.0894909
-0.117051
0.274253
0.895659
0.771678
-0.0417904
0.805338
0.731897
0.795078
-0.0756308
-0.186972
-0.533675
-0.154092
0.921799
-0.558616
0.098571
-0.267853
-0.0488105
-0.9871
0.579076
-0.325733
-0.161652
0.546495
0.619556
0.761738
-0.609456
0.828518
-0.861419
-0.370974
0.632756
-0.247912
0.718517
-0.157272
-0.646636
0.941219
-0.0585706
0.638616
0.746537
0.000370004
0.433674
-0.00207002
0.813398
-0.772978
-0.829138
0.735197
-0.331593
0.269433
-0.205632
0.946659
0.609396
-0.299533
-0.379094
-0.225232
-0.753058
-0.432514
-0.136471
-0.0354504
-0.604016
0.00211002
0.593576
-0.644236
-0.918779
0.639136
0.525535
-0.238352
0.580336
-0.533035
-0.599756
0.653897
0.467335
-0.839038
-0.0211502
0.280713
-0.284973
0.149711
0.342933
0.383454
-0.253813
-0.862699
0.657137
-0.644436
-0.162232
-0.721977
0.130331
0.411774
0.172572
0.99386
-0.623696
0.568556
-0.00405004
0.96988
-0.748637
0.404214
0.608996
0.776898
-0.834158
0.516355
-0.756158
-0.433894
0.170232
-0.9618
0.0541105
-0.850939
0.645976
0.769138
0.625836
-0.0111101
0.479615
-0.627996
0.453235
0.136731
-0.272433
-0.381954
0.741817
0.857899
-0.9702
-0.0856309
-0.821238
-0.593896
-0.190052
0.174712
-0.296993
0.0613106
-0.421094
-0.687997
-0.161792
0.0718107
0.828358
0.409094
0.637916
0.325633
0.774358
0.0190502
0.474695
0.420314
-0.211832
0.427554
-0.263773
-0.732217
0.799558
-0.483495
0.404514
-0.472895
0.134551
0.473355
-0.287973
0.491395
-0.612296
0.217832
0.897499
0.197672
-0.280433
-0.399514
-0.413994
0.298493
0.239532
0.424214
-0.302673
0.394934
0.160352
-0.337733
0.0475905
0.261733
0.681317
-0.150692
0.00907009
-0.530535
-0.723137
-0.927679
0.0642906
-0.923599
-0.411174
-0.531195
-0.0694307
-0.949599
-0.730817
0.96964
0.541795
-0.343093
0.187472
0.766318
-0.818398
0.907039
-0.633196
-0.232392
0.532555
0.933379
-0.481135
-0.770138
0.655337
0.679217
-0.107871
-0.297093
0.267973
-0.426574
0.552236
-0.722977
0.369954
0.829098
-0.650657
-0.565776
0.905499
0.265233
0.230072
0.163092
0.315633
0.499275
0.132731
-0.142571
-0.516795
-0.679817
-0.0492305
-0.335193
-0.772798
0.644616
0.432414
-0.913199
0.577996
0.95128
-0.683337
0.560356
0.95752
0.208812
-0.736737
0.552516
-0.890739
-0.857479
0.829538
0.806258
0.97162
-0.821118
-0.759518
-0.795878
0.771158
0.797598
0.367234
0.0867709
0.623896
-0.173012
-0.728777
-0.892919
0.147171
0.222012
-0.228112
0.701417
-0.133391
-0.468655
0.788218
-0.228372
-0.190352
-0.568076
-0.668017
0.0942109
0.96778
-0.0777108
-0.353294
-0.922979
0.0648106
-0.196712
-0.789678
0.0364104
0.309213
-0.549195
0.567576
0.0803508
-0.424574
0.261833
-0.832898
-0.800678
-0.911199
-0.234612
-0.693597
0.563016
-0.685577
0.405354
0.591476
0.181032
-0.736277
0.706717
0.95268
0.0733707
-0.861379
-0.388314
-0.505395
-0.893619
0.533975
0.141331
-0.489535
-0.401234
0.944619
-0.279213
0.96222
0.580856
0.498635
0.856819
-0.338813
-0.925959
0.118651
0.155332
-0.399594
0.534495
0.920719
0.233872
0.424554
-0.764878
-0.0337503
0.0160102
0.743217
0.229972
-0.277293
-0.9771
-0.369634
0.188392
-0.365414
0.124991
0.621816
-0.504415
-0.406654
-0.867739
0.0943509
-0.135011
0.180092
0.383594
-0.554176
0.00575006
0.240392
0.434054
0.406854
-0.313933
-0.410634
-0.99276
-0.452395
-0.489915
0.568156
0.97216
0.0722507
-0.465615
0.315193
-0.184552
0.764358
-0.635076
-0.161652
-0.278233
0.553316
0.799978
-0.826218
0.502175
-0.704457
0.0941709
0.634436
0.716937
0.95916
0.141571
0.427554
-0.267993
-0.852699
-0.00501005
-0.833958
0.881199
0.681057
-0.244592
0.888459
-0.444314
0.592536
0.456595
-0.472175
-0.335213
-0.681977
-0.829958
0.807278
-0.590596
-0.465015
-0.354374
0.131171
-0.584676
-0.554416
0.304953
0.917499
0.0681907
-0.273853
0.878979
-0.214892
-0.314713
0.347573
-0.787338
0.744337
0.821918
0.207652
-0.762598
0.703117
0.215732
0.319873
0.591556
0.771438
-0.0876109
0.375174
-0.373714
0.904219
-0.97978
0.123391
0.711497
-0.570356
0.658377
-0.315853
0.560816
-0.599276
0.456775
0.192812
-0.354734
-0.475055
0.918959
-0.475775
0.637116
-0.0687107
-0.801178
-0.823198
0.00265003
-0.97928
0.711497
0.567116
0.723837
-0.0727907
-0.113031
0.642416
0.0256703
-0.873619
0.344633
0.97902
-0.642356
0.364854
0.102391
-0.603836
0.794498
0.0877909
0.0803108
0.682357
0.488515
-0.135891
-0.124851
-0.539195
0.389074
0.121131
0.312073
0.353214
-0.620556
0.510895
0.530015
0.709157
0.531635
0.241492
0.276253
0.582496
-0.504275
-0.836798
0.224912
0.848458
-0.383374
-0.430474
0.827458
-0.0257303
0.934379
-0.0701707
0.370434
0.728877
-0.655357
-0.549275
0.738257
0.833158
0.314853
-0.0595706
-0.378994
0.0309503
-0.938459
0.933079
-0.288813
-0.231952
0.443974
-0.431774
-0.522815
0.302633
-0.863259
0.753438
-0.114891
-0.367534
-0.756338
-0.889999
-0.519095
-0.139711
0.00657007
-0.364614
0.834578
0.267993
0.565216
0.204992
0.323893
0.909859
0.98278
0.0621306
-0.929959
0.624656
-0.99746
0.0180902
-0.0173702
-0.608876
-0.0488505
0.693817
0.159172
-0.277853
-0.737977
0.9634
-0.97524
-0.601236
0.716817
0.236932
0.358274
0.96048
0.346933
-0.833778
-0.179232
-0.319453
-0.198392
-0.0176302
0.948539
-0.306133
-0.485615
0.272413
-0.0692507
-0.502855
-0.665477
0.327833
-0.551176
-0.662937
-0.654097
0.758498
0.0552306
0.297073
0.779338
-0.785598
-0.9808
-0.95866
-0.822218
-0.628976
-0.232852
-0.778358
0.607956
-0.547535
-0.490855
0.281913
-0.0542705
0.656957
0.96246
0.747337
-0.360694
-0.761998
-0.231772
0.153712
0.510415
0.698997
0.9779
-0.828038
0.0268103
-0.246232
-0.163932
0.699777
-0.487755
0.891319
-0.00317003
-0.708417
-0.567256
0.343073
-0.340033
-0.0624306
-0.95888
0.754178
0.159212
0.649076
-0.466335
0.99542
-0.0690107
0.479395
0.652357
0.220472
0.226712
-0.708337
0.458495
0.99496
0.772418
0.295933
-0.97904
-0.922679
0.467915
0.374814
0.158132
-0.368994
0.0745707
0.670397
-0.477695
-0.928619
-0.710997
0.282093
0.741517
-0.0510305
-0.780338
0.782638
0.0301703
0.705917
0.758758
0.563836
0.701317
-0.310273
0.370254
0.353674
-0.762778
-0.403034
0.97238
-0.97726
-0.0810508
-0.928199
0.318693
0.266953
-0.850879
0.113631
-0.358254
0.307273
-0.928339
0.716337
0.304693
-0.406014
-0.885259
0.593696
-0.796898
0.856259
-0.130311
-0.577236
0.96594
-0.773098
-0.544275
0.724677
-0.882239
-0.842978
-0.258573
0.488035
0.837738
-0.0213502
-0.915019
0.810098
0.328453
0.330973
-0.791078
-0.0258303
-0.402094
-0.314893
-0.912219
0.566696
0.99238
-0.513515
0.283013
0.624096
0.407514
0.397774
0.544815
0.610636
0.581056
-0.258473
-0.96662
0.874019
-0.0315703
-0.510895
0.925719
0.0862109
-0.0268103
-0.332873
-0.425774
-0.189092
0.97284
-0.0137501
-0.0519505
0.301273
-0.355754
0.156972
-0.724577
0.569196
0.842078
-0.309753
0.135871
-0.838538
0.176732
-0.581116
0.785558
-0.415754
-0.856319
0.657397
-0.478095
-0.948239
-0.601076
-0.117671
0.925799
0.367354
0.698497
-0.821478
-0.219412
-0.328333
-0.154332
0.354814
0.809618
0.145531
-0.331913
-0.242352
-0.553216
0.312333
-0.758338
0.0492505
-0.118491
-0.916279
-0.933479
-0.655577
-0.427754
0.570296
0.0903509
-0.315173
-0.518435
0.561076
-0.657777
0.00347003
0.612836
-0.258853
0.885819
0.865659
-0.564476
0.584296
-0.95582
0.216132
-0.417014
0.216892
-0.429074
-0.607416
-0.637596
0.566076
0.477295
0.136231
-0.121611
0.718957
-0.487495
-0.913059
-0.870299
-0.420974
-0.241592
-0.298053
-0.850699
0.848758
0.386794
-0.0420704
0.409814
0.729017
0.9614
0.349673
-0.202812
-0.825778
0.215332
0.232712
-0.914459
0.586556
-0.551176
-0.331473
-0.196572
0.346813
0.388174
0.492875
-0.0871309
-0.134551
-0.370914
-0.881719
-0.415614
0.141591
-0.794778
-0.285913
-0.95236
-0.0363704
0.416054
-0.476015
0.139411
0.129871
0.481915
-0.450795
-0.141131
0.443314
0.898899
0.656057
0.944579
0.441254
0.215792
-0.96988
0.0277903
0.664637
0.0256903
-0.841758
0.0114301
-0.586156
0.651117
0.924299
0.279293
-0.392774
-0.630396
0.863679
-0.924159
-0.425154
-0.095191
-0.876519
0.865519
-0.679157
-0.352534
0.00493005
0.777758
-0.870619
0.881179
-0.363394
0.899739
0.780058
-0.380314
-0.828678
0.221292
0.835478
-0.798558
-0.423894
0.827138
0.227152
0.0613906
-0.161452
0.640996
0.0395304
0.0898709
-0.0797108
0.646756
0.459495
0.110991
-0.95038
-0.638636
-0.98422
-0.826898
-0.446094
-0.336333
0.147631
0.558836
-0.558596
0.604056
0.767058
0.405054
0.830818
0.547095
-0.648236
-0.99788
0.095431
-0.485715
-0.469375
0.99858
-0.658597
0.757778
0.0599706
0.507015
0.725797
-0.900519
-0.0760908
-0.0268903
-0.926719
-0.289573
-0.915899
-0.877099
0.398834
-0.573076
-0.376934
0.95276
0.417654
-0.902279
0.838618
-0.813918
0.701777
0.605656
0.918199
0.532575
0.479795
-0.403014
0.861739
-0.424794
0.111271
-0.607656
-0.099191
0.779738
-0.849898
0.96078
0.613776
-0.797058
-0.612696
-0.135291
0.176052
-0.212372
0.575156
0.587196
-0.0894709
0.301013
-0.658837
0.860639
0.253753
0.758818
0.95836
0.419414
-0.728077
0.98716
0.0250503
-0.809898
0.519715
-0.168132
-0.212892
0.381454
0.734117
-0.774598
-0.899179
-0.365074
-0.667837
-0.749057
-0.404314
0.945939
-0.219072
0.310033
-0.189352
0.95698
-0.902359
-0.287173
0.871219
0.335233
-0.98618
-0.787638
0.195852
0.594636
-0.701797
0.481255
0.0140301
-0.429874
0.468395
-0.633896
0.0872909
0.315153
0.197992
-0.798578
0.0236302
-0.0679107
-0.246132
0.124451
0.567016
0.0860509
0.702437
-0.510255
0.359014
-0.516655
0.799778
-0.503315
-0.232632
-0.775538
0.536555
-0.361434
0.559696
0.550396
0.177972
-0.244472
0.472055
0.476175
-0.763238
-0.513935
-0.626676
-0.9678
0.179212
0.787658
0.347353
-0.295773
0.98908
-0.629036
0.96338
-0.257053
0.822458
0.857419
-0.843978
0.524895
-0.652857
0.515035
-0.664737
-0.526035
-0.98828
0.102631
-0.301573
0.548275
0.741197
-0.741897
0.425694
0.246192
0.340673
-0.102271
-0.277653
0.904499
0.710837
0.422734
0.936699
0.217092
0.210372
0.611076
0.921319
0.526495
-0.690937
0.884679
-0.403534
-0.868499
0.742097
-0.247512
0.98344
-0.583736
-0.405454
-0.681297
0.217272
-0.0666907
0.421334
-0.757278
-0.191372
0.489575
-0.172132
-0.765698
-0.264253
-0.831458
0.459095
0.785158
-0.599936
0.496955
0.207872
-0.336213
0.0410704
-0.254733
-0.725157
-0.0376104
-0.728257
-0.0890509
0.174092
-0.131791
0.0424504
0.243212
0.947739
0.0258903
0.98654
-0.457715
0.671637
0.530835
0.475595
0.0929509
0.773578
-0.715797
-0.0904509
-0.398574
-0.154432
0.645316
0.097011
-0.368314
0.430454
0.824118
-0.871379
-0.0346503
-0.512115
0.496755
0.710617
0.0897709
-0.213832
0.98238
-0.9993
0.96026
0.177612
0.370214
0.530515
0.125351
-0.276873
0.517035
0.667637
-0.605256
0.374894
0.143211
0.814738
0.148451
0.754478
-0.275713
-0.923079
-0.399974
-0.630416
0.500975
0.231712
-0.872939
0.325093
0.687377
0.0924109
-0.859999
0.184112
-0.196992
0.229792
0.97028
-0.214632
0.557536
-0.742437
0.963
-0.0722707
-0.884899
0.415374
0.650857
0.95918
0.0829908
-0.95442
0.334053
-0.446774
0.860339
-0.517495
-0.692317
-0.415394
-0.113531
0.234752
0.281233
-0.612576
-0.206512
0.408294
-0.96046
-0.519135
-0.172272
-0.493395
0.99202
0.630736
-0.936579
-0.710677
-0.256853
0.620956
-0.126071
0.0331703
-0.451315
-0.0109701
-0.551476
-0.800478
-0.0518105
0.858559
-0.754878
-0.717777
-0.588236
-0.567516
0.0917709
0.0465105
0.344133
