-0.133531
-0.0442904
-0.361354
0.174352
0.225792
-0.269533
-0.542195
0.922379
-0.108411
0.730757
-0.98876
-0.915859
-0.166692
0.426234
0.102011
-0.405814
0.404994
0.257173
-0.850859
0.196392
0.627416
-0.546815
0.611776
0.304973
0.655337
-0.592436
0.512995
-0.841018
0.0590506
0.294733
-0.0814708
0.925519
-0.422534
0.557196
0.426894
-0.869719
-0.385314
0.884699
-0.620316
0.833318
0.615436
-0.609076
0.917459
-0.224232
0.817158
0.346493
0.696997
0.549175
-0.396354
-0.826838
-0.254453
-0.768938
-0.373654
-0.642676
0.863079
-0.718317
0.0919309
0.703097
-0.232292
-0.849038
0.324853
0.686257
-0.923539
0.902319
0.570476
0.830398
-0.640356
-0.814858
0.715077
-0.260673
-0.654497
0.657557
0.130271
-0.410014
-0.239652
0.274453
0.936499
-0.542655
-0.176372
-0.132831
-0.369494
0.569176
0.425274
0.256873
-0.746477
0.288353
0.538555
0.345453
0.318473
-0.693757
0.496415
-0.356674
0.9925
0.899919
-0.127331
0.562956
0.730297
0.232312
-0.924859
0.445374
-0.701317
-0.579356
0.429954
0.428954
0.0106301
-0.809718
0.0304303
0.274153
-0.352374
0.854059
-0.858679
0.278153
0.750278
0.566596
-0.137951
-0.99622
0.181972
-0.599416
0.349253
-0.499555
-0.293173
0.172692
0.470815
0.0263703
0.0726107
-0.656537
-0.0836508
-0.197112
0.575796
-0.00851009
-0.424714
-0.798498
0.739177
-0.99478
0.630456
0.0768508
-0.477435
-0.339133
-0.649016
0.497235
-0.158032
-0.180652
-0.224632
-0.407774
-0.287013
0.637416
-0.403994
0.894959
-0.634976
-0.727717
-0.277573
0.398914
0.444994
-0.806778
-0.574736
-0.482415
-0.463295
0.341613
0.647516
-0.560476
-0.339853
-0.777198
-0.358974
-0.600696
-0.444934
-0.401494
0.803198
0.0776308
0.586416
-0.845818
-0.425134
-0.571636
0.300573
0.677277
0.347633
-0.98646
0.641736
0.943659
-0.764458
-0.666217
-0.457035
-0.0420304
0.732697
0.98796
0.478255
-0.842058
-0.167432
-0.658017
0.826618
-0.519915
0.108551
-0.513255
0.0299303
-0.923399
0.213092
0.584996
-0.324893
0.0162902
-0.0103301
-0.411454
0.497515
0.891579
0.0169302
-0.201932
0.895879
-0.635456
0.138671
0.864639
-0.364774
0.374214
-0.801578
0.505255
-0.340793
0.931119
0.820238
-0.535515
-0.583896
-0.347193
-0.193532
-0.430254
0.459935
-0.757958
0.383534
-0.510155
-0.681357
-0.403394
-0.598136
0.320793
0.939939
0.718577
0.909359
0.437434
0.937179
0.253313
-0.437454
-0.839918
0.944899
0.701217
-0.9753
-0.419874
0.402454
-0.449834
-0.587596
-0.938359
-0.191672
-0.767378
-0.473855
0.224432
-0.114571
0.659657
-0.878799
-0.327613
0.901719
0.504735
0.162232
-0.452615
-0.898679
0.891159
0.868199
-0.95874
0.936759
0.777538
0.805738
0.873939
0.357874
-0.631736
-0.966
0.302753
-0.603496
-0.614256
-0.790098
0.798958
-0.0640706
-0.377694
0.860619
0.744257
-0.145051
-0.286213
0.295713
-0.932599
-0.299533
0.416914
-0.260193
-0.397834
-0.0783708
-0.770938
0.149571
0.349993
-0.552756
0.344793
0.718297
-0.615996
0.449354
0.524035
-0.742077
-0.192792
-0.780678
-0.381034
-0.890059
-0.384154
0.331753
-0.680137
-0.585216
-0.732337
-0.0578306
-0.724617
-0.661057
-0.875859
0.316213
0.9617
-0.808438
-0.98332
0.378594
0.258413
-0.0541105
-0.372754
0.487475
-0.577516
-0.695717
0.934739
0.767278
-0.97744
-0.354234
0.216612
0.546595
0.230732
-0.649156
0.765938
-0.823278
-0.539195
-0.291193
0.508475
-0.219332
0.123591
0.776158
-0.95014
0.726037
-0.557876
-0.825978
0.0422304
-0.596176
-0.634416
0.385954
-0.890559
0.95104
-0.668157
0.0637506
0.438494
-0.245672
0.368034
0.700257
-0.151352
0.390594
-0.326953
-0.607716
0.264233
0.903779
-0.256853
0.357194
-0.919519
0.530995
-0.934019
0.588976
-0.688357
0.189572
0.692157
-0.311453
0.242632
-0.538695
-0.137431
-0.715137
-0.134871
0.555196
0.99786
0.301633
0.506215
-0.670317
-0.634636
0.271753
0.411074
-0.939579
0.299033
-0.413254
0.451015
0.9721
-0.0209702
0.0422704
0.875859
-0.9508
-0.600556
-0.716617
0.580196
-0.534575
0.872359
-0.781138
0.98206
0.891539
-0.0925709
0.224672
-0.647176
-0.902979
0.836578
0.545015
0.652237
0.834438
-0.153372
0.485475
-0.508855
0.539035
-0.242792
-0.770758
0.926499
-0.943759
-0.184012
0.377494
-0.97168
-0.877939
-0.253193
-0.768798
-0.828738
0.146251
-0.485415
0.751478
0.938739
-0.286033
-0.702637
-0.752198
-0.394514
0.204792
0.472475
0.285373
0.301833
0.636096
-0.169632
0.281093
0.470515
-0.99598
-0.233452
-0.711317
0.543055
0.850819
-0.482055
0.469535
-0.765918
0.333933
0.174052
-0.737597
0.455995
-0.752118
-0.179352
0.95432
0.394154
0.662297
-0.9672
0.659917
-0.623756
-0.669837
0.907719
0.308793
0.862019
0.707217
-0.405854
0.490875
0.670337
0.424514
-0.228052
0.467875
0.428534
0.865539
0.756578
0.298613
0.716337
-0.725497
0.095171
0.95042
0.935479
-0.403754
-0.460155
0.718517
-0.155852
0.687557
0.672817
-0.434674
0.349833
0.705617
-0.774778
0.726077
-0.96424
-0.540035
0.0348503
-0.775198
-0.505795
0.628996
0.715677
-0.835458
0.380534
-0.512395
0.632416
0.136091
-0.319813
0.388974
-0.565316
-0.603496
0.99052
0.529855
-0.326033
-0.746977
-0.546855
0.540855
0.97154
0.297293
0.228392
0.97138
-0.810358
-0.421794
0.676977
-0.258093
-0.368674
-0.96024
0.201872
0.666177
-0.735417
-0.9769
0.622216
0.98026
-0.812358
0.329773
-0.205092
-0.852899
-0.534135
0.475095
0.863119
-0.099451
-0.801378
0.853639
-0.242552
0.199632
-0.566316
0.537635
-0.259513
-0.594796
-0.165092
-0.704097
-0.623436
0.351594
-0.125871
-0.619436
-0.906519
0.832498
-0.579676
0.622396
0.825698
0.0119501
0.645496
0.774938
0.319253
-0.839818
0.104711
-0.885859
-0.692717
0.570576
0.589236
-0.829618
-0.201852
-0.885119
-0.648956
0.555596
0.314533
-0.215272
0.0932109
-0.944999
0.189932
-0.744857
-0.649096
0.893539
0.606736
0.552076
-0.398874
0.700217
0.384554
0.348513
0.322593
0.537295
-0.639556
0.295133
0.312213
0.679697
0.455315
-0.583096
0.793838
0.762598
0.98748
0.710097
-0.739997
-0.214372
0.824998
-0.388934
-0.331753
0.139511
0.395794
-0.911499
0.521555
-0.0872309
-0.656357
-0.800518
0.133331
-0.722577
0.751578
0.734477
0.97764
0.463155
0.0829708
0.627276
0.000430004
0.770458
-0.0776108
-0.687357
0.450155
-0.295273
0.0565906
0.571016
-0.205652
0.0440704
0.608156
0.0543505
-0.843278
0.433134
0.665417
-0.175032
-0.100331
0.388254
-0.0865309
-0.251753
-0.371954
0.584176
-0.0522705
-0.911599
0.861599
0.0263303
0.822878
-0.833758
-0.183472
0.232872
-0.879459
-0.856019
0.00333003
0.369974
-0.216332
-0.219492
-0.925319
0.840278
-0.648496
-0.130971
-0.115671
-0.713317
0.923399
0.0410504
0.719817
0.915839
-0.806958
-0.0534905
0.631116
0.106531
-0.97822
-0.413814
0.0177302
-0.0304703
-0.325393
-0.120691
-0.677117
-0.175492
0.0455505
0.466455
-0.942619
0.166112
0.610456
0.387754
-0.463935
-0.605896
-0.504715
-0.0621906
-0.765638
0.173832
0.806838
0.118691
0.460535
-0.942759
-0.513235
0.507375
-0.699877
0.00687007
-0.546115
-0.741737
-0.559576
-0.197292
-0.155532
0.458155
0.772238
0.846118
-0.662557
-0.577836
-0.329393
0.710037
0.888619
0.0550306
0.203172
0.499055
-0.230192
-0.933719
-0.779798
0.265093
0.331133
-0.545435
-0.561076
0.464995
0.900319
0.899459
0.522255
-0.285893
0.406814
-0.850599
0.720977
-0.812278
-0.265293
-0.838618
-0.0095501
0.579176
0.619536
0.0897109
0.752318
-0.715997
0.511875
-0.577076
-0.678917
0.727537
0.804998
0.851299
0.553616
-0.425194
0.917579
0.773818
-0.833078
0.575736
-0.444574
-0.394154
0.0407304
-0.544275
-0.494715
-0.437034
0.169832
-0.760858
0.0394104
0.217852
-0.573136
0.774118
0.379234
0.744357
0.680337
-0.00123001
-0.165932
0.432634
0.609816
-0.327033
-0.817418
0.930899
-0.599516
0.9876
0.782198
-0.718857
-0.110571
-0.97322
-0.618016
0.0563506
0.602536
-0.0625906
0.662217
-0.356754
0.393134
-0.505475
0.533255
-0.109991
0.0607106
-0.100311
-0.892159
0.487595
0.000830008
0.487075
0.558976
-0.318853
-0.187132
-0.606976
-0.559176
-0.250273
0.393054
-0.376594
0.00765008
-0.879439
-0.389014
0.116871
-0.598296
0.827458
0.143671
-0.216292
-0.116191
0.0732307
0.721117
-0.453995
-0.9565
0.441294
0.367574
0.903799
-0.668717
-0.571716
-0.196532
-0.233832
-0.757098
0.804298
-0.419734
0.801878
-0.187512
0.720197
-0.478055
0.253313
-0.530095
0.914999
-0.796258
0.477555
-0.96446
-0.185252
-0.405574
-0.235692
-0.0307703
-0.934879
0.548015
0.853039
0.138351
0.596156
-0.273933
0.508895
0.0374304
-0.906359
0.412674
0.695757
-0.151032
-0.456835
-0.538095
0.0918709
-0.325513
0.369234
0.220772
0.486975
0.0894109
-0.930259
0.0673107
0.559316
0.98474
0.271073
0.0368504
-0.652677
-0.587156
0.95832
0.111631
0.382074
-0.97658
-0.0133301
0.235112
0.488815
-0.417194
0.96118
-0.00231002
0.947299
-0.618156
-0.262613
0.97008
0.230812
0.280553
-0.240972
-0.350294
0.95506
-0.871759
-0.802478
0.769058
0.217652
-0.732737
-0.163632
0.103991
-0.747997
-0.892579
-0.859179
-0.0736307
-0.479735
-0.573816
-0.96202
0.902339
-0.550396
0.351694
0.137431
-0.734537
-0.738477
0.425654
0.590196
-0.791198
0.807498
-0.672417
-0.494075
0.365354
0.935179
0.264953
-0.657917
0.890219
0.393194
-0.460395
0.659277
-0.0621306
-0.193112
-0.177332
-0.95816
0.385934
-0.0699107
-0.490295
-0.360674
0.450355
-0.0641106
-0.322693
0.679717
0.712557
-0.643976
0.144191
-0.694957
-0.382454
-0.103131
0.895239
0.153412
-0.295653
-0.777198
0.659337
-0.603276
-0.842018
0.251313
-0.261173
-0.624776
-0.0284703
0.605476
-0.638476
0.909399
-0.260613
0.184192
-0.721737
-0.547655
-0.885739
-0.212032
0.0916709
0.891659
-0.949099
-0.903999
0.898419
-0.909519
-0.547975
0.0425904
-0.604476
0.0695907
0.939459
-0.709257
-0.449974
-0.0291703
-0.159392
-0.463615
0.694617
0.325633
0.787698
-0.239532
0.700857
-0.240792
-0.634076
-0.937619
-0.00437004
0.432374
0.573616
0.273893
0.884719
-0.98508
-0.611116
-0.0236102
-0.766398
-0.560216
0.0723907
-0.867999
-0.142691
0.851479
0.501635
0.252833
0.248092
0.768118
0.870639
0.798118
-0.261053
-0.288773
-0.665517
-0.239412
-0.96316
-0.877839
0.521055
0.737697
0.208412
-0.785998
-0.872899
-0.795978
0.646376
-0.97224
0.477915
0.858139
-0.95732
0.866799
-0.165492
-0.723717
-0.366374
-0.766078
-0.591696
0.490935
-0.914619
-0.763038
-0.256233
0.333473
-0.99492
-0.385614
0.458615
-0.255973
0.652657
0.793098
0.831658
0.689497
-0.757718
0.352694
0.754218
0.450695
0.893739
-0.791638
0.654717
0.540115
-0.763878
0.459655
0.398234
-0.721197
0.653497
-0.440234
-0.444914
-0.712897
-0.206312
0.290433
-0.894939
0.206132
0.527415
0.175872
-0.460415
0.532495
-0.882719
0.99822
-0.396454
0.769938
-0.881679
-0.564816
0.786458
-0.639376
-0.885099
0.867719
-0.861659
-0.99138
-0.923939
0.793078
0.875779
-0.687817
0.579756
0.601036
-0.0819708
0.233232
-0.512175
0.800158
0.847378
0.281533
0.417634
-0.720517
-0.512355
-0.0549705
0.455355
0.354274
-0.195452
0.899699
0.679517
0.735137
0.99666
0.797858
-0.502655
0.783118
-0.841538
-0.387754
0.97786
-0.376154
-0.0520905
-0.946099
-0.256053
-0.176312
-0.306873
-0.676297
-0.248252
0.938199
0.883979
0.239592
0.738337
-0.941619
-0.478895
0.482995
-0.662137
0.335793
-0.244952
-0.879759
0.0170902
0.559596
-0.653037
-0.303393
0.621756
-0.656377
-0.178512
-0.880919
-0.546235
-0.0200502
-0.268673
-0.568396
0.603796
0.679257
-0.187452
-0.652257
-0.170032
0.832718
-0.00151002
0.581716
0.770898
0.209492
-0.178712
0.836258
0.267873
0.669437
0.319253
0.932779
0.332253
-0.925719
-0.619936
-0.650657
0.96094
-0.272973
0.372994
0.582676
0.397694
-0.805538
-0.9712
0.851459
0.501455
0.0871709
-0.389914
0.432274
-0.233592
0.422634
-0.892959
0.923419
0.582376
0.105531
0.505135
0.353254
-0.684977
-0.346553
0.516555
0.909939
-0.677117
-0.164212
0.842718
0.655137
0.237112
-0.777238
-0.668497
0.525075
-0.0502105
0.704497
0.434794
-0.325473
0.898959
0.463595
-0.474035
0.400394
-0.449254
0.463115
-0.167332
0.644216
-0.114271
-0.0602906
0.567616
-0.531895
-0.627716
0.399774
-0.851619
-0.312693
-0.946779
0.664937
-0.402774
-0.623896
-0.172252
-0.560076
-0.96878
-0.935139
-0.0102701
-0.637256
0.916979
-0.733437
-0.605736
0.351754
-0.0589106
-0.706777
-0.184672
0.794098
0.693617
0.693137
0.257193
-0.146691
0.337333
-0.530035
0.793038
0.231972
0.265113
-0.834698
-0.368254
0.413494
0.179652
-0.315033
0.405474
-0.896099
0.388114
-0.766798
-0.129111
0.746377
-0.374894
0.860619
-0.563856
-0.130871
-0.872839
-0.169572
-0.779138
0.395294
0.123651
0.363254
0.189392
0.144291
0.383414
-0.553436
0.99762
-0.279273
0.243572
-0.882339
-0.720277
-0.491335
-0.389994
0.238512
0.922179
0.789658
0.923479
0.654677
0.893559
0.638616
-0.785098
-0.235572
0.384994
-0.159972
-0.0479105
0.821138
-0.96382
0.406294
-0.348453
-0.742957
-0.198412
-0.897779
0.947339
-0.681997
0.246532
0.330733
0.0916109
0.571176
-0.621516
-0.664817
0.688837
-0.341773
-0.156152
-0.701177
0.896739
0.0930509
-0.584496
-0.852759
-0.252293
-0.363914
0.785858
-0.0373704
0.400534
0.497875
-0.870319
-0.320353
0.319013
-0.834138
-0.914079
-0.702417
-0.250053
0.214552
-0.600176
-0.302713
0.532555
0.9734
-0.972
-0.375834
0.544555
-0.593496
-0.0406504
0.233372
0.391774
0.803198
0.859239
0.288493
0.223292
-0.398234
0.762778
0.971
0.237852
0.875679
0.260653
-0.0345903
0.373534
0.390334
0.645056
-0.307473
0.883239
-0.941979
0.317173
-0.366814
0.272573
0.716997
0.657517
-0.194872
0.690377
0.685517
0.756338
0.234912
-0.580956
-0.284333
-0.204692
0.810818
-0.154112
-0.0184302
0.426354
-0.930839
0.583336
0.189112
-0.632796
0.148211
0.391814
0.627856
-0.886379
-0.234652
0.345233
0.758678
0.784918
0.228452
0.816698
0.102071
-0.811338
0.416314
-0.180952
-0.826798
-0.778578
-0.163552
-0.814238
-0.695217
-0.601616
-0.395194
0.0204502
0.520735
-0.584376
-0.806638
-0.170672
-0.830998
-0.737457
-0.587356
0.358114
-0.0432104
0.560876
-0.250073
-0.415374
-0.99848
0.842318
0.929859
0.760198
0.627216
0.485355
0.903939
0.0563306
-0.99896
0.320233
-0.797598
-0.825738
0.868699
0.0388704
-0.639976
-0.826538
0.764298
0.291873
0.520955
0.285033
-0.96548
-0.95866
-0.885659
-0.796478
-0.369074
-0.145951
0.888699
0.587716
-0.258053
-0.0343503
-0.827658
-0.256533
-0.192052
-0.570776
-0.169312
-0.237812
-0.758398
0.0616506
0.818518
-0.757338
-0.618136
-0.97908
-0.256033
-0.422414
0.386834
0.431034
0.0780908
0.151112
-0.277113
-0.0739307
-0.563876
0.0844708
-0.0325703
-0.122471
0.287993
0.598356
-0.941399
0.176672
0.513115
-0.199452
-0.857699
0.685457
0.544015
-0.0497505
-0.558296
-0.298273
-0.96052
-0.316673
0.763398
0.857999
0.253033
-0.527715
-0.794058
0.997
0.0498905
0.592776
0.755058
-0.544995
0.0709307
-0.195032
0.708137
0.834098
0.889439
-0.324453
-0.288393
0.177432
-0.399074
-0.229792
-0.645916
-0.558936
0.897799
-0.176552
-0.546455
0.768838
-0.899279
-0.104731
-0.529435
-0.859799
0.578596
-0.766058
-0.674757
-0.168392
0.0332703
-0.141771
0.155632
-0.589816
-0.548995
0.237712
-0.134791
0.848978
-0.95734
-0.426674
0.683057
-0.740857
0.575916
-0.278293
0.436574
-0.496135
0.491915
-0.882319
-0.0550506
0.716757
0.268173
0.725537
0.485575
0.368914
-0.379214
0.95614
0.836158
-0.473595
-0.482895
-0.838618
0.685057
0.550396
0.0196302
-0.159332
0.96058
0.797678
-0.594596
0.152812
0.646636
-0.551916
-0.946839
0.656717
-0.292773
0.95612
-0.621596
-0.529175
-0.540015
-0.802638
-0.0844508
0.731977
0.914119
-0.816278
0.784538
0.726717
0.552636
-0.594676
0.682857
0.388774
-0.0682707
-0.473015
0.877219
-0.383214
-0.595596
0.223872
0.784498
-0.307973
0.0215302
-0.810098
0.844838
-0.00481005
-0.0349703
-0.774958
-0.348113
0.9993
-0.818858
0.357354
-0.529895
-0.0318303
0.554716
0.385654
0.0271703
0.795858
0.569376
-0.188292
0.522555
0.449034
0.217032
0.532435
0.164852
-0.524215
-0.940579
0.0420504
0.0925709
-0.209132
-0.407054
0.204112
0.482895
0.941519
0.394014
0.654777
-0.0633106
-0.313933
0.879819
0.915619
-0.314653
-0.612016
0.599996
0.155452
0.356174
0.154692
-0.131871
-0.616676
-0.0494705
-0.235452
0.195032
-0.526915
-0.786438
-0.260913
-0.9945
0.378414
0.214892
-0.608036
-0.252513
-0.365514
0.509895
0.340433
0.838598
-0.00723007
0.281933
0.559636
-0.0254303
-0.454355
-0.754318
0.181412
-0.211692
-0.0689707
0.569416
-0.611716
-0.586496
-0.0744307
0.870039
0.281653
0.635936
-0.179452
-0.95382
0.158012
0.620676
-0.413214
0.897099
0.95324
-0.707757
0.439014
-0.654817
0.366774
-0.599456
-0.817898
-0.292793
-0.760878
0.174892
-0.683837
-0.874199
-0.523515
0.188872
-0.301473
0.657917
0.97718
0.95662
0.554356
-0.307513
-0.629896
-0.193052
-0.437494
0.9788
-0.557136
0.383074
-0.647996
0.600876
0.330773
0.265853
0.825018
0.283993
0.558096
0.591056
0.95624
-0.0751508
0.9916
-0.861679
0.9591
-0.442234
0.640256
-0.397694
-0.316433
-0.883259
0.791178
0.709137
-0.898319
0.768338
0.665737
0.656037
-0.539195
-0.637116
-0.537035
0.0233302
-0.658337
0.232872
-0.266573
0.0207302
0.160792
-0.608776
-0.713437
-0.0142101
0.675237
-0.828318
-0.423174
0.9585
0.423574
-0.104531
-0.576156
0.709717
0.453235
-0.935899
-0.687997
-0.863219
-0.492115
-0.896839
-0.827058
-0.0633906
0.871499
0.838698
-0.0803308
-0.340673
-0.798438
0.709677
-0.99032
-0.129731
-0.0574706
0.0701507
-0.781978
-0.896699
0.461395
-0.168372
0.416134
0.463655
0.330353
-0.679997
0.422134
-0.246072
0.215472
-0.826998
-0.536375
-0.331313
-0.762898
-0.224372
0.132511
0.0720307
0.205832
0.305453
-0.99138
0.404354
0.144131
-0.0717107
-0.936339
0.672737
-0.362054
-0.599596
-0.129951
0.907539
0.470555
0.0880709
-0.98918
0.258973
-0.753258
0.754018
-0.277393
0.577096
-0.925999
-0.528235
-0.668997
0.289473
-0.355214
0.121671
-0.714817
0.208932
-0.775678
0.417694
-0.391994
0.430154
0.0501705
-0.0563306
-0.165512
-0.478655
-0.800998
0.225212
-0.478895
-0.163052
0.625616
0.391154
0.0715107
0.423194
-0.193732
0.409394
-0.317833
0.0530105
0.163392
0.731817
-0.369914
0.237392
-0.469375
0.288153
-0.146111
0.502455
-0.263153
0.466115
0.0384104
-0.0388104
0.210832
0.646416
-0.281633
-0.739017
-0.409914
0.552876
0.109371
-0.210912
0.105111
0.630496
0.95308
-0.269293
0.0216302
0.0245902
-0.519075
0.827898
-0.238992
0.490135
0.207932
0.924399
0.221952
0.838038
0.488815
-0.920399
0.453215
-0.330273
0.582056
-0.809958
-0.864179
-0.379554
0.478275
0.346653
-0.406094
-0.803358
0.934679
0.511035
-0.923459
0.0440504
-0.699897
0.508695
-0.325473
-0.419794
-0.433574
0.696157
0.931839
0.0473505
0.851099
-0.307173
-0.462515
0.0590106
-0.382794
-0.913539
0.224072
-0.566956
-0.833938
-0.322733
0.102771
-0.924859
0.194372
0.238592
0.0226302
-0.000330003
-0.0877309
0.616536
0.196312
-0.153052
0.127551
0.599896
-0.781978
0.754698
0.108571
-0.107451
-0.338053
0.674997
-0.0842708
-0.406234
0.0493905
0.0938509
0.613656
0.586876
-0.520095
-0.769158
-0.99964
0.703977
-0.336093
-0.833578
-0.291713
-0.906299
-0.758438
-0.770318
0.332313
0.591236
0.229352
-0.428394
0.207772
-0.247292
0.745597
-0.337653
-0.647416
0.96362
-0.255913
0.788218
0.183192
0.406034
0.790238
-0.901079
-0.673177
-0.160392
0.519815
0.940479
-0.246492
0.99972
-0.501635
-0.246132
0.703697
0.489315
0.247332
-0.260993
0.583016
0.815938
-0.0313103
0.242352
0.407174
-0.801978
0.813978
-0.385074
-0.0492705
0.886599
0.604316
0.630376
0.850219
-0.324573
0.418574
0.0333903
-0.591516
0.535835
0.459355
-0.264673
-0.297513
-0.0208302
0.00283003
0.783038
-0.0211302
0.501195
-0.463095
0.0095901
0.317533
-0.888739
0.748597
-0.099451
0.927219
-0.282733
-0.530075
0.334373
0.242352
-0.389074
-0.723677
-0.806938
-0.502475
-0.792338
0.823438
-0.652277
-0.116891
0.569036
0.708157
0.291593
0.104871
0.494555
-0.646056
-0.865619
-0.199252
0.683837
0.917419
-0.893359
0.512055
-0.545695
0.116251
-0.170412
-0.107371
0.191872
-0.942839
-0.180172
-0.763818
-0.472915
-0.845818
0.478535
0.138031
-0.242452
0.671597
0.635556
-0.0347903
0.822078
-0.689697
-0.824658
0.391094
-0.654517
0.793998
-0.177012
0.840038
-0.525035
-0.0426304
-0.0321903
-0.841218
-0.125211
0.0744707
0.670857
0.656137
-0.482255
-0.172532
-0.451255
0.709617
-0.115371
0.695617
0.945799
0.411714
-0.823178
0.424314
-0.123231
-0.0656307
0.422954
-0.160652
0.899599
0.245012
0.476695
-0.598036
-0.0368704
0.822198
-0.804058
0.786138
0.98926
-0.329073
-0.256513
-0.0429304
-0.170292
0.945319
-0.96848
-0.172412
0.928499
-0.450735
0.655057
-0.522775
-0.414094
-0.460335
-0.500115
-0.468295
-0.721577
-0.323293
-0.716957
0.155192
0.611096
-0.96698
0.99456
0.837718
0.605076
0.471235
-0.760338
-0.431794
0.620456
-0.564376
-0.645676
0.609716
0.433594
0.424854
-0.106191
-0.409674
0.370174
-0.0746707
0.417934
0.625696
0.801638
0.400014
-0.570056
-0.612476
0.939699
-0.0701707
0.246272
-0.454855
0.606556
0.856379
0.700337
0.217632
0.889399
-0.9781
0.382374
0.494475
0.820198
0.622036
-0.937339
0.767678
-0.615316
-0.255973
0.377374
-0.854699
-0.831138
-0.401794
-0.264353
0.866079
0.850579
-0.846438
0.818798
0.652197
0.553576
-0.751258
-0.633236
0.820298
0.178572
0.940079
-0.634576
-0.214892
0.796438
-0.607196
-0.670237
-0.98714
-0.258253
0.712137
0.834378
-0.111031
0.334173
-0.775938
-0.343353
-0.95412
-0.0319103
-0.638956
-0.808798
0.463995
-0.0407304
-0.0731507
0.657117
-0.190172
0.407454
0.475895
-0.210932
0.288053
-0.948339
0.155832
0.435394
0.230252
0.095891
0.800818
-0.657617
0.219372
-0.479355
-0.327833
0.559276
0.262413
-0.615716
0.393634
-0.848638
-0.95452
0.944739
0.135051
-0.908619
0.239852
0.496115
-0.390374
0.0308703
-0.544635
0.536475
0.0150102
0.265193
0.270953
-0.182052
-0.945759
-0.441014
-0.130391
0.537115
0.99438
-0.900159
-0.0399504
-0.877779
-0.557756
-0.493555
-0.0300903
0.441454
-0.934299
-0.440654
0.825738
0.786378
0.0377704
-0.801738
0.731097
-0.827198
-0.710357
-0.0290703
0.668917
-0.100731
-0.99822
-0.875739
-0.237232
0.0168102
0.716517
-0.9663
0.834758
-0.902219
-0.0802708
0.0313903
0.96196
-0.0858909
0.131251
-0.0780108
0.363374
0.900539
0.755478
-0.666737
0.341973
0.821178
-0.107371
0.494735
0.934579
0.930399
0.692997
0.665657
-0.569776
-0.690337
-0.0363904
-0.900859
0.535975
0.292433
-0.449554
-0.701277
-0.363734
-0.406014
-0.340533
-0.528995
-0.308213
0.579216
0.502415
-0.346273
-0.179652
-0.0393104
0.902759
-0.816298
0.188252
0.658217
-0.155992
-0.142751
0.806418
-0.936339
-0.320993
0.740977
-0.678917
-0.300953
0.733657
-0.248672
0.00871009
-0.302753
0.177512
-0.455315
0.98968
0.727957
0.170452
-0.374054
-0.678057
0.829938
0.423994
0.340773
0.736177
0.253433
-0.678477
-0.443494
-0.458855
-0.775738
0.0672507
0.729397
-0.790498
0.911259
-0.0863309
-0.657057
0.97494
0.592696
-0.916099
-0.376954
-0.708277
0.817558
0.374374
0.300433
-0.158172
-0.448134
-0.827858
-0.168512
-0.393134
0.669657
0.784478
0.255853
0.826618
0.208472
-0.403394
0.562776
-0.538115
-0.0818708
-0.880739
0.00305003
0.469435
0.513555
0.0594706
-0.99404
0.424794
0.97316
-0.651097
0.726757
0.565836
-0.240152
-0.650197
-0.815418
-0.095571
-0.948799
0.812058
0.746257
-0.0698707
0.98422
-0.095231
0.536995
0.9809
-0.310753
0.119871
0.807498
0.897719
0.716477
0.697297
-0.313373
-0.0383704
0.816558
-0.9833
-0.241912
0.330093
0.403234
-0.235952
0.0819108
0.376374
0.439994
-0.191332
0.269233
-0.473135
0.485515
0.780858
0.431294
0.863759
0.592896
0.504575
-0.206132
0.577096
-0.590676
-0.342113
0.885019
0.098571
0.777758
0.692497
0.323313
0.821258
0.389774
-0.663017
0.109911
0.533355
-0.319273
0.867999
0.190472
-0.916059
-0.0409304
-0.400574
0.787358
-0.273913
0.408094
0.383614
0.252953
0.220632
0.164452
0.0112701
0.0843708
-0.242652
-0.484175
-0.794718
-0.338533
-0.0748307
-0.136831
-0.453515
-0.649236
-0.0320303
-0.433994
-0.99888
0.116251
0.9558
-0.334853
-0.773838
0.816178
0.345873
-0.905859
0.00665007
0.756878
0.0532305
0.606076
0.544215
0.779318
0.341193
0.254873
0.359314
-0.111151
-0.580696
-0.629436
-0.699757
0.176652
-0.113591
-0.494475
0.838138
-0.861399
0.695757
-0.288353
-0.183592
-0.336293
0.277653
0.144571
0.779958
0.233432
0.809718
-0.9939
0.376654
0.482635
-0.572696
-0.289673
0.239492
0.807578
-0.683617
0.110731
0.586876
0.98462
-0.634416
0.273213
-0.126551
-0.215092
0.643796
0.500735
-0.711417
-0.469815
-0.99374
-0.546255
-0.00417004
0.702017
0.165392
0.812238
-0.307253
-0.556956
-0.0431904
-0.200272
-0.9965
0.0935509
0.132891
0.380154
-0.423834
0.560196
-0.909539
0.815658
0.367754
-0.266113
-0.0736107
0.281653
0.0455305
0.619016
-0.445134
-0.753998
-0.596096
-0.474315
0.746757
-0.307493
0.0558706
-0.919959
0.146251
-0.621276
0.782058
-0.361314
-0.482015
-0.198172
0.0817308
0.801838
0.928599
0.412274
-0.104611
0.0614706
0.119471
0.798598
-0.0513105
0.536975
0.614256
-0.683577
-0.402094
-0.132331
0.925139
0.643436
-0.186292
-0.192972
-0.783518
0.217632
0.332713
0.96324
-0.762838
-0.284393
-0.95674
0.710457
0.0943309
-0.847658
-0.650877
0.612316
0.281213
0.757898
0.741197
0.209792
0.170172
-0.363434
-0.728737
-0.383334
-0.564856
0.219952
-0.846378
-0.623576
0.863439
-0.248472
0.571136
0.788558
-0.277993
-0.615156
-0.404434
-0.0615106
0.929519
-0.744697
-0.098291
-0.833338
-0.0290903
0.272013
-0.795858
-0.934779
0.751398
-0.446714
-0.99544
0.0325903
-0.361794
0.745757
-0.757638
-0.864599
-0.290653
-0.159332
-0.247932
0.471555
-0.939379
0.232752
0.847978
-0.748917
0.98428
0.746157
-0.633336
0.0333103
-0.541975
0.289273
0.9718
-0.612476
0.544575
0.200532
-0.118771
-0.484535
-0.200432
0.0853709
-0.419314
-0.449054
0.9657
-0.0877109
0.583536
-0.396094
-0.0149101
-0.847058
-0.260693
0.694437
-0.00639006
0.491395
0.165972
0.381274
-0.275873
0.340993
0.632356
0.0354304
0.414174
0.99902
-0.931259
0.872199
0.288273
-0.632436
-0.740297
-0.167172
0.568116
0.467975
0.348293
-0.305293
-0.446674
-0.743997
0.245672
-0.480975
0.495355
0.156232
0.122931
-0.519575
0.309173
0.862239
-0.498115
-0.697217
0.680657
0.99492
0.684057
-0.595236
0.662937
0.643456
0.767258
0.0770908
0.642456
0.835998
0.276313
0.257773
-0.796458
0.536015
-0.909419
-0.901319
0.331013
0.765938
-0.206592
0.884339
-0.651037
-0.633896
-0.269613
-0.828658
0.522335
0.853319
-0.348233
-0.168492
-0.95742
0.480715
0.461335
0.723237
0.475615
0.472415
-0.544955
0.138531
0.115851
-0.777718
-0.457355
0.0853509
-0.614696
0.818958
-0.656897
-0.411154
0.681997
-0.239272
0.0145901
0.0129901
-0.146311
-0.864979
-0.102691
0.529715
-0.498875
0.627716
0.701057
-0.649516
0.808058
-0.320133
0.509035
-0.822338
-0.839438
-0.0296503
0.900919
0.96322
-0.230192
-0.317013
0.101731
0.885659
-0.0947309
0.644376
0.298033
0.290573
0.463315
0.641136
-0.793558
0.472335
-0.271093
0.548075
-0.514695
0.582596
0.683097
0.709657
0.112291
-0.488755
0.664397
0.140391
-0.138251
0.472455
-0.852719
-0.629236
0.650117
-0.692157
0.668177
0.878059
-0.728957
-0.234992
-0.111931
0.699817
-0.349353
-0.879639
0.671217
-0.724277
0.737977
0.461555
0.916859
0.944439
-0.0661307
-0.354254
0.819538
0.419174
-0.444614
0.502635
0.128811
0.99472
-0.659097
-0.206792
0.135091
0.202652
-0.407314
0.282373
0.900479
-0.430174
0.917259
0.895679
-0.552116
-0.484675
-0.339333
0.662997
-0.457835
0.638356
0.783378
-0.786638
0.914079
0.521335
0.674917
-0.842038
0.792798
-0.0641906
-0.196292
0.612336
-0.645036
0.686137
0.441994
0.810838
0.680857
0.782898
-0.0689307
0.142971
0.312593
0.523755
-0.247612
0.540095
-0.579396
-0.330373
0.435754
0.195532
0.512015
-0.576556
-0.141471
-0.945839
-0.938219
-0.358114
-0.405414
0.97588
-0.836798
-0.403474
-0.539135
0.95602
0.532355
0.591616
0.895379
-0.785658
0.277753
0.337353
-0.647796
-0.0414104
0.447274
0.283273
-0.571416
-0.240152
0.134051
0.180972
-0.373034
0.554676
-0.822358
-0.937299
-0.249812
0.689657
-0.513855
0.608716
-0.929159
-0.125011
-0.749417
-0.334573
0.177892
-0.259153
0.589016
0.638756
0.0238902
0.121351
0.230352
-0.0807508
0.662737
-0.491915
-0.416374
-0.98506
0.793718
-0.96912
0.625256
-0.777698
0.117791
-0.240692
0.730317
0.744757
-0.686037
0.907959
-0.865499
0.391194
0.924639
-0.0523105
-9.00009e-05
0.9955
0.822678
0.577536
-0.0120501
0.000550006
-0.354594
-0.423054
-0.360714
0.669297
-0.97468
-0.803318
-0.0844308
0.688077
-0.295233
0.499195
-0.96996
-0.174472
0.857139
0.655297
0.374874
-0.0250903
-0.585416
0.105171
-0.280353
0.0555906
0.340173
0.181192
-0.553216
0.264793
-0.871119
0.773738
0.587316
0.95156
0.351254
-0.097691
0.279153
0.99668
0.806298
-0.754538
0.993
0.831638
-0.557856
-0.0914309
0.846738
0.473975
-0.265213
-0.796198
-0.700517
-0.408094
0.859099
0.674357
0.893859
-0.399274
0.106551
-0.386494
0.656317
-0.553296
0.794698
-0.896919
-0.96146
-0.749397
-0.796158
0.9529
-0.797838
0.555116
-0.144811
0.481315
0.878819
-0.0114701
0.726777
0.871799
-0.179852
-0.504035
0.107391
-0.00609006
0.96994
0.842198
0.197712
-0.403554
-0.238872
0.383834
-0.402174
-0.345013
0.98456
0.704377
0.595536
0.96792
-0.521875
0.717257
-0.601976
-0.156292
0.96788
-0.398114
-0.203412
-0.502935
-0.843018
0.97884
0.97838
-0.96422
-0.0326503
-0.96784
-0.765398
-0.885479
-0.144831
0.342013
0.108431
-0.174912
0.511235
-0.366834
0.421534
-0.400614
-0.655977
-0.98066
0.254373
-0.671417
-0.949239
0.176932
-0.376474
-0.471115
-0.105811
0.0215502
0.372594
0.189092
0.623436
-0.503795
0.686157
0.780418
-0.524975
0.99156
-0.856779
0.442374
-0.649256
-0.295113
0.556896
0.205932
-0.626076
-0.00765008
-0.969
-0.787818
0.625516
0.779598
-0.188432
-0.703417
-0.874039
-0.607016
-0.0477905
-0.823278
0.569916
0.575736
0.0326503
-0.208872
-0.402734
-0.267733
0.98022
-0.779298
0.228492
0.666357
-0.671857
0.703517
0.657897
-0.201572
0.145891
-0.99136
0.503315
0.0298103
0.541615
-0.795738
-0.97784
0.572616
-0.583556
0.97472
0.679237
0.228012
-0.728717
-0.867759
0.948039
0.223492
-0.691037
0.517955
-0.200792
0.668677
-0.690937
0.396494
-0.599076
-0.710717
0.944239
0.95646
-0.717337
-0.727637
0.659977
0.940579
0.0707907
0.132891
-0.723757
-0.098871
-0.837318
0.817858
0.105391
-0.815158
0.717497
0.848878
-0.840438
0.723777
0.403934
-0.242112
0.856019
0.351954
0.9814
-0.507995
0.196932
0.107631
-0.839338
0.506015
-0.495895
-0.111351
-0.877679
-0.551676
-0.154912
-0.595016
0.0477505
-0.167912
-0.327413
-0.554436
-0.707997
0.275873
0.346713
-0.218252
0.0937109
-0.220872
-0.0334103
0.138251
-0.0449504
0.453195
-0.137991
-0.641036
-0.461875
-0.281993
-0.96206
-0.480495
0.537055
0.234892
0.627136
0.697737
-0.259113
-0.541715
-0.0865909
0.190252
0.233652
-0.914479
0.922279
-0.718617
0.244672
-0.405134
-0.273033
0.863719
0.870739
-0.599296
-0.354554
0.291493
0.506875
0.939099
-0.570276
-0.538095
0.392274
0.291733
0.147911
-0.742577
-0.663237
0.185872
-0.223072
0.873819
-0.579256
-0.268893
0.898579
0.488675
0.189392
0.139011
-0.321093
-0.576976
0.224552
-0.398834
0.0314703
-0.203752
0.523075
0.758438
-0.340053
0.393814
-0.513835
0.305413
-0.314713
0.99304
0.244492
0.442054
-0.545055
-0.0362104
-0.266233
0.602856
0.221232
0.397574
-0.211292
-0.674817
0.271373
0.536495
0.0562906
0.496995
0.0251503
-0.427294
-0.364014
-0.96892
0.322793
-0.812438
-0.367734
-0.645756
-0.0161902
-0.844678
-0.887339
0.643776
0.876179
-0.401174
0.276213
-0.111511
-0.0811108
-0.479315
-0.669477
0.373834
0.811518
0.391334
0.303733
0.0327303
0.115931
-0.580536
0.357934
-0.612696
0.95598
-0.258753
-0.788678
0.308153
0.313973
-0.152692
0.339253
-0.0362104
0.0348903
-0.701457
0.318033
-0.98132
-0.546135
0.757738
0.9895
-0.342913
-0.316413
0.265693
0.872619
0.602476
-0.886599
-0.796858
0.303353
0.924939
0.921519
-0.0658907
-0.0423504
0.0374504
0.353574
-0.357394
0.751798
0.636576
0.710917
-0.709857
0.271773
0.351914
0.137451
-0.388994
-0.684317
-0.500635
-0.0904509
0.633716
-0.154892
0.690457
0.718477
-0.165412
-0.325433
-0.597956
-0.572676
-0.452815
-0.668457
-0.459275
0.0773708
0.634896
-0.207312
0.325913
-0.431014
-0.922619
-0.309613
-0.750398
0.0470305
-0.230792
-0.786798
-0.242072
0.0593506
0.484975
-0.890179
-0.803198
-0.904039
-0.247452
0.0232102
0.332553
-0.286713
0.868319
0.350054
-0.568256
0.0299503
-0.9754
0.160832
0.784318
-0.101171
0.492395
-0.674977
0.9762
0.454315
0.444774
0.302113
-0.649656
0.522155
-0.680477
-0.0730107
-0.430834
0.0887509
0.140191
0.327113
-0.851919
-0.374834
0.763978
-0.328073
0.0481705
-0.483475
0.695157
-0.292233
0.556856
0.890499
-0.942199
0.98862
-0.0795708
-0.590556
0.476475
-0.295273
0.308293
-0.0311503
0.356814
0.611516
-0.249792
-0.198432
0.240652
0.100551
-0.676297
0.560196
-0.97248
0.219912
-0.351074
0.494755
-0.452995
-0.202992
-0.553056
-0.361974
0.795998
0.822178
0.481595
0.491135
-0.470075
0.0384304
0.708657
-0.0852309
0.354074
-0.370914
0.651257
-0.169452
0.660857
0.286573
-0.873579
0.344693
-0.101911
-0.123371
-0.853759
-0.861279
-0.695797
-0.203012
-0.97406
-0.341233
-0.9831
-0.325133
-0.519435
-0.109051
0.798938
-0.0724907
0.856019
0.921959
-0.250333
0.337593
0.413074
0.279593
-0.296933
0.448754
-0.478615
-0.942879
-0.922179
-0.827358
0.214712
-0.934279
0.459215
0.341153
0.410414
-0.315673
-0.455195
0.556676
0.150112
0.176072
-0.319313
0.176052
0.834838
0.0246302
-0.822038
-0.357574
-0.757378
-0.696077
0.569956
-0.901379
-0.774138
-0.680397
0.763278
0.96598
0.926259
-0.533675
0.414714
-0.552376
-0.476555
0.819598
-0.0526905
0.738177
0.885319
-0.266433
0.406354
0.295713
0.744937
0.95116
0.179412
-0.104971
0.454255
0.860119
-0.601876
0.289093
-0.115271
-0.096871
0.931519
0.454395
0.207052
0.828498
0.553036
0.759958
-0.851899
0.316293
0.725917
-0.598616
0.782618
0.467655
0.176052
-0.366914
0.287233
-0.549595
-0.301713
0.172532
0.183972
-0.895379
-0.204712
-0.0711107
-0.617176
0.9747
-0.849038
0.837078
0.834798
-0.450915
0.453195
0.0465705
0.452215
0.711757
-0.172012
-0.0137101
0.867279
-0.618996
-0.253773
-0.657597
-0.97568
-0.200832
-0.256213
-0.866039
-0.733197
-0.753118
-0.232932
0.881099
-0.302713
0.792398
0.0536105
-0.791718
-0.775938
-0.824078
0.137171
-0.393114
-0.849378
0.615176
-0.229012
-0.687557
-0.835758
-0.448774
0.686057
0.943499
-0.409994
-0.485955
0.256813
-0.542735
-0.104951
-0.99698
-0.200312
-0.0806108
0.129231
0.870519
0.380394
0.396054
-0.882619
-0.852559
0.604176
-0.185332
-0.733117
-0.0151902
0.0229502
-0.509055
0.160752
-0.512835
0.424874
0.311373
-0.570636
-0.477115
0.623816
-0.0793308
0.0741107
0.636916
-0.135851
0.99116
-0.849058
-0.551996
-0.551576
0.373034
-0.221932
0.575156
-0.380554
0.907319
0.445654
0.99986
0.630396
0.563056
-0.852719
0.234552
-0.295253
-0.585836
-0.780658
-0.945259
0.232152
0.380094
-0.131051
-0.342993
0.0184902
0.298313
0.179912
-0.0306503
-0.781038
-0.418954
-0.393754
0.410174
-0.427794
-0.242812
0.858179
0.0206302
-0.869799
-0.363774
-0.0771908
-0.250333
