-1.06825
-0.354324
-2.89083
1.39481
1.80634
-2.15626
-4.33756
7.37903
-0.867289
5.84606
-7.91008
-7.32687
-1.33353
3.40987
0.816088
-3.24651
3.23995
2.05738
-6.80687
1.57114
5.01933
-4.37452
4.89421
2.43978
5.24269
-4.73949
4.10396
-6.72815
0.472405
2.35786
-0.651767
7.40415
-3.38027
4.45756
3.41515
-6.95775
-3.08251
7.07759
-4.96253
6.66655
4.92349
-4.87261
7.33967
-1.79386
6.53727
2.77195
5.57598
4.3934
-3.17083
-6.61471
-2.03562
-6.1515
-2.98923
-5.14141
6.90463
-5.74654
0.735447
5.62478
-1.85834
-6.79231
2.59883
5.49005
-7.38831
7.21855
4.56381
6.64319
-5.12285
-6.51887
5.72062
-2.08538
-5.23597
5.26045
1.04217
-3.28011
-1.91722
2.19562
7.49199
-4.34124
-1.41097
-1.06265
-2.95595
4.55341
3.40219
2.05498
-5.97182
2.30682
4.30844
2.76363
2.54779
-5.55006
3.97132
-2.85339
7.94
7.19935
-1.01865
4.50365
5.84238
1.8585
-7.39887
3.563
-5.61054
-4.63485
3.43963
3.43163
0.0850409
-6.47774
0.243442
2.19322
-2.81899
6.83247
-6.86943
2.22522
6.00222
4.53277
-1.10361
-7.96976
1.45577
-4.79533
2.79403
-3.99644
-2.34538
1.38153
3.76652
0.210962
0.580886
-5.25229
-0.669207
-1.5769
4.60637
-0.0680807
-3.39771
-6.38798
5.91342
-7.95824
5.04365
0.614806
-3.81948
-2.71307
-5.19213
3.97788
-1.26425
-1.44521
-1.79706
-3.26219
-2.2961
5.09933
-3.23195
7.15967
-5.07981
-5.82174
-2.22058
3.19131
3.55996
-6.45422
-4.59789
-3.85932
-3.70636
2.73291
5.18013
-4.4838
-2.71883
-6.21758
-2.87179
-4.80557
-3.55948
-3.21195
6.42558
0.621046
4.69133
-6.76655
-3.40107
-4.57309
2.40458
5.41821
2.78107
-7.89168
5.13389
7.54928
-6.11566
-5.32973
-3.65628
-0.336243
5.86158
7.90368
3.82604
-6.73647
-1.33945
-5.26413
6.61295
-4.15932
0.868409
-4.10604
0.239442
-7.38719
1.70474
4.67997
-2.59915
0.130321
-0.0826408
-3.29163
3.98012
7.13263
0.135441
-1.61546
7.16703
-5.08365
1.10937
6.91711
-2.91819
2.99371
-6.41262
4.04204
-2.72635
7.44895
6.56191
-4.28412
-4.67117
-2.77755
-1.54826
-3.44203
3.67948
-6.06366
3.06827
-4.08124
-5.45085
-3.22715
-4.78509
2.56635
7.51952
5.74862
7.27487
3.49947
7.49743
2.0265
-3.49963
-6.71935
7.5592
5.60974
-7.8024
-3.35899
3.21963
-3.59868
-4.70077
-7.50688
-1.53338
-6.13902
-3.79084
1.79546
-0.916569
5.27725
-7.03039
-2.62091
7.21375
4.03788
1.29785
-3.62092
-7.18943
7.12927
6.94559
-7.66992
7.49407
6.2203
6.4459
6.99151
2.86299
-5.05389
-7.728
2.42202
-4.82797
-4.91405
-6.32078
6.39166
-0.512565
-3.02155
6.88495
5.95406
-1.16041
-2.2897
2.3657
-7.46079
-2.39626
3.33531
-2.08154
-3.18267
-0.626966
-6.1675
1.19657
2.79995
-4.42204
2.75835
5.74638
-4.92797
3.59484
4.19228
-5.93662
-1.54234
-6.24542
-3.04827
-7.12047
-3.07323
2.65403
-5.44109
-4.68173
-5.8587
-0.462645
-5.79694
-5.28845
-7.00687
2.52971
7.6936
-6.4675
-7.86656
3.02875
2.0673
-0.432884
-2.98203
3.8998
-4.62013
-5.56574
7.47791
6.13822
-7.81952
-2.83387
1.7329
4.37276
1.84586
-5.19325
6.1275
-6.58623
-4.31356
-2.32954
4.0678
-1.75466
0.98873
6.20926
-7.60112
5.8083
-4.463
-6.60783
0.337843
-4.76941
-5.07533
3.08763
-7.12447
7.60832
-5.34525
0.510005
3.50796
-1.96538
2.94427
5.60206
-1.21081
3.12475
-2.61563
-4.86173
2.11386
7.23023
-2.05482
2.85755
-7.35615
4.24796
-7.47215
4.71181
-5.50686
1.51658
5.53726
-2.49162
1.94106
-4.30956
-1.09945
-5.7211
-1.07897
4.44156
7.98288
2.41306
4.04972
-5.36253
-5.07709
2.17402
3.28859
-7.51664
2.39226
-3.30603
3.60812
7.7768
-0.167762
0.338163
7.00687
-7.6064
-4.80445
-5.73294
4.64157
-4.2766
6.97887
-6.2491
7.85648
7.13231
-0.740567
1.79738
-5.17741
-7.22383
6.69263
4.36012
5.21789
6.67551
-1.22697
3.8838
-4.07084
4.31228
-1.94234
-6.16606
7.41199
-7.55008
-1.47209
3.01995
-7.77344
-7.02351
-2.02554
-6.15038
-6.62991
1.17001
-3.88332
6.01182
7.50992
-2.28826
-5.6211
-6.01758
-3.15611
1.63834
3.7798
2.28298
2.41466
5.08877
-1.35705
2.24874
3.76412
-7.96784
-1.86762
-5.69054
4.34444
6.80655
-3.85644
3.75628
-6.12734
2.67147
1.39241
-5.90078
3.64796
-6.01694
-1.43481
7.63456
3.15323
5.29837
-7.7376
5.27933
-4.99005
-5.35869
7.26175
2.47034
6.89615
5.65774
-3.24683
3.927
5.36269
3.39611
-1.82442
3.743
3.42827
6.92431
6.05262
2.3889
5.7307
-5.80398
0.761368
7.60336
7.48383
-3.23003
-3.68124
5.74814
-1.24681
5.50046
5.38253
-3.47739
2.79867
5.64494
-6.19822
5.80862
-7.71392
-4.32028
0.278803
-6.20158
-4.04636
5.03197
5.72542
-6.68367
3.04427
-4.09916
5.05933
1.08873
-2.55851
3.11179
-4.52253
-4.82797
7.92416
4.23884
-2.60827
-5.97582
-4.37484
4.32684
7.77232
2.37834
1.82714
7.77104
-6.48286
-3.37435
5.41581
-2.06474
-2.94939
-7.68192
1.61498
5.32941
-5.88334
-7.8152
4.97773
7.84208
-6.49886
2.63819
-1.64074
-6.82319
-4.27308
3.80076
6.90495
-0.795608
-6.41102
6.82911
-1.94042
1.59706
-4.53053
4.30108
-2.0761
-4.75837
-1.32073
-5.63278
-4.98749
2.81275
-1.00697
-4.95549
-7.25215
6.65999
-4.63741
4.97917
6.60559
0.095601
5.16397
6.1995
2.55403
-6.71855
0.837688
-7.08687
-5.54174
4.56461
4.71389
-6.63695
-1.61482
-7.08095
-5.19165
4.44476
2.51627
-1.72218
0.745687
-7.56
1.51946
-5.95886
-5.19277
7.14831
4.85389
4.4166
-3.19099
5.60174
3.07643
2.78811
2.58075
4.29836
-5.11645
2.36106
2.4977
5.43757
3.64252
-4.66477
6.3507
6.10078
7.89984
5.68078
-5.91998
-1.71498
6.59999
-3.11147
-2.65403
1.11609
3.16635
-7.29199
4.17244
-0.697847
-5.25085
-6.40414
1.06665
-5.78062
6.01262
5.87582
7.82112
3.70524
0.663767
5.01821
0.00344003
6.16366
-0.620886
-5.49885
3.60124
-2.36218
0.452725
4.56813
-1.64522
0.352564
4.86525
0.434804
-6.74623
3.46507
5.32333
-1.40025
-0.802648
3.10603
-0.692247
-2.01402
-2.97563
4.67341
-0.418164
-7.29279
6.89279
0.210642
6.58303
-6.67007
-1.46777
1.86298
-7.03567
-6.84815
0.0266403
2.95979
-1.73066
-1.75594
-7.40255
6.72223
-5.18797
-1.04777
-0.925369
-5.70654
7.38719
0.328403
5.75854
7.32671
-6.45566
-0.427924
5.04893
0.852249
-7.82576
-3.31051
0.141841
-0.243762
-2.60315
-0.96553
-5.41693
-1.40393
0.364404
3.73164
-7.54096
1.32889
4.88365
3.10203
-3.71148
-4.84717
-4.03772
-0.497525
-6.1251
1.39065
6.4547
0.949529
3.68428
-7.54208
-4.10588
4.059
-5.59902
0.0549605
-4.36892
-5.9339
-4.4766
-1.57834
-1.24425
3.66524
6.1779
6.76895
-5.30045
-4.62269
-2.63515
5.6803
7.10895
0.440244
1.62538
3.99244
-1.84154
-7.46975
-6.23838
2.12074
2.64907
-4.36348
-4.4886
3.71996
7.20255
7.19567
4.17804
-2.28714
3.25451
-6.80479
5.76782
-6.49822
-2.12234
-6.70895
-0.0764008
4.63341
4.95629
0.717687
6.01854
-5.72798
4.095
-4.61661
-5.43133
5.8203
6.43998
6.81039
4.42892
-3.40155
7.34063
6.19054
-6.66463
4.60589
-3.5566
-3.15323
0.325843
-4.3542
-3.95772
-3.49627
1.35865
-6.08686
0.315283
1.74282
-4.58509
6.19294
3.03387
5.95486
5.44269
-0.0098401
-1.32745
3.46107
4.87853
-2.61627
-6.53935
7.44719
-4.79613
7.9008
6.25758
-5.75086
-0.884569
-7.78576
-4.94413
0.450805
4.82029
-0.500725
5.29773
-2.85403
3.14507
-4.0438
4.26604
-0.879929
0.485685
-0.802488
-7.13727
3.90076
0.00664007
3.8966
4.4718
-2.55083
-1.49705
-4.85581
-4.4734
-2.00218
3.14443
-3.01275
0.0612006
-7.03551
-3.11211
0.934969
-4.78637
6.61967
1.14937
-1.73034
-0.929529
0.585846
5.76894
-3.63196
-7.652
3.53036
2.94059
7.23039
-5.34973
-4.57373
-1.57226
-1.87066
-6.05678
6.43438
-3.35787
6.41502
-1.5001
5.76158
-3.82444
2.0265
-4.24076
7.31999
-6.37006
3.82044
-7.71568
-1.48201
-3.24459
-1.88554
-0.246162
-7.47903
4.38412
6.82431
1.10681
4.76925
-2.19146
4.07116
0.299443
-7.25087
3.30139
5.56606
-1.20825
-3.65468
-4.30476
0.734967
-2.60411
2.95387
1.76618
3.8958
0.715287
-7.44207
0.538485
4.47452
7.87792
2.16858
0.294803
-5.22141
-4.69725
7.66656
0.893049
3.05659
-7.81264
-0.106641
1.8809
3.91052
-3.33755
7.68944
-0.0184802
7.5784
-4.94525
-2.1009
7.76064
1.8465
2.24442
-1.92778
-2.80235
7.64048
-6.97407
-6.41982
6.15246
1.74122
-5.8619
-1.30905
0.831928
-5.98398
-7.14063
-6.87343
-0.589046
-3.83788
-4.59053
-7.69616
7.21871
-4.40316
2.81355
1.09945
-5.8763
-5.90782
3.40523
4.72157
-6.32958
6.45998
-5.37933
-3.9526
2.92283
7.48143
2.11962
-5.26333
7.12175
3.14555
-3.68316
5.27421
-0.497045
-1.5449
-1.41865
-7.66528
3.08747
-0.559286
-3.92236
-2.88539
3.60284
-0.512885
-2.58155
5.43773
5.70046
-5.15181
1.15353
-5.55966
-3.05963
-0.825048
7.16191
1.22729
-2.36522
-6.21758
5.27469
-4.82621
-6.73615
2.0105
-2.08938
-4.99821
-0.227762
4.84381
-5.10781
7.27519
-2.0849
1.47353
-5.7739
-4.38124
-7.08591
-1.69626
0.733367
7.13327
-7.5928
-7.23199
7.18735
-7.27615
-4.3838
0.340723
-4.83581
0.556726
7.51568
-5.67406
-3.5998
-0.233362
-1.27513
-3.70892
5.55694
2.60507
6.30158
-1.91626
5.60686
-1.92634
-5.07261
-7.50096
-0.0349603
3.45899
4.58893
2.19114
7.07775
-7.88064
-4.88893
-0.188882
-6.13118
-4.48172
0.579126
-6.94399
-1.14153
6.81183
4.01308
2.02266
1.98474
6.14494
6.96511
6.38494
-2.08842
-2.31018
-5.32413
-1.9153
-7.70528
-7.02271
4.16844
5.90158
1.6673
-6.28798
-6.98319
-6.36782
5.17101
-7.77792
3.82332
6.86511
-7.65856
6.93439
-1.32393
-5.78974
-2.93099
-6.12862
-4.73357
3.92748
-7.31695
-6.1043
-2.04986
2.66779
-7.95936
-3.08491
3.66892
-2.04778
5.22125
6.34478
6.65327
5.51598
-6.06174
2.82155
6.03374
3.60556
7.14991
-6.3331
5.23773
4.32092
-6.11102
3.67724
3.18587
-5.76958
5.22797
-3.52188
-3.55932
-5.70318
-1.6505
2.32346
-7.15951
1.64906
4.21932
1.40697
-3.68332
4.25996
-7.06175
7.98576
-3.17163
6.1595
-7.05343
-4.51853
6.29166
-5.11501
-7.08079
6.94175
-6.89327
-7.93104
-7.39151
6.34462
7.00623
-5.50254
4.63805
4.80829
-0.655767
1.86586
-4.0974
6.40126
6.77903
2.25226
3.34107
-5.76414
-4.09884
-0.439764
3.64284
2.83419
-1.56362
7.19759
5.43613
5.8811
7.97328
6.38286
-4.02124
6.26494
-6.73231
-3.10203
7.82288
-3.00923
-0.416724
-7.5688
-2.04842
-1.41049
-2.45498
-5.41037
-1.98602
7.5056
7.07183
1.91674
5.9067
-7.53296
-3.83116
3.86396
-5.29709
2.68635
-1.95962
-7.03807
0.136721
4.47676
-5.22429
-2.42714
4.97405
-5.25101
-1.42809
-7.04735
-4.36988
-0.160402
-2.14938
-4.54717
4.83037
5.43405
-1.49961
-5.21805
-1.36025
6.66175
-0.0120801
4.65373
6.16718
1.67594
-1.42969
6.69007
2.14298
5.35549
2.55403
7.46223
2.65803
-7.40575
-4.95949
-5.20525
7.68752
-2.18378
2.98395
4.66141
3.18155
-6.4443
-7.7696
6.81167
4.01164
0.697367
-3.11931
3.45819
-1.86874
3.38107
-7.14367
7.38735
4.65901
0.844248
4.04108
2.82603
-5.47981
-2.77243
4.13244
7.27951
-5.41693
-1.31369
6.74175
5.24109
1.8969
-6.2179
-5.34797
4.2006
-0.401684
5.63598
3.47835
-2.60379
7.19167
3.70876
-3.79228
3.20315
-3.59404
3.70492
-1.33865
5.15373
-0.914169
-0.482325
4.54093
-4.25516
-5.02173
3.19819
-6.81295
-2.50155
-7.57424
5.31949
-3.22219
-4.99117
-1.37801
-4.4806
-7.75024
-7.48111
-0.0821608
-5.09805
7.33583
-5.8675
-4.84589
2.81403
-0.471285
-5.65422
-1.47737
6.35278
5.54894
5.5451
2.05754
-1.17353
2.69867
-4.24028
6.3443
1.85578
2.1209
-6.67759
-2.94603
3.30795
1.43721
-2.52027
3.24379
-7.16879
3.10491
-6.13438
-1.03289
5.97102
-2.99915
6.88495
-4.51085
-1.04697
-6.98271
-1.35657
-6.2331
3.16235
0.98921
2.90603
1.51514
1.15433
3.06731
-4.42748
7.98096
-2.23418
1.94858
-7.05871
-5.76222
-3.93068
-3.11995
1.9081
7.37743
6.31726
7.38783
5.23741
7.14847
5.10893
-6.28078
-1.88458
3.07995
-1.27977
-0.383284
6.56911
-7.71056
3.25035
-2.78763
-5.94366
-1.5873
-7.18223
7.57872
-5.45597
1.97226
2.64587
0.732887
4.56941
-4.97213
-5.31853
5.5107
-2.73419
-1.24921
-5.60942
7.17391
0.744407
-4.67597
-6.82207
-2.01834
-2.91131
6.28686
-0.298963
3.20427
3.983
-6.96255
-2.56283
2.55211
-6.67311
-7.31263
-5.61934
-2.00042
1.71642
-4.80141
-2.4217
4.26044
7.7872
-7.776
-3.00667
4.35644
-4.74797
-0.325203
1.86698
3.13419
6.42558
6.87391
2.30794
1.78634
-3.18587
6.10222
7.768
1.90282
7.00543
2.08522
-0.276723
2.98827
3.12267
5.16045
-2.45978
7.06591
-7.53584
2.53739
-2.93451
2.18058
5.73598
5.26013
-1.55898
5.52302
5.48413
6.0507
1.8793
-4.64765
-2.27466
-1.63754
6.48654
-1.23289
-0.147441
3.41083
-7.44671
4.66669
1.5129
-5.06237
1.18569
3.13451
5.02285
-7.09103
-1.87722
2.76187
6.06942
6.27934
1.82762
6.53359
0.816568
-6.4907
3.33051
-1.44761
-6.61439
-6.22862
-1.30841
-6.51391
-5.56174
-4.81293
-3.16155
0.163602
4.16588
-4.67501
-6.4531
-1.36537
-6.64799
-5.89966
-4.69885
2.86491
-0.345683
4.487
-2.00058
-3.32299
-7.98784
6.73855
7.43887
6.08158
5.01773
3.88284
7.23151
0.450645
-7.99168
2.56187
-6.38078
-6.60591
6.94959
0.310963
-5.11981
-6.61231
6.11438
2.33498
4.16764
2.28026
-7.72384
-7.66928
-7.08527
-6.37182
-2.95259
-1.16761
7.10959
4.70173
-2.06442
-0.274803
-6.62127
-2.05226
-1.53642
-4.56621
-1.35449
-1.9025
-6.06718
0.493205
6.54815
-6.0587
-4.94509
-7.83264
-2.04826
-3.37931
3.09467
3.44827
0.624726
1.20889
-2.2169
-0.591446
-4.51101
0.675767
-0.260563
-0.97977
2.30394
4.78685
-7.5312
1.41337
4.10492
-1.59562
-6.86159
5.48365
4.35212
-0.398004
-4.46636
-2.38618
-7.68416
-2.53339
6.10718
6.86399
2.02426
-4.22172
-6.35246
7.976
0.399124
4.74221
6.04046
-4.35996
0.567446
-1.56026
5.6651
6.67279
7.11551
-2.59563
-2.30714
1.41945
-3.19259
-1.83834
-5.16733
-4.47148
7.18239
-1.41241
-4.37164
6.1507
-7.19423
-0.837848
-4.23548
-6.87839
4.62877
-6.12846
-5.39805
-1.34713
0.266163
-1.13417
1.24505
-4.71853
-4.39196
1.9017
-1.07833
6.79183
-7.65872
-3.41339
5.46445
-5.92686
4.60733
-2.22634
3.49259
-3.96908
3.93532
-7.05855
-0.440404
5.73406
2.14538
5.8043
3.8846
2.95131
-3.03371
7.64912
6.68927
-3.78876
-3.86316
-6.70895
5.48045
4.40316
0.157042
-1.27465
7.68464
6.38142
-4.75677
1.22249
5.17309
-4.41532
-7.57472
5.25373
-2.34218
7.64896
-4.97277
-4.2334
-4.32012
-6.4211
-0.675607
5.85582
7.31295
-6.53023
6.2763
5.81374
4.42108
-4.75741
5.46285
3.11019
-0.546165
-3.78412
7.01775
-3.06571
-4.76477
1.79098
6.27598
-2.46378
0.172242
-6.48078
6.75871
-0.0384804
-0.279763
-6.19966
-2.78491
7.9944
-6.55087
2.85883
-4.23916
-0.254643
4.43772
3.08523
0.217362
6.36686
4.55501
-1.50634
4.18044
3.59228
1.73626
4.25948
1.31881
-4.19372
-7.52464
0.336403
0.740567
-1.67306
-3.25643
1.6329
3.86316
7.53216
3.15211
5.23821
-0.506485
-2.51147
7.03855
7.32495
-2.51723
-4.89613
4.79997
1.24361
2.84939
1.23753
-1.05497
-4.93341
-0.395764
-1.88362
1.56026
-4.21532
-6.2915
-2.0873
-7.956
3.02731
1.71914
-4.86429
-2.0201
-2.92411
4.07916
2.72347
6.70879
-0.0578406
2.25546
4.47708
-0.203442
-3.63484
-6.03454
1.45129
-1.69354
-0.551766
4.55533
-4.89373
-4.69197
-0.595446
6.96031
2.25322
5.08749
-1.43561
-7.63056
1.26409
4.96541
-3.30571
7.17679
7.62592
-5.66206
3.51212
-5.23853
2.93419
-4.79565
-6.54319
-2.34234
-6.08702
1.39913
-5.47069
-6.99359
-4.18812
1.51098
-2.41178
5.26333
7.81744
7.65296
4.43484
-2.4601
-5.03917
-1.54442
-3.49995
7.8304
-4.45708
3.06459
-5.18397
4.80701
2.64619
2.12682
6.60015
2.27194
4.46476
4.72845
7.64992
-0.601206
7.9328
-6.89343
7.6728
-3.53788
5.12205
-3.18155
-2.53147
-7.06607
6.32942
5.6731
-7.18655
6.1467
5.32589
5.24829
-4.31356
-5.09693
-4.29628
0.186642
-5.26669
1.86298
-2.13258
0.165842
1.28633
-4.87021
-5.7075
-0.113681
5.40189
-6.62655
-3.38539
7.668
3.38859
-0.836248
-4.60925
5.67774
3.62588
-7.48719
-5.50398
-6.90575
-3.93692
-7.17471
-6.61647
-0.507125
6.97199
6.70959
-0.642646
-2.72539
-6.3875
5.67742
-7.92256
-1.03785
-0.459765
0.561206
-6.25582
-7.17359
3.69116
-1.34697
3.32907
3.70924
2.64283
-5.43997
3.37707
-1.96858
1.72378
-6.61599
-4.291
-2.65051
-6.10318
-1.79498
1.06009
0.576246
1.64666
2.44362
-7.93104
3.23483
1.15305
-0.573686
-7.49071
5.38189
-2.89643
-4.79677
-1.03961
7.26031
3.76444
0.704567
-7.91344
2.07178
-6.02606
6.03214
-2.21914
4.61677
-7.40799
-4.22588
-5.35197
2.31578
-2.84171
0.97337
-5.71854
1.67146
-6.20542
3.34155
-3.13595
3.44123
0.401364
-0.450645
-1.32409
-3.82924
-6.40798
1.8017
-3.83116
-1.30441
5.00493
3.12923
0.572086
3.38555
-1.54986
3.27515
-2.54267
0.424084
1.30713
5.85454
-2.95931
1.89914
-3.755
2.30522
-1.16889
4.01964
-2.10522
3.72892
0.307283
-0.310483
1.68666
5.17133
-2.25306
-5.91214
-3.27931
4.423
0.874969
-1.6873
0.840888
5.04397
7.62464
-2.15434
0.173042
0.196722
-4.1526
6.62319
-1.91194
3.92108
1.66346
7.39519
1.77562
6.70431
3.91052
-7.36319
3.62572
-2.64219
4.65645
-6.47966
-6.91343
-3.03643
3.8262
2.77323
-3.24875
-6.42686
7.47743
4.08828
-7.38767
0.352404
-5.59918
4.06956
-2.60379
-3.35835
-3.46859
5.56926
7.45471
0.378804
6.80879
-2.45738
-3.70012
0.472085
-3.06235
-7.30831
1.79258
-4.53565
-6.67151
-2.58187
0.822168
-7.39887
1.55498
1.90874
0.181042
-0.00264003
-0.701847
4.93229
1.5705
-1.22441
1.02041
4.79917
-6.25582
6.03758
0.868569
-0.859609
-2.70443
5.39997
-0.674167
-3.24987
0.395124
0.750808
4.90925
4.69501
-4.16076
-6.15326
-7.99712
5.63182
-2.68875
-6.66863
-2.3337
-7.25039
-6.0675
-6.16254
2.65851
4.72989
1.83482
-3.42715
1.66218
-1.97834
5.96478
-2.70123
-5.17933
7.70896
-2.0473
6.30574
1.46553
3.24827
6.3219
-7.20863
-5.38541
-1.28313
4.15852
7.52384
-1.97194
7.99776
-4.01308
-1.96906
5.62958
3.91452
1.97866
-2.08794
4.66413
6.52751
-0.250483
1.93882
3.25739
-6.41582
6.51183
-3.08059
-0.394164
7.09279
4.83453
5.04301
6.80175
-2.59659
3.34859
0.267123
-4.73213
4.28668
3.67484
-2.11738
-2.3801
-0.166642
0.0226402
6.2643
-0.169042
4.00956
-3.70476
0.0767208
2.54027
-7.10991
5.98878
-0.795608
7.41775
-2.26186
-4.2406
2.67499
1.93882
-3.11259
-5.78942
-6.4555
-4.0198
-6.3387
6.58751
-5.21821
-0.935129
4.55229
5.66526
2.33274
0.838968
3.95644
-5.16845
-6.92495
-1.59402
5.47069
7.33935
-7.14687
4.09644
-4.36556
0.930009
-1.36329
-0.858969
1.53498
-7.54272
-1.44137
-6.11054
-3.78332
-6.76655
3.82828
1.10425
-1.93962
5.37277
5.08445
-0.278323
6.57663
-5.51758
-6.59727
3.12875
-5.23613
6.35198
-1.41609
6.72031
-4.20028
-0.341043
-0.257523
-6.72975
-1.00169
0.595766
5.36685
5.24909
-3.85804
-1.38025
-3.61004
5.67694
-0.922969
5.56494
7.5664
3.29371
-6.58543
3.39451
-0.98585
-0.525045
3.38363
-1.28521
7.19679
1.9601
3.81356
-4.78429
-0.294963
6.57759
-6.43246
6.2891
7.91408
-2.63259
-2.0521
-0.343443
-1.36233
7.56256
-7.74784
-1.37929
7.42799
-3.60588
5.24045
-4.1822
-3.31275
-3.68268
-4.00092
-3.74636
-5.77262
-2.58635
-5.73566
1.24153
4.88877
-7.73584
7.95648
6.70175
4.84061
3.76988
-6.0827
-3.45435
4.96365
-4.51501
-5.16541
4.87773
3.46875
3.39883
-0.849528
-3.27739
2.96139
-0.597366
3.34347
5.00557
6.4131
3.20011
-4.56045
-4.89981
7.5176
-0.561366
1.97018
-3.63884
4.85245
6.85103
5.6027
1.74106
7.11519
-7.8248
3.05899
3.9558
6.56159
4.97629
-7.49871
6.14142
-4.92253
-2.04778
3.01899
-6.83759
-6.64911
-3.21435
-2.11482
6.92863
6.80463
-6.77151
6.55039
5.21757
4.4286
-6.01006
-5.06589
6.56239
1.42857
7.52064
-5.07661
-1.71914
6.3715
-4.85757
-5.36189
-7.89712
-2.06602
5.6971
6.67503
-0.888249
2.67339
-6.2075
-2.74683
-7.63296
-0.255283
-5.11165
-6.47038
3.71196
-0.325843
-0.585206
5.25693
-1.52138
3.25963
3.80716
-1.68746
2.30442
-7.58672
1.24665
3.48315
1.84202
0.767128
6.40654
-5.26093
1.75498
-3.83484
-2.62267
4.4742
2.0993
-4.92573
3.14907
-6.78911
-7.63616
7.55792
1.08041
-7.26895
1.91882
3.96892
-3.12299
0.246962
-4.35708
4.2918
0.120081
2.12154
2.16762
-1.45641
-7.56608
-3.52812
-1.04313
4.29692
7.95504
-7.20127
-0.319603
-7.02223
-4.46204
-3.94844
-0.240722
3.53164
-7.47439
-3.52524
6.60591
6.29102
0.302163
-6.4139
5.84878
-6.61759
-5.68286
-0.232562
5.35133
-0.805848
-7.98576
-7.00591
-1.89786
0.134481
5.73214
-7.7304
6.67807
-7.21775
-0.642166
0.251123
7.69568
-0.687127
1.05001
-0.624086
2.90699
7.20431
6.04382
-5.33389
2.73579
6.56943
-0.858969
3.95788
7.47663
7.44319
5.54398
5.32525
-4.55821
-5.5227
-0.291123
-7.20687
4.2878
2.33946
-3.59644
-5.61022
-2.90987
-3.24811
-2.72427
-4.23196
-2.4657
4.63373
4.01932
-2.77019
-1.43721
-0.314483
7.22207
-6.53039
1.50602
5.26573
-1.24793
-1.14201
6.45134
-7.49071
-2.56795
5.92782
-5.43133
-2.40762
5.86926
-1.98938
0.0696807
-2.42202
1.42009
-3.64252
7.91744
5.82366
1.36361
-2.99243
-5.42445
6.63951
3.39195
2.72619
5.88942
2.02746
-5.42781
-3.54796
-3.67084
-6.2059
0.538005
5.83518
-6.32398
7.29007
-0.690647
-5.25645
7.79952
4.74157
-7.32879
-3.01563
-5.66622
6.54047
2.99499
2.40346
-1.26537
-3.58508
-6.62287
-1.34809
-3.14507
5.35725
6.27582
2.04682
6.61295
1.66778
-3.22715
4.50221
-4.30492
-0.654967
-7.04591
0.0244002
3.75548
4.10844
0.475765
-7.95232
3.39835
7.78528
-5.20877
5.81406
4.52669
-1.92122
-5.20157
-6.52335
-0.764568
-7.5904
6.49646
5.97006
-0.558966
7.87376
-0.761848
4.29596
7.8472
-2.48602
0.95897
6.45998
7.18175
5.73182
5.57838
-2.50699
-0.306963
6.53247
-7.8664
-1.9353
2.64075
3.22587
-1.88762
0.655287
3.01099
3.51996
-1.53066
2.15386
-3.78508
3.88412
6.24686
3.45035
6.91007
4.74317
4.0366
-1.64906
4.61677
-4.72541
-2.73691
7.08015
0.788568
6.22206
5.53998
2.58651
6.57007
3.11819
-5.30413
0.879289
4.26684
-2.55419
6.94399
1.52378
-7.32847
-0.327443
-3.20459
6.29886
-2.1913
3.26475
3.06891
2.02362
1.76506
1.31561
0.0901609
0.674967
-1.94122
-3.8734
-6.35774
-2.70827
-0.598646
-1.09465
-3.62812
-5.19389
-0.256243
-3.47195
-7.99104
0.930009
7.6464
-2.67883
-6.1907
6.52943
2.76699
-7.24687
0.0532005
6.05502
0.425844
4.84861
4.35372
6.23454
2.72955
2.03898
2.87451
-0.889209
-4.64557
-5.03549
-5.59806
1.41321
-0.908729
-3.9558
6.70511
-6.89119
5.56606
-2.30682
-1.46873
-2.69035
2.22122
1.15657
6.23966
1.86746
6.47774
-7.9512
3.01323
3.86108
-4.58157
-2.31738
1.91594
6.46062
-5.46893
0.885849
4.69501
7.87696
-5.07533
2.1857
-1.01241
-1.72074
5.15037
4.00588
-5.69134
-3.75852
-7.94992
-4.37004
-0.0333603
5.61614
1.32313
6.4979
-2.45802
-4.45564
-0.345523
-1.60218
-7.972
0.748407
1.06313
3.04123
-3.39067
4.48156
-7.27631
6.52527
2.94203
-2.1289
-0.588886
2.25322
0.364244
4.95213
-3.56108
-6.03198
-4.76877
-3.79452
5.97406
-2.45994
0.446964
-7.35967
1.17001
-4.97021
6.25646
-2.89051
-3.85612
-1.58538
0.653847
6.4147
7.42879
3.29819
-0.836888
0.491765
0.95577
6.38878
-0.410484
4.2958
4.91405
-5.46861
-3.21675
-1.05865
7.40111
5.14749
-1.49033
-1.54378
-6.26814
1.74106
2.66171
7.70592
-6.1027
-2.27514
-7.65392
5.68366
0.754648
-6.78127
-5.20701
4.89853
2.2497
6.06318
5.92958
1.67834
1.36137
-2.90747
-5.8299
-3.06667
-4.51885
1.75962
-6.77103
-4.98861
6.90751
-1.98778
4.56909
6.30846
-2.22394
-4.92125
-3.23547
-0.492085
7.43615
-5.95758
-0.786328
-6.66671
-0.232722
2.1761
-6.36686
-7.47823
6.01118
-3.57372
-7.96352
0.260723
-2.89435
5.96606
-6.0611
-6.91679
-2.32522
-1.27465
-1.98346
3.77244
-7.51504
1.86202
6.78383
-5.99134
7.87424
5.96926
-5.06669
0.266483
-4.3358
2.31418
7.7744
-4.89981
4.3566
1.60426
-0.95017
-3.87628
-1.60346
0.682967
-3.35451
-3.59244
7.7256
-0.701687
4.66829
-3.16875
-0.119281
-6.77647
-2.08554
5.5555
-0.0511205
3.93116
1.32777
3.05019
-2.20698
2.72795
5.05885
0.283443
3.31339
7.99216
-7.45007
6.97759
2.30618
-5.05949
-5.92238
-1.33737
4.54493
3.7438
2.78635
-2.44234
-3.5734
-5.95198
1.96538
-3.8478
3.96284
1.24985
0.98345
-4.1566
2.47338
6.89791
-3.98492
-5.57774
5.44525
7.95936
5.47245
-4.76189
5.30349
5.14765
6.13806
0.616726
5.13965
6.68799
2.2105
2.06218
-6.37166
4.28812
-7.27535
-7.21055
2.64811
6.1275
-1.65274
7.07471
-5.20829
-5.07117
-2.1569
-6.62927
4.17868
6.82655
-2.78587
-1.34793
-7.65936
3.84572
3.69068
5.7859
3.80492
3.77932
-4.35964
1.10825
0.926809
-6.22174
-3.65884
0.682807
-4.91757
6.55167
-5.25517
-3.28923
5.45597
-1.91418
0.116721
0.103921
-1.17049
-6.91983
-0.821528
4.23772
-3.991
5.02173
5.60846
-5.19613
6.46446
-2.56107
4.07228
-6.57871
-6.71551
-0.237202
7.20735
7.70576
-1.84154
-2.53611
0.813848
7.08527
-0.757848
5.15501
2.38426
2.32458
3.70652
5.12909
-6.34846
3.77868
-2.16874
4.3846
-4.11756
4.66077
5.46477
5.67726
0.898329
-3.91004
5.31517
1.12313
-1.10601
3.77964
-6.82175
-5.03389
5.20093
-5.53726
5.34541
7.02447
-5.83166
-1.87994
-0.895449
5.59854
-2.79483
-7.03711
5.36973
-5.79422
5.90382
3.69244
7.33487
7.55552
-0.529045
-2.83403
6.55631
3.35339
-3.55692
4.02108
1.03049
7.95776
-5.27277
-1.65434
1.08073
1.62122
-3.25851
2.25898
7.20383
-3.44139
7.33807
7.16543
-4.41692
-3.8774
-2.71467
5.30397
-3.66268
5.10685
6.26702
-6.2931
7.31263
4.17068
5.39933
-6.73631
6.34238
-0.513525
-1.57034
4.89869
-5.16029
5.48909
3.53596
6.4867
5.44685
6.26318
-0.551446
1.14377
2.50075
4.19004
-1.9809
4.32076
-4.63517
-2.64299
3.48603
1.56426
4.09612
-4.61245
-1.13177
-7.56672
-7.50576
-2.86491
-3.24331
7.80704
-6.69439
-3.22779
-4.31308
7.64816
4.25884
4.73293
7.16303
-6.28526
2.22202
2.69883
-5.18237
-0.331283
3.5782
2.26618
-4.57133
-1.92122
1.07241
1.44777
-2.98427
4.4374
-6.57887
-7.49839
-1.9985
5.51726
-4.11084
4.86973
-7.43327
-1.00009
-5.99534
-2.67659
1.42313
-2.07322
4.71213
5.11005
0.191122
0.97081
1.84282
-0.646006
5.30189
-3.93532
-3.33099
-7.88048
6.34974
-7.75296
5.00205
-6.22158
0.942329
-1.92554
5.84254
5.95806
-5.48829
7.26367
-6.92399
3.12955
7.39711
-0.418484
-0.000720007
7.964
6.58143
4.62029
-0.096401
0.00440004
-2.83675
-3.38443
-2.88571
5.35437
-7.79744
-6.42654
-0.675447
5.50462
-2.36186
3.99356
-7.75968
-1.39577
6.85711
5.24237
2.99899
-0.200722
-4.68333
0.841368
-2.24282
0.444724
2.72139
1.44953
-4.42572
2.11834
-6.96895
6.1899
4.69853
7.61248
2.81003
-0.781528
2.23322
7.97344
6.45038
-6.0363
7.944
6.65311
-4.46284
-0.731447
6.77391
3.7918
-2.1217
-6.36958
-5.60414
-3.26475
6.87279
5.39485
7.15087
-3.19419
0.852409
-3.09195
5.25053
-4.42636
6.35758
-7.17535
-7.69168
-5.99518
-6.36926
7.6232
-6.3827
4.44092
-1.15849
3.85052
7.03055
-0.0917609
5.81422
6.97439
-1.43881
-4.03228
0.859129
-0.0487205
7.75952
6.73759
1.5817
-3.22843
-1.91098
3.07067
-3.21739
-2.76011
7.87648
5.63502
4.76429
7.74336
-4.175
5.73806
-4.81581
-1.25033
7.74304
-3.18491
-1.6273
-4.02348
-6.74415
7.83072
7.82704
-7.71376
-0.261203
-7.74272
-6.12318
-7.08383
-1.15865
2.73611
0.867449
-1.39929
4.08988
-2.93467
3.37227
-3.20491
-5.24781
-7.84528
2.03498
-5.37133
-7.59392
1.41545
-3.01179
-3.76892
-0.846488
0.172402
2.98075
1.51274
4.98749
-4.03036
5.48925
6.24334
-4.1998
7.93248
-6.85423
3.539
-5.19405
-2.3609
4.45516
1.64746
-5.00861
-0.0612006
-7.752
-6.30254
5.00413
6.23678
-1.50746
-5.62734
-6.99231
-4.85613
-0.382324
-6.58623
4.55933
4.60589
0.261203
-1.67098
-3.22187
-2.14186
7.84176
-6.23438
1.82794
5.33085
-5.37485
5.62814
5.26317
-1.61258
1.16713
-7.93088
4.02652
0.238482
4.33292
-6.3659
-7.82272
4.58093
-4.66845
7.79776
5.43389
1.8241
-5.82974
-6.94207
7.58432
1.78794
-5.5283
4.14364
-1.60634
5.34941
-5.5275
3.17195
-4.79261
-5.68574
7.55392
7.65168
-5.7387
-5.8211
5.27981
7.52464
0.566326
1.06313
-5.79006
-0.790968
-6.69855
6.54287
0.843128
-6.52127
5.73998
6.79103
-6.72351
5.79022
3.23147
-1.9369
6.84815
2.81563
7.8512
-4.06396
1.57546
0.861049
-6.71471
4.04812
-3.96716
-0.890809
-7.02143
-4.4134
-1.23929
-4.76013
0.382004
-1.34329
-2.61931
-4.43548
-5.66398
2.20698
2.77371
-1.74602
0.749687
-1.76698
-0.267283
1.10601
-0.359604
3.62556
-1.10393
-5.12829
-3.695
-2.25594
-7.69648
-3.84396
4.29644
1.87914
5.01709
5.5819
-2.0729
-4.33372
-0.692727
1.52202
1.86922
-7.31583
7.37823
-5.74894
1.95738
-3.24107
-2.18426
6.90975
6.96591
-4.79437
-2.83643
2.33194
4.055
7.5128
-4.56221
-4.30476
3.13819
2.33386
1.18329
-5.94062
-5.30589
1.48697
-1.78458
6.99055
-4.63405
-2.15114
7.18863
3.9094
1.51514
1.11209
-2.56875
-4.61581
1.79642
-3.19067
0.251763
-1.63002
4.1846
6.0675
-2.72043
3.15051
-4.11068
2.4433
-2.51771
7.94432
1.95594
3.53644
-4.36044
-0.289683
-2.12986
4.82285
1.76986
3.18059
-1.69034
-5.39853
2.17098
4.29196
0.450325
3.97596
0.201202
-3.41835
-2.91211
-7.75136
2.58235
-6.4995
-2.94187
-5.16605
-0.129521
-6.75743
-7.09871
5.15021
7.00943
-3.20939
2.2097
-0.892089
-0.648886
-3.83452
-5.35581
2.99067
6.49214
3.13067
2.42986
0.261843
0.927449
-4.64429
2.86347
-4.90157
7.64784
-2.07002
-6.30942
2.46522
2.51179
-1.22153
2.71403
-0.289683
0.279123
-5.61166
2.54427
-7.85056
-4.36908
6.0619
7.916
-2.74331
-2.53131
2.12554
6.98095
4.81981
-7.09279
-6.37486
2.42682
7.39951
7.37215
-0.527125
-0.338803
0.299603
2.82859
-2.85915
6.01438
5.09261
5.68734
-5.67886
2.17418
2.81531
1.09961
-3.11195
-5.47453
-4.00508
-0.723607
5.06973
-1.23913
5.52366
5.74782
-1.32329
-2.60347
-4.78365
-4.58141
-3.62252
-5.34765
-3.6742
0.618966
5.07917
-1.6585
2.60731
-3.44811
-7.38095
-2.4769
-6.00318
0.376244
-1.84634
-6.29438
-1.93658
0.474805
3.8798
-7.12143
-6.42558
-7.23231
-1.97962
0.185682
2.66043
-2.2937
6.94655
2.80043
-4.54605
0.239602
-7.8032
1.28665
6.27454
-0.809368
3.93916
-5.39981
7.8096
3.63452
3.5582
2.4169
-5.19725
4.17724
-5.44381
-0.584086
-3.44667
0.710007
1.12153
2.61691
-6.81535
-2.99867
6.11182
-2.62459
0.385364
-3.8678
5.56126
-2.33786
4.45484
7.12399
-7.5376
7.90896
-0.636566
-4.72445
3.8118
-2.36218
2.46634
-0.249202
2.85451
4.89213
-1.99834
-1.58746
1.92522
0.804408
-5.41037
4.48156
-7.77984
1.7593
-2.80859
3.95804
-3.62396
-1.62394
-4.42444
-2.89579
6.36798
6.57743
3.85276
3.92908
-3.7606
0.307443
5.66926
-0.681847
2.83259
-2.96731
5.21005
-1.35561
5.28685
2.29258
-6.98863
2.75755
-0.815288
-0.98697
-6.83007
-6.89023
-5.56638
-1.6241
-7.79248
-2.72987
-7.8648
-2.60107
-4.15548
-0.872409
6.3915
-0.579926
6.84815
7.37567
-2.00266
2.70075
3.30459
2.23674
-2.37546
3.59004
-3.82892
-7.54304
-7.37743
-6.61887
1.7177
-7.47423
3.67372
2.72923
3.28331
-2.52539
-3.64156
4.4534
1.20089
1.40857
-2.55451
1.40841
6.67871
0.197042
-6.57631
-2.86059
-6.05902
-5.56862
4.55965
-7.21103
-6.1931
-5.44317
6.10622
7.72784
7.41007
-4.2694
3.31771
-4.419
-3.81244
6.55679
-0.421524
5.90542
7.08255
-2.13146
3.25083
2.3657
5.9595
7.60928
1.43529
-0.839768
3.63404
6.88095
-4.81501
2.31274
-0.922169
-0.774968
7.45215
3.63516
1.65642
6.62799
4.42428
6.07966
-6.81519
2.53035
5.80734
-4.78893
6.26094
3.74124
1.40841
-2.93531
2.29786
-4.39676
-2.4137
1.38025
1.47177
-7.16303
-1.6377
-0.568886
-4.93741
7.7976
-6.79231
6.69663
6.67839
-3.60732
3.62556
0.372564
3.61772
5.69406
-1.37609
-0.109681
6.93823
-4.95197
-2.03018
-5.26077
-7.80544
-1.60666
-2.0497
-6.92831
-5.86558
-6.02494
-1.86346
7.04879
-2.4217
6.33918
0.428884
-6.33374
-6.2075
-6.59263
1.09737
-3.14491
-6.79503
4.92141
-1.8321
-5.50046
-6.68607
-3.5902
5.48845
7.548
-3.27995
-3.88764
2.0545
-4.34188
-0.839608
-7.97584
-1.6025
-0.644886
1.03385
6.96415
3.04315
3.16843
-7.06095
-6.82047
4.83341
-1.48265
-5.86494
-0.121521
0.183602
-4.07244
1.28601
-4.10268
3.39899
2.49098
-4.56509
-3.81692
4.99053
-0.634646
0.592886
5.09533
-1.08681
7.92928
-6.79247
-4.41596
-4.4126
2.98427
-1.77546
4.60125
-3.04443
7.25855
3.56524
7.99888
5.04317
4.50445
-6.82175
1.87642
-2.36202
-4.68669
-6.24526
-7.56208
1.85722
3.04075
-1.04841
-2.74395
0.147921
2.3865
1.43929
-0.245202
-6.2483
-3.35163
-3.15003
3.28139
-3.42235
-1.9425
6.86543
0.165042
-6.95839
-2.91019
-0.617526
-2.00266
